username,0,1,2,3,4,5,6,7,8,9,10,11,12,13,14,15,16,17,18
anddrewwiles,1.0,0.0,0.0,0.0,0.0,0.0,0.0,0.0,0.0,0.0,0.0,0.0,0.0,0.0,0.0,0.0,0.0,0.0,0.0
down42roads,-0.9999999975894796,6.943371587224226e-05,0.0,0.0,0.0,0.0,0.0,0.0,0.0,0.0,0.0,0.0,0.0,0.0,0.0,0.0,0.0,0.0,0.0
BolivianNostril,0.9999999952186045,-3.3648094811288405e-05,9.181828067014187e-05,0.0,0.0,0.0,0.0,0.0,0.0,0.0,0.0,0.0,0.0,0.0,0.0,0.0,0.0,0.0,0.0
SciFiPaine0,0.9999999946027304,-2.6139917454454843e-05,4.6251624313063955e-05,8.92862315608095e-05,0.0,0.0,0.0,0.0,0.0,0.0,0.0,0.0,0.0,0.0,0.0,0.0,0.0,0.0,0.0
kublahkoala,-0.9999999963638293,6.731106002667273e-06,-1.1209576304748968e-05,-6.511196318336506e-06,8.401775644357482e-05,0.0,0.0,0.0,0.0,0.0,0.0,0.0,0.0,0.0,0.0,0.0,0.0,0.0,0.0
TheSausageGuy,0.999999997659256,-1.1276254608393693e-05,1.7799749976065344e-05,1.0943742103895613e-05,-3.096593145684104e-05,5.6203636342664086e-05,0.0,0.0,0.0,0.0,0.0,0.0,0.0,0.0,0.0,0.0,0.0,0.0,0.0
McKoijion,-0.9999999929201494,2.4902074637115165e-06,-1.536492314164632e-05,-2.2840615277719102e-05,4.106223651750643e-06,-8.91033027829592e-06,0.00011532332987666096,0.0,0.0,0.0,0.0,0.0,0.0,0.0,0.0,0.0,0.0,0.0,0.0
cdb03b,-0.999999996180366,8.815383413923877e-06,-1.396140301933625e-05,-8.590386505195237e-06,2.4053850085866925e-05,-4.355938363677662e-05,7.822167578175299e-08,6.940337121866431e-05,0.0,0.0,0.0,0.0,0.0,0.0,0.0,0.0,0.0,0.0,0.0
redditvoluntaryist,-0.9999999957114943,-1.7999137117699106e-06,-3.544209731792889e-06,2.2402284358761943e-06,8.837438158300698e-06,-1.7014898202453905e-05,-5.840289936047592e-06,7.384704058152825e-08,9.030210400728188e-05,0.0,0.0,0.0,0.0,0.0,0.0,0.0,0.0,0.0,0.0
Havenkeld,-0.9999999945764809,-1.2972236987278597e-06,-4.509032403533794e-06,1.7353248444292986e-06,1.0451255561797792e-05,-1.9919705593676962e-05,-5.920725832455274e-06,1.0411594496337724e-07,-5.362219072171606e-06,0.00010125299941637291,0.0,0.0,0.0,0.0,0.0,0.0,0.0,0.0,0.0
westatwork,-0.9999999970281818,8.414271052602404e-06,-1.5798079046365658e-05,-1.2890280592480606e-05,2.230918355118854e-05,-4.091946582676407e-05,-2.051434013625116e-06,-3.4864748493943505e-08,-1.8362673268327257e-06,-1.782365582427434e-06,5.7220951807115136e-05,0.0,0.0,0.0,0.0,0.0,0.0,0.0,0.0
AlphaGoGoDancer,0.9999999899118871,-6.2261310640926345e-06,1.5966225000418144e-05,1.0556358757921178e-05,-2.3725627840843318e-05,4.384139167038181e-05,5.064196942317687e-06,-1.2369907187610293e-07,4.621589705334942e-06,4.392282791622676e-06,-5.489285944727766e-05,0.00011919141007616094,0.0,0.0,0.0,0.0,0.0,0.0,0.0
PortablePawnShop,-0.9999999961884503,2.257679434554102e-05,-5.3455587873363734e-05,-5.7081177463604865e-06,1.2261554124182268e-05,-2.1948187901224694e-05,1.4864082504143604e-06,1.997259644119022e-08,1.3393034910148257e-06,1.2963813040602072e-06,7.578666124931866e-07,-6.507418347789135e-07,5.987114949689744e-05,0.0,0.0,0.0,0.0,0.0,0.0
super-commenting,-0.999999993807757,1.9066031048726653e-05,-5.488364401876908e-05,-3.039469751337266e-05,3.059412102493829e-06,-6.739692442297278e-06,-6.818102685238414e-06,6.0686608593385e-08,-6.162866705458358e-06,-5.921564149509433e-06,-3.75244099916742e-06,2.8354999637086597e-06,2.671658596747937e-06,8.877692517051785e-05,0.0,0.0,0.0,0.0,0.0
DCarrier,-0.9999999940169507,1.994651726905505e-05,-4.593460918981383e-05,-5.978914696166557e-05,2.2325394667317603e-06,-4.915238499582589e-06,-4.957473089206865e-06,4.6309509368887125e-08,-4.484771122389828e-06,-4.306798762117666e-06,-2.726903192297425e-06,2.0554076918581065e-06,1.947926502949809e-06,-6.134593870257498e-06,7.574979960377754e-05,0.0,0.0,0.0,0.0
CapitalismForFreedom,-0.9999999913224986,1.6033611875409776e-05,-6.0729123317537775e-05,6.629919885872389e-06,4.139767765129863e-06,-8.960939406601028e-06,-8.887300967041241e-06,1.616423423048968e-07,-8.07757567016413e-06,-7.715685922617035e-06,-5.002506921174817e-06,3.56368251930643e-06,3.560428191950242e-06,-1.1075351865526177e-05,-1.0337719488806156e-05,0.00011306982294505697,0.0,0.0,0.0
goldistastey,-0.9999999852755459,3.4382080368812913e-05,-6.911445335214187e-05,-4.975066984931529e-05,-2.5152720090537873e-06,6.441872753520086e-06,7.375629494456075e-06,4.4451393042071985e-07,6.385329069072361e-06,6.404915842226439e-06,3.534119973873958e-06,-3.783525202860852e-06,-2.400909939809514e-06,8.682989954116451e-06,8.128999548691543e-06,1.1258478992067587e-05,0.000143282339377036,0.0,0.0
PreacherJudge,-0.9999999852755459,3.4382080368812913e-05,-6.911445335214187e-05,-4.9750672336200456e-05,-2.5152693662242913e-06,6.441874209612296e-06,7.375630475562987e-06,4.4451392724379705e-07,6.385330298526577e-06,6.404915907336638e-06,3.534120015356259e-06,-3.7835261652895673e-06,-2.400909939809514e-06,8.682988703540333e-06,8.128997981768862e-06,1.1258478726311642e-05,-4.23423864718095e-06,0.00014321976023071834,0.0
Bobsorules,0.9999999831782308,2.0190467047732677e-05,1.3222980497895127e-05,-1.926494443806999e-05,-4.028187371663144e-05,8.147791963538325e-05,4.30716794911354e-05,4.0308603777571856e-07,3.856106552690702e-05,3.7390489481588555e-05,-3.5328511362784756e-05,-1.7690316743708683e-05,-1.5457825902445688e-05,5.0377254925247506e-05,4.7044767714034426e-05,6.19478273514822e-05,-3.872715304335136e-05,-3.988902817750424e-05,7.87956018136543e-05
