username,0,1,2,3,4,5,6,7,8,9,10,11,12,13,14,15,16,17,18,19,20,21,22,23,24,25,26,27,28,29,30,31,32,33,34,35,36,37,38,39,40,41,42,43,44,45,46,47,48
OnMyWhey113,1.0,0.0,0.0,0.0,0.0,0.0,0.0,0.0,0.0,0.0,0.0,0.0,0.0,0.0,0.0,0.0,0.0,0.0,0.0,0.0,0.0,0.0,0.0,0.0,0.0,0.0,0.0,0.0,0.0,0.0,0.0,0.0,0.0,0.0,0.0,0.0,0.0,0.0,0.0,0.0,0.0,0.0,0.0,0.0,0.0,0.0,0.0,0.0,0.0
ClearlyBanned22,-0.9999999799595598,0.00020020209831662333,0.0,0.0,0.0,0.0,0.0,0.0,0.0,0.0,0.0,0.0,0.0,0.0,0.0,0.0,0.0,0.0,0.0,0.0,0.0,0.0,0.0,0.0,0.0,0.0,0.0,0.0,0.0,0.0,0.0,0.0,0.0,0.0,0.0,0.0,0.0,0.0,0.0,0.0,0.0,0.0,0.0,0.0,0.0,0.0,0.0,0.0,0.0
Terex80,-0.9999999869233634,6.584079802165733e-06,0.00016158565221407943,0.0,0.0,0.0,0.0,0.0,0.0,0.0,0.0,0.0,0.0,0.0,0.0,0.0,0.0,0.0,0.0,0.0,0.0,0.0,0.0,0.0,0.0,0.0,0.0,0.0,0.0,0.0,0.0,0.0,0.0,0.0,0.0,0.0,0.0,0.0,0.0,0.0,0.0,0.0,0.0,0.0,0.0,0.0,0.0,0.0,0.0
MerrieLee,0.9999999810449862,-8.179879462554762e-06,-0.00013750633841624988,0.00013760495599093165,0.0,0.0,0.0,0.0,0.0,0.0,0.0,0.0,0.0,0.0,0.0,0.0,0.0,0.0,0.0,0.0,0.0,0.0,0.0,0.0,0.0,0.0,0.0,0.0,0.0,0.0,0.0,0.0,0.0,0.0,0.0,0.0,0.0,0.0,0.0,0.0,0.0,0.0,0.0,0.0,0.0,0.0,0.0,0.0,0.0
Potat_Potat,0.9999999914342081,-6.832527587070475e-06,-3.23079188959721e-05,8.735605138237237e-06,0.00012635184183890907,0.0,0.0,0.0,0.0,0.0,0.0,0.0,0.0,0.0,0.0,0.0,0.0,0.0,0.0,0.0,0.0,0.0,0.0,0.0,0.0,0.0,0.0,0.0,0.0,0.0,0.0,0.0,0.0,0.0,0.0,0.0,0.0,0.0,0.0,0.0,0.0,0.0,0.0,0.0,0.0,0.0,0.0,0.0,0.0
OpQuality,0.9999999902874275,-5.4840427636009366e-06,-8.011163933609228e-05,1.958525050979495e-06,8.00366959151768e-06,0.00011361910522689906,0.0,0.0,0.0,0.0,0.0,0.0,0.0,0.0,0.0,0.0,0.0,0.0,0.0,0.0,0.0,0.0,0.0,0.0,0.0,0.0,0.0,0.0,0.0,0.0,0.0,0.0,0.0,0.0,0.0,0.0,0.0,0.0,0.0,0.0,0.0,0.0,0.0,0.0,0.0,0.0,0.0,0.0,0.0
exotics,0.9999999569013706,-1.8739541954758224e-06,-1.4178041493888893e-05,1.819586773227221e-06,2.307287740398097e-05,8.638581275703773e-06,0.0002922027291112852,0.0,0.0,0.0,0.0,0.0,0.0,0.0,0.0,0.0,0.0,0.0,0.0,0.0,0.0,0.0,0.0,0.0,0.0,0.0,0.0,0.0,0.0,0.0,0.0,0.0,0.0,0.0,0.0,0.0,0.0,0.0,0.0,0.0,0.0,0.0,0.0,0.0,0.0,0.0,0.0,0.0,0.0
Ansuz07,-0.9999999943566655,6.355175508644364e-06,1.5982173938337834e-05,-4.990985987216854e-06,-3.886451047118249e-05,-4.837053701259153e-06,-2.2768338023642696e-05,9.441237502914213e-05,0.0,0.0,0.0,0.0,0.0,0.0,0.0,0.0,0.0,0.0,0.0,0.0,0.0,0.0,0.0,0.0,0.0,0.0,0.0,0.0,0.0,0.0,0.0,0.0,0.0,0.0,0.0,0.0,0.0,0.0,0.0,0.0,0.0,0.0,0.0,0.0,0.0,0.0,0.0,0.0,0.0
the_irvingtonian,-0.9999999888272993,2.8028090598970503e-06,3.8087761911452712e-06,-1.9964100471766773e-06,-3.428373202389881e-06,-1.498841223796514e-06,-6.363004118153077e-07,4.212314909594832e-06,0.00014928799196214264,0.0,0.0,0.0,0.0,0.0,0.0,0.0,0.0,0.0,0.0,0.0,0.0,0.0,0.0,0.0,0.0,0.0,0.0,0.0,0.0,0.0,0.0,0.0,0.0,0.0,0.0,0.0,0.0,0.0,0.0,0.0,0.0,0.0,0.0,0.0,0.0,0.0,0.0,0.0,0.0
hamletandskull,0.999999983610236,-3.8405478230515964e-06,-5.78744006126722e-06,2.7425869811789284e-06,6.096024945094271e-06,2.3119614078039405e-06,9.836932467150475e-07,-6.590464283253544e-06,-0.00015887819308517696,8.599170411150464e-05,0.0,0.0,0.0,0.0,0.0,0.0,0.0,0.0,0.0,0.0,0.0,0.0,0.0,0.0,0.0,0.0,0.0,0.0,0.0,0.0,0.0,0.0,0.0,0.0,0.0,0.0,0.0,0.0,0.0,0.0,0.0,0.0,0.0,0.0,0.0,0.0,0.0,0.0,0.0
tomgabriele,-0.9999999797187172,4.375463419228597e-06,7.343919256692053e-06,-3.1085673721834364e-06,-8.250804182446821e-06,-3.0551493024594155e-06,-1.616163766823916e-06,8.801951512478854e-06,0.00015104697061290402,-8.128013181446362e-05,0.00010440632655397339,0.0,0.0,0.0,0.0,0.0,0.0,0.0,0.0,0.0,0.0,0.0,0.0,0.0,0.0,0.0,0.0,0.0,0.0,0.0,0.0,0.0,0.0,0.0,0.0,0.0,0.0,0.0,0.0,0.0,0.0,0.0,0.0,0.0,0.0,0.0,0.0,0.0,0.0
neofederalist,-0.9999999916854879,5.4010375485091954e-06,2.7000903175591318e-05,-1.7767838920777364e-05,-3.9887826822045996e-05,-1.596172649542227e-06,-2.520219962767345e-06,4.667878251972563e-06,1.43875951897175e-06,-9.326411600176982e-07,9.288632753131163e-07,0.00011802363530525525,0.0,0.0,0.0,0.0,0.0,0.0,0.0,0.0,0.0,0.0,0.0,0.0,0.0,0.0,0.0,0.0,0.0,0.0,0.0,0.0,0.0,0.0,0.0,0.0,0.0,0.0,0.0,0.0,0.0,0.0,0.0,0.0,0.0,0.0,0.0,0.0,0.0
Loyalt,0.9999999830997026,-1.0882649714450143e-05,-1.8971677792754287e-05,1.1045360201437555e-05,3.472816095848703e-05,4.636672027586418e-06,1.2024478543096263e-05,-2.9932006283078415e-05,-5.2352401176067e-06,3.814942624040173e-06,-2.5451542719622667e-06,-2.4441319926450585e-05,0.00017402977802439537,0.0,0.0,0.0,0.0,0.0,0.0,0.0,0.0,0.0,0.0,0.0,0.0,0.0,0.0,0.0,0.0,0.0,0.0,0.0,0.0,0.0,0.0,0.0,0.0,0.0,0.0,0.0,0.0,0.0,0.0,0.0,0.0,0.0,0.0,0.0,0.0
kcbh711,-0.9999999901835237,3.6175511628571397e-06,1.3960997885283733e-05,-1.9735430849670938e-06,-2.6819267093337305e-06,-1.6836158763598425e-05,-1.317321200137391e-06,2.781915262128284e-06,1.8125569839935357e-06,-8.68732342817485e-07,5.974087809063861e-07,1.5012644183640967e-06,-2.5115697231476143e-06,0.00013823161582894423,0.0,0.0,0.0,0.0,0.0,0.0,0.0,0.0,0.0,0.0,0.0,0.0,0.0,0.0,0.0,0.0,0.0,0.0,0.0,0.0,0.0,0.0,0.0,0.0,0.0,0.0,0.0,0.0,0.0,0.0,0.0,0.0,0.0,0.0,0.0
thoselusciouslips,-0.999999968371678,8.336378786083794e-06,6.736500947965899e-05,-3.455160116772332e-06,-2.301707358423071e-05,-8.851813616168288e-05,-2.133437585793676e-06,1.234175560989101e-05,1.7684404750893802e-06,-3.551656943682108e-07,4.9878007689142244e-08,2.521975729079679e-06,-1.2571458641721116e-05,2.11234977246616e-06,0.00022347914640030164,0.0,0.0,0.0,0.0,0.0,0.0,0.0,0.0,0.0,0.0,0.0,0.0,0.0,0.0,0.0,0.0,0.0,0.0,0.0,0.0,0.0,0.0,0.0,0.0,0.0,0.0,0.0,0.0,0.0,0.0,0.0,0.0,0.0,0.0
Gammapod,0.999999969555496,-5.673831792247267e-06,-1.8362544336696592e-05,3.5798969813578826e-06,1.7810874809016162e-05,1.624901339319024e-05,4.525965385433828e-06,-1.5240008228112395e-05,-1.976546321759697e-06,4.917255065270285e-07,-1.4608148525222297e-07,-3.852303154109082e-06,1.2970500852397761e-05,-0.0001007840686074314,1.0762549615549433e-06,0.0002220967931463788,0.0,0.0,0.0,0.0,0.0,0.0,0.0,0.0,0.0,0.0,0.0,0.0,0.0,0.0,0.0,0.0,0.0,0.0,0.0,0.0,0.0,0.0,0.0,0.0,0.0,0.0,0.0,0.0,0.0,0.0,0.0,0.0,0.0
The_Josh_Of_Clubs,-0.9999999928220711,6.498000710088065e-06,2.5138410684832264e-05,-6.990535945428473e-06,-7.95322683626918e-05,-5.958346095799472e-06,-4.439025770411973e-06,1.9043784452829226e-05,5.197592869869687e-07,-9.284009251117302e-07,6.648269823211211e-07,-2.009664956511134e-07,-6.210301298825068e-06,-2.0488466088048613e-07,2.8250197912699383e-06,-2.499909003718792e-06,8.267477239756007e-05,0.0,0.0,0.0,0.0,0.0,0.0,0.0,0.0,0.0,0.0,0.0,0.0,0.0,0.0,0.0,0.0,0.0,0.0,0.0,0.0,0.0,0.0,0.0,0.0,0.0,0.0,0.0,0.0,0.0,0.0,0.0,0.0
aggsalad,0.9999999837387983,-1.1882244786332272e-05,-3.0629614846358025e-05,9.056983002587504e-06,6.826219538896476e-05,9.670298672208133e-06,6.4149787075751594e-06,-3.2335191933175456e-05,-3.944848221252588e-06,2.931011584843661e-06,-2.8650246042745217e-06,-4.637917704470439e-06,4.709261013092679e-06,-3.905346851113962e-06,-3.981402126827705e-06,3.824474899089728e-06,-5.996683360060101e-05,0.0001476592551440676,0.0,0.0,0.0,0.0,0.0,0.0,0.0,0.0,0.0,0.0,0.0,0.0,0.0,0.0,0.0,0.0,0.0,0.0,0.0,0.0,0.0,0.0,0.0,0.0,0.0,0.0,0.0,0.0,0.0,0.0,0.0
jm0112358,0.9999999928088428,-1.11042500148664e-05,-1.920876662679207e-05,8.245137547367559e-06,3.4063234489067685e-05,6.700831482467767e-06,1.8656867021596078e-05,-4.675765228440464e-05,-4.328152875004199e-06,4.5688038091231865e-06,-4.1613143931372645e-06,-5.732990844029508e-06,3.361430679459405e-05,-1.8527497599209112e-06,-8.598515352182734e-06,8.981283463980735e-06,-1.0966911487127505e-05,4.871860944350622e-06,9.252425833825848e-05,0.0,0.0,0.0,0.0,0.0,0.0,0.0,0.0,0.0,0.0,0.0,0.0,0.0,0.0,0.0,0.0,0.0,0.0,0.0,0.0,0.0,0.0,0.0,0.0,0.0,0.0,0.0,0.0,0.0,0.0
jm0112358_work,0.9999999882736891,-9.007490479340472e-06,-2.3698058982361115e-05,7.161261739291312e-06,5.48585052052335e-05,7.151394337476612e-06,1.3512721427900541e-05,-5.954020788067052e-05,-1.765072354175943e-06,1.5193351413405895e-06,-1.4905523547093663e-06,-2.4451182661768496e-06,2.4916376123472857e-06,-1.7417950361002269e-06,-1.9671479481003116e-06,1.8262834368911234e-06,-3.305645984800754e-05,5.441909599792018e-06,4.70509312692966e-06,0.00012163808754977418,0.0,0.0,0.0,0.0,0.0,0.0,0.0,0.0,0.0,0.0,0.0,0.0,0.0,0.0,0.0,0.0,0.0,0.0,0.0,0.0,0.0,0.0,0.0,0.0,0.0,0.0,0.0,0.0,0.0
getlough,0.9999999692980873,-1.1745528520280413e-05,-2.433104746679092e-05,8.137558307462241e-06,4.063914908697376e-05,9.33002687621089e-06,1.5212002563053097e-05,-8.162280115499505e-05,-3.654962257009309e-06,1.6393885529364027e-06,-1.2765174307778936e-06,-4.635183268821737e-06,8.23744685491099e-06,-4.552599904980525e-06,-1.8008705863789077e-06,8.254680445201018e-07,-2.6736670732046895e-06,7.383272469343976e-06,1.4389591318853148e-05,3.613354479135917e-06,0.00022707251314626057,0.0,0.0,0.0,0.0,0.0,0.0,0.0,0.0,0.0,0.0,0.0,0.0,0.0,0.0,0.0,0.0,0.0,0.0,0.0,0.0,0.0,0.0,0.0,0.0,0.0,0.0,0.0,0.0
dangerxmouse,0.9999999693676139,-1.753631903045495e-05,-3.9522958434518665e-05,1.1502747946950527e-05,6.422499916534484e-05,1.5681162143869665e-05,1.3115934453039448e-06,-2.3590588470541437e-05,-8.00301002507517e-06,4.877457132067918e-06,-4.857816382195132e-06,-1.0425043468095244e-05,5.22153552675209e-06,-9.158905464063268e-06,-6.740814775732783e-06,6.238536503305451e-06,-5.54775550585436e-05,1.6157891484506432e-05,1.3213907879340767e-05,1.2852880803024058e-05,8.061036107200578e-06,0.0002239969635264686,0.0,0.0,0.0,0.0,0.0,0.0,0.0,0.0,0.0,0.0,0.0,0.0,0.0,0.0,0.0,0.0,0.0,0.0,0.0,0.0,0.0,0.0,0.0,0.0,0.0,0.0,0.0
polysyndetonic,-0.9999999925175256,4.3066203312280684e-06,3.56043061789943e-05,-1.8477023688041316e-06,-5.920140415351879e-06,-4.772844083910238e-05,-2.269751549822764e-06,4.169709475075265e-06,1.2403668600361214e-06,-7.039661561660575e-07,6.042109817225324e-07,1.1295160883877366e-06,-3.8691076148280796e-06,8.798306107679594e-07,1.2376713592835561e-06,-1.308828290128482e-06,2.2975396900443686e-07,-1.5135969989876543e-06,-4.696641394433552e-06,-6.711691133494734e-07,-1.160837433101295e-06,-2.0063477161843318e-06,0.00010623954715379976,0.0,0.0,0.0,0.0,0.0,0.0,0.0,0.0,0.0,0.0,0.0,0.0,0.0,0.0,0.0,0.0,0.0,0.0,0.0,0.0,0.0,0.0,0.0,0.0,0.0,0.0
DayMorrow,0.9999999696488071,-7.464469669440096e-06,-3.460847517158134e-05,4.045353335214039e-06,2.0139445570416712e-05,3.951704482885724e-05,3.4862446457934118e-06,-1.5307111156998988e-05,-2.521807839341408e-06,9.400791960165315e-07,-5.448949268744134e-07,-3.7343277715751523e-06,1.44663813982712e-05,-2.9109144393129096e-06,-7.714707699494858e-08,6.162741953966289e-10,-6.797289405469329e-06,5.276640266737881e-06,2.2741455140057568e-05,1.8393962934145611e-06,1.520612918314402e-06,6.016753997815913e-06,-8.037359616390935e-05,0.00022335314415895097,0.0,0.0,0.0,0.0,0.0,0.0,0.0,0.0,0.0,0.0,0.0,0.0,0.0,0.0,0.0,0.0,0.0,0.0,0.0,0.0,0.0,0.0,0.0,0.0,0.0
SmellGestapo,0.9999999902228,-1.08118729066138e-05,-1.6395097050816586e-05,8.749107142293226e-06,2.9062324249706834e-05,6.510634039082123e-06,1.668433804056729e-05,-3.3650617196514957e-05,-4.944945130068567e-06,4.949561780167431e-06,-3.800324010070958e-06,-4.092975665705014e-06,4.6187979760876295e-05,-1.202093217721798e-06,-1.05499493933164e-05,1.0215246978323375e-05,-8.896964392663733e-06,-1.9716972860020287e-07,5.513741922126223e-05,-2.1870550892579264e-06,2.4239918897714722e-06,-3.255448829588271e-06,-7.59358173539303e-06,4.82545587293405e-06,0.00010555715126897087,0.0,0.0,0.0,0.0,0.0,0.0,0.0,0.0,0.0,0.0,0.0,0.0,0.0,0.0,0.0,0.0,0.0,0.0,0.0,0.0,0.0,0.0,0.0,0.0
paul_aka_paul,-0.9999999806633199,1.5018900843510354e-05,1.7492300863256798e-05,-1.0838059289301479e-05,-3.7367317245830744e-05,-4.544687064792507e-06,-1.3667938095510479e-05,3.0107280440706513e-05,7.638482515272196e-06,-6.325672596443271e-06,4.690254805030069e-06,2.618064467646833e-06,-4.3579077363393866e-05,3.54898966019795e-06,1.4198357292991795e-05,-1.417403131941029e-05,1.5039321911630157e-05,2.9540559228227523e-07,-4.806879255126456e-05,2.8175552176474055e-06,-5.533360328457481e-06,-4.892652279569113e-07,2.566001340035573e-06,-8.951352295209818e-06,-3.4300813765673336e-05,0.00017097878787804407,0.0,0.0,0.0,0.0,0.0,0.0,0.0,0.0,0.0,0.0,0.0,0.0,0.0,0.0,0.0,0.0,0.0,0.0,0.0,0.0,0.0,0.0,0.0
hiptobecubic,0.9999999828354985,-1.5344210525944128e-05,-2.1418416471016697e-05,1.1396127352070508e-05,4.822389067222506e-05,6.663378638419227e-06,1.7308631245727115e-05,-4.0399310288749275e-05,-6.510574007280468e-06,6.346515427511372e-06,-4.90387452305935e-06,-3.2233699086361366e-06,5.2578149795328394e-05,-2.5600402059496875e-06,-1.4171671916253843e-05,1.4737378115868434e-05,-1.982309037011993e-05,-6.67121847289814e-07,6.696529796047077e-05,-4.531618807384269e-06,2.4210573388205573e-06,-7.198683454745849e-08,-2.895603986608558e-06,6.9948791729578045e-06,4.4493720808581526e-05,-0.00010615615898631354,8.767478042738926e-05,0.0,0.0,0.0,0.0,0.0,0.0,0.0,0.0,0.0,0.0,0.0,0.0,0.0,0.0,0.0,0.0,0.0,0.0,0.0,0.0,0.0,0.0
ellipses1,-0.999999979951227,1.4371762950718875e-05,4.034235187534955e-05,-1.1360309901360123e-05,-0.0001132813138764659,-6.276510731163015e-06,-1.2091767500259656e-07,5.722758208116697e-06,5.101792921106591e-06,-3.1125003777961994e-06,3.3255540907541525e-06,6.111999880478977e-06,-9.836168773645705e-08,5.797146801387277e-06,2.8897954730615427e-06,-3.118991332203831e-06,-1.9326743103446458e-06,-1.2529491386012168e-05,-9.314938705233184e-06,-8.856593630294075e-06,-6.12213138183928e-06,-1.2692769633592205e-05,2.0314558765778183e-06,-2.7022572321454197e-06,5.433621871441324e-06,-1.277805342133299e-06,2.022912871640484e-07,0.00015660986282579287,0.0,0.0,0.0,0.0,0.0,0.0,0.0,0.0,0.0,0.0,0.0,0.0,0.0,0.0,0.0,0.0,0.0,0.0,0.0,0.0,0.0
hab33b,-0.9999999870708396,3.7174086326350313e-06,4.209122954175321e-06,-2.4075940367504314e-06,-1.7088600686511107e-06,-1.6991882942560234e-06,-6.355594879285272e-06,3.427390456374037e-06,2.4032357045570356e-06,-1.2214450652477192e-06,8.965164043725445e-07,2.1822054913335194e-06,-3.6703408854026157e-06,2.3404973714156994e-06,2.1582572785344985e-06,-1.7667173845830565e-06,-9.265697768218416e-07,-4.353713595229652e-06,-3.422536638723882e-06,-2.102085031259715e-06,-2.892211668318298e-06,-5.689372463132778e-06,1.289014165452097e-06,-1.6269920621533372e-06,-9.970715507778059e-07,2.4370967419578006e-06,-7.034720003382248e-07,4.523354140707086e-06,0.00016004562141313567,0.0,0.0,0.0,0.0,0.0,0.0,0.0,0.0,0.0,0.0,0.0,0.0,0.0,0.0,0.0,0.0,0.0,0.0,0.0,0.0
CoyotePatronus,0.9999999769766057,-5.504860058959895e-06,-7.171927365814044e-06,3.595073586548982e-06,5.3530790963229474e-06,2.983983920721683e-06,1.2927727761330435e-05,-6.531696015736682e-06,-3.303364345396005e-06,1.7853573642598149e-06,-1.3188690631844017e-06,-3.400006371881845e-06,7.366478556249889e-06,-3.463332474581454e-06,-2.8558461575996696e-06,2.331775976706925e-06,-8.188076814771144e-08,5.937033269843243e-06,9.133948995661172e-06,2.762937497358693e-06,3.498744039992981e-06,7.234957332861001e-06,-1.9536616795816152e-06,1.7352269611837219e-06,4.1125280980754944e-06,-5.046628563706434e-06,2.592845944210449e-06,-6.0134274735127225e-06,-0.0001432282537623051,0.00015748077120297636,0.0,0.0,0.0,0.0,0.0,0.0,0.0,0.0,0.0,0.0,0.0,0.0,0.0,0.0,0.0,0.0,0.0,0.0,0.0
kingpatzer,0.99999998581682,-1.0300678790131913e-05,-1.3761627827366607e-05,8.973318157365684e-06,3.390475125435961e-05,2.9096676595975855e-06,1.6435638714910766e-05,-3.929167842980318e-05,-5.069663769456508e-06,3.7322664432842445e-06,-1.9493803206356204e-06,-1.6880467150494215e-06,4.375378061761166e-05,-1.3519671258390734e-06,-8.806022536950293e-06,7.667564159155152e-06,-1.1810117056543602e-05,-4.677468191222211e-06,4.370959482433954e-05,-5.135601585703649e-06,1.6265249797516508e-06,-6.663177411063696e-06,-2.346589601768363e-06,3.932237717547279e-06,3.701023914202147e-05,-1.4818133060937324e-05,1.2105026032002473e-05,6.132801652383113e-06,-1.335396286441509e-06,9.902713513786752e-07,0.00013775715612579596,0.0,0.0,0.0,0.0,0.0,0.0,0.0,0.0,0.0,0.0,0.0,0.0,0.0,0.0,0.0,0.0,0.0,0.0
barefootnpublic,-0.9999999758887339,8.23688121999774e-06,5.234446173367785e-05,-3.6219997669315287e-06,-1.1204583510916633e-05,-6.929107268621544e-05,-2.789960081466093e-06,5.438949765800275e-06,3.2006697512391184e-06,-1.4372919094852975e-06,8.968705407971802e-07,2.4262492245785853e-06,-7.570464354887281e-06,2.908941775388185e-06,1.214743159063374e-06,-1.4624677191097417e-06,1.5966602071998268e-06,-4.314260604241106e-06,-7.393455184716721e-06,-2.296421402293033e-06,-3.189079975703757e-06,-4.9178681124820154e-06,1.3760101600412942e-06,-8.927634581114393e-07,-4.783707371499633e-06,6.879011022435069e-06,-2.153579068447758e-06,4.063868176654315e-06,2.9631219767733662e-06,-1.465852588493165e-06,-3.6162289749474153e-06,0.0002002887035046237,0.0,0.0,0.0,0.0,0.0,0.0,0.0,0.0,0.0,0.0,0.0,0.0,0.0,0.0,0.0,0.0,0.0
im--listening,0.9999999645286233,-4.7953872903827235e-06,-4.1214449389776065e-05,1.9987039976348826e-06,2.2421809408873948e-05,5.167665053967164e-05,1.2238270113926046e-05,-1.762271182572205e-05,-3.1179176455818413e-07,-6.266778639576535e-07,5.658274842594778e-07,-3.310182731698575e-06,1.3669057413356071e-05,-1.5693820372275733e-06,3.266836598782519e-06,-2.404526846889006e-06,-7.989651515753955e-06,2.78285564948458e-06,2.767187428939911e-05,4.0188028861100806e-08,-2.1504317984693225e-06,2.269048654871517e-06,-1.9661590241006503e-06,-5.3341699392762335e-06,1.2828585158287447e-05,-1.1855699062615597e-05,1.1506604585125769e-06,-2.9247778224218967e-06,-3.077536357905968e-06,8.720747141388454e-07,1.7593054783129588e-06,-0.00013633043459709298,0.00021347675924101128,0.0,0.0,0.0,0.0,0.0,0.0,0.0,0.0,0.0,0.0,0.0,0.0,0.0,0.0,0.0,0.0
jark831,-0.9999999770471268,9.308901780264502e-06,1.2685247613903324e-05,-7.822234575354689e-06,-2.8399278146444506e-05,-3.3142496367287753e-06,-9.495990890153798e-06,3.048124828896514e-05,4.700196745609141e-06,-2.729824090949015e-06,1.0793819315755e-06,1.9228794023821773e-06,-3.4387223449234255e-05,2.385594295235531e-06,6.425538959358031e-06,-4.888972838208645e-06,1.0449819852643788e-05,1.8621215509113468e-06,-3.313101969865689e-05,3.154025758093283e-06,-1.939331389752559e-06,3.2267690413657747e-06,2.348645176711128e-06,-2.6519737270452954e-06,-2.8001764626180346e-05,1.5070839232707974e-05,-6.534547459500782e-06,-2.5352069783725357e-06,2.3412252605120067e-06,-1.0622266408944876e-06,-9.263031520017386e-05,1.5406952270625687e-06,3.2783906971510923e-06,0.00017766533654540824,0.0,0.0,0.0,0.0,0.0,0.0,0.0,0.0,0.0,0.0,0.0,0.0,0.0,0.0,0.0
Holophonist,-0.9999999936202425,1.1840617404779217e-05,1.738474209806948e-05,-8.614200112567124e-06,-2.55490779969254e-05,-6.474323533558828e-06,-1.8881743033718254e-05,3.60725262193527e-05,5.512488749396449e-06,-5.7556551271125785e-06,5.121854996119822e-06,7.047848292101969e-06,-4.489941894050757e-05,2.0509618372179978e-06,1.100153018373691e-05,-1.1483610702260744e-05,4.709155357170799e-06,-5.007509114017955e-06,-5.978962015846119e-05,-1.3157166854402655e-06,-3.4494565895249886e-06,-1.7747522740858896e-06,2.579493891666243e-06,-5.19387039214839e-06,-3.3831139729780516e-05,1.1312888624022649e-05,-1.852185567361139e-05,2.8729786602855233e-06,3.146268097345599e-07,-1.1069878326657637e-06,-1.0129294592480207e-05,3.5620326684196374e-07,-5.069047511782871e-06,4.968907705332041e-07,4.529540359612789e-05,0.0,0.0,0.0,0.0,0.0,0.0,0.0,0.0,0.0,0.0,0.0,0.0,0.0,0.0
Nkklllll,-0.9999999827806028,4.895889703139983e-06,4.688029685177945e-06,-3.127994402728821e-06,3.025043448468947e-07,-2.0533109550557885e-06,-1.270235680045164e-05,2.538671308100144e-06,3.4774595332599136e-06,-2.0025282668036896e-06,1.5600796772777677e-06,2.440813804932611e-06,-4.5484331720712465e-06,3.1062319725060695e-06,4.176405470295808e-06,-3.7731963513735218e-06,-2.619321108854837e-06,-4.846988809283058e-06,-2.1473293742099877e-06,-2.4105267953833963e-06,-4.460503755383039e-06,-6.384869434783437e-06,1.5125137341167908e-06,-3.653209093223546e-06,-4.919232701517801e-07,3.8100478994503087e-06,-4.144527305850293e-06,4.815856768438116e-06,3.9675135155141665e-06,-3.679322260748211e-06,-2.153237041558356e-06,3.6461834824523015e-06,-3.851468398169577e-06,2.5345421923291043e-06,-3.371227664776045e-06,0.00018404460569290587,0.0,0.0,0.0,0.0,0.0,0.0,0.0,0.0,0.0,0.0,0.0,0.0,0.0
ralph-j,0.9999999901045855,-1.1438211249682899e-05,-1.5768312641997996e-05,9.139744495618327e-06,2.971021846791707e-05,4.567241716649131e-06,1.7572581707919932e-05,-3.570250976457372e-05,-5.260740860844006e-06,5.327173819721462e-06,-4.214168094111252e-06,-4.780991730649191e-06,4.796391718105489e-05,-1.4054033923076163e-06,-1.1102650563126891e-05,1.0853272290141993e-05,-8.638767502636367e-06,9.518542796125793e-07,5.886853730492636e-05,-1.5925055804659146e-06,2.7734958323819817e-06,-2.1058922474788294e-06,-2.145105919651147e-06,5.094834811504185e-06,3.7626431653270204e-05,-1.398470971157637e-05,1.8931117827712684e-05,1.0853913456417256e-06,-2.0313709678118596e-07,1.0238661037108866e-06,1.4676280359309947e-05,-8.087660182923112e-07,3.0514583183601776e-06,-1.0211434570819537e-06,-4.0364542069929716e-05,7.662552678760571e-09,8.238094524635922e-05,0.0,0.0,0.0,0.0,0.0,0.0,0.0,0.0,0.0,0.0,0.0,0.0
elliptibang,0.9999999855958005,-1.1618236850904688e-05,-1.4897028121494455e-05,9.679939656715371e-06,3.5200927186796546e-05,3.1124797399681516e-06,1.586412100834244e-05,-3.528757151976093e-05,-5.415824645963135e-06,5.0888837147114235e-06,-3.4169206223398714e-06,-1.0732066823085807e-06,3.945048548689311e-05,-1.3541774594874213e-06,-1.1984999778410697e-05,1.0944557207314906e-05,-1.40905838709486e-05,-2.394909928592829e-06,6.064461126199916e-05,-4.025057132486178e-06,2.84569057727721e-06,-5.2143729262137435e-06,-2.285833638353049e-06,5.51874313272322e-06,4.5379076044937275e-05,-1.9240493587293452e-05,2.0142608811105473e-05,4.395531664830521e-06,-4.2717577344749916e-07,9.770528731083914e-07,2.185821965761192e-05,-1.327393128680213e-06,7.464869149229018e-07,-2.2892684583301014e-06,-3.777836109257318e-05,-2.1234283037178305e-08,7.413228687326575e-06,0.00012218879711076172,0.0,0.0,0.0,0.0,0.0,0.0,0.0,0.0,0.0,0.0,0.0
Thomystic,-0.9999999641849905,-7.882367765268661e-07,1.006704392930987e-05,4.4484162266772366e-07,-1.603851196348034e-05,-7.916788255806283e-06,-2.4708119499316903e-05,2.0468348437310147e-05,-2.1991732390760225e-06,2.3460391813276876e-06,-1.7021742674932323e-06,4.434110872140993e-06,-1.0340178644640341e-05,7.740165651739642e-07,-4.864402889998985e-06,4.852139272626735e-06,5.428079620554516e-06,-1.4390700445443615e-06,-3.109079800746831e-05,4.331267476708891e-07,6.875972148532169e-06,3.27116820366967e-06,2.836443390852326e-06,7.912444942680344e-06,-1.1110418175973746e-05,1.0532887986275907e-05,-1.3091660992498583e-07,1.353753859065065e-06,4.248526883916516e-06,-2.0193475304921254e-06,1.963244697319994e-06,-2.45752103762023e-06,7.7519519446748e-06,-6.629608491567418e-06,3.4239336623490965e-05,1.0237206465240382e-05,7.053748428414081e-06,1.0511993809201257e-05,0.00025894824859419195,0.0,0.0,0.0,0.0,0.0,0.0,0.0,0.0,0.0,0.0
raanne,0.9999999641733287,2.23241439068999e-06,-9.927850880205324e-06,-1.3166274029446066e-06,1.7329741829983722e-05,8.371583045867112e-06,2.8612474369646733e-05,-2.245797292531903e-05,3.361355668140301e-06,-3.0514986512052715e-06,2.1913165937532817e-06,-4.454486474501107e-06,1.0413070177348533e-05,-5.835959765717816e-08,6.184402117055367e-06,-6.005060918447885e-06,-6.073964638037455e-06,8.033826124547229e-07,3.4780809171759724e-05,-1.0153862517075123e-06,-8.6813032976039e-06,-4.653634510190965e-06,-2.7799336893454264e-06,-9.585702277279535e-06,1.1888051736827527e-05,-1.0391707105855325e-05,-1.0156399003129308e-06,-7.42673903416521e-07,-4.257640847565299e-06,2.104293109634567e-06,-3.0603432410235456e-06,3.4859860457061708e-06,-8.57644141037107e-06,8.087150963343698e-06,-4.006542744064025e-05,-1.1173973037253144e-05,-8.484591597604186e-06,-1.274023978697636e-05,-0.00023145372562129898,0.0001105104744952055,0.0,0.0,0.0,0.0,0.0,0.0,0.0,0.0,0.0
sonsofaureus,0.999999964051793,-2.322573315527078e-06,-1.0486249526688843e-05,1.7476524969839879e-06,1.5763250961015733e-05,6.901388127206086e-06,2.667106437886192e-05,-1.838936677190782e-05,-1.5670277368802988e-07,-4.697098229253415e-07,2.79628641207539e-07,-4.074419854994369e-06,1.337468111263227e-05,-1.9362689438130742e-06,6.657463151808229e-07,-9.081680219318202e-07,-5.0399026847608675e-06,3.2121751272602043e-06,2.8607001287855814e-05,-6.051839588229197e-08,-2.3960197813987968e-06,2.248154120371815e-06,-2.67894994731253e-06,-3.7638582623762767e-06,1.1387977215588153e-05,-1.1901557589943339e-05,5.124958589092975e-06,-3.485803877388361e-06,-5.12354506448419e-06,3.71981427315655e-06,3.736478347559808e-07,-4.150059762817726e-07,-3.16229199226332e-06,3.111354414600819e-06,-2.5918611279638427e-05,-0.00014126892699020807,-5.003508344431489e-06,-7.762932125900894e-06,1.0455798848884214e-05,-5.4774418837709735e-06,0.00021936771926983503,0.0,0.0,0.0,0.0,0.0,0.0,0.0,0.0
BobbyBobRoberts,-0.9999999770471268,9.30890122571336e-06,1.2685247636499446e-05,-7.822232972101726e-06,-2.839927902512028e-05,-3.3142495748322256e-06,-9.495990062702647e-06,3.0481246954049856e-05,4.700197489287859e-06,-2.7298214258473546e-06,1.079381867087974e-06,1.9228822369196433e-06,-3.4387224725134316e-05,2.385594272053338e-06,6.425537397432147e-06,-4.888972766646614e-06,1.0449819852643788e-05,1.8621238065566638e-06,-3.313102581705992e-05,3.154024981119013e-06,-1.9393299229660124e-06,3.2267684929381536e-06,2.3486462273995924e-06,-2.651973344167543e-06,-2.800176672972901e-05,1.5070836213370622e-05,-6.5345487814801e-06,-2.5352083461370786e-06,2.3412239388471815e-06,-1.0622279152315298e-06,-9.263031236862135e-05,1.5406959097212892e-06,3.2783915631080376e-06,1.2128635840402712e-06,1.9356813614236173e-06,2.4654445402610305e-06,-1.238983126959916e-06,-2.6318487254721184e-06,-4.730371875492981e-06,3.5579964767592134e-06,4.511995328790178e-06,0.0001774537121393133,0.0,0.0,0.0,0.0,0.0,0.0,0.0
CommanderSheffield,-0.9999999647694845,5.121418443853606e-06,1.1362410046990783e-05,-3.3738449511436334e-06,-1.3018221272274602e-05,-6.536024909307342e-06,-1.4419617063575989e-05,1.4673252343302278e-05,2.3871715005713527e-06,-7.141063591952903e-07,4.884133648393795e-07,4.326713138906573e-06,-1.217620968193484e-05,3.5082189643530026e-06,1.43099239100137e-06,-7.53821617391936e-07,3.544424460662455e-06,-4.829884450057994e-06,-2.0186936423596237e-05,-1.6708329304843019e-06,-9.303748836522741e-07,-4.532849250384288e-06,2.957368539343386e-06,7.992413937299722e-07,-9.022185446057625e-06,1.1900378695491293e-05,-4.970973016231863e-06,4.948981383433228e-06,4.8139293172219024e-06,-2.8623159432008807e-06,-2.598371181171565e-06,2.184871049684035e-06,2.9228420135075117e-06,-6.677246642499239e-07,1.4471064215002742e-05,8.892035192778532e-05,2.218806682626251e-06,3.2262444013282114e-06,-7.721215776866816e-06,5.0242780982698675e-06,-0.00013466889119266755,1.1236920745706293e-06,0.00020570862636274634,0.0,0.0,0.0,0.0,0.0,0.0
TheSausageGuy,-0.9999999915472031,2.6216616017128707e-06,2.9908846241951036e-06,-1.7703519178533387e-06,-1.8649875736082828e-06,-1.018543195793277e-06,-4.163906465667066e-07,2.98249786350493e-06,1.6521291236074695e-06,-6.780304254644838e-07,4.176665019212877e-07,1.5033939361041974e-06,-2.4209884740016323e-06,1.587368970573434e-06,1.0600781753785282e-06,-5.958405577381127e-07,-1.7984923929029908e-07,-3.5545244987763427e-06,-2.754447550181635e-06,-1.625707185540029e-06,-1.8952608101020048e-06,-4.569884206149655e-06,8.104196074351749e-07,-6.324185115353495e-07,-3.550874293135935e-07,1.6113712677783839e-06,1.7327304382338552e-06,3.872496471189946e-06,1.3682255794522135e-06,-7.245753235955129e-07,-7.74540677860201e-07,1.4148797691995393e-06,1.1590006826441906e-06,4.846245868607623e-07,1.9101508794882316e-06,1.5793790449717504e-06,4.733341380021764e-07,1.0901480323844192e-07,-1.1218117507461507e-06,1.4447953952239952e-06,1.7456066897232622e-06,3.4077457451840367e-07,9.822150175917421e-07,0.00012949128476298283,0.0,0.0,0.0,0.0,0.0
holophonist,1.1764443663829476e-14,-6.443248033427029e-13,2.2953863646873854e-13,-3.4607905520603487e-12,1.865521484649498e-12,-2.3308330764854915e-13,-1.1700977173937376e-12,1.056907629791851e-13,-5.06506678428821e-15,3.3112626678172907e-13,-1.089157063711777e-13,1.3423823083248476e-12,9.307439597357147e-13,-1.7659952537803576e-12,-2.1907016202572445e-12,3.80081535145055e-12,-1.5011239384893068e-12,-1.2213237493578793e-12,-1.964431753864631e-12,-2.7591386166508843e-12,-1.4556834971308476e-12,5.230072175504348e-12,6.388606608577037e-13,2.779221058682658e-12,6.466878527313015e-14,1.2028202472765717e-12,2.353382502552401e-13,-7.479608130068511e-16,-1.1705871436055353e-12,-1.9494224781529784e-12,4.0068909035642986e-13,2.5449747022274576e-14,1.4461624991449035e-12,1.7418264269463867e-12,4.444972318700595e-13,2.441536026683524e-12,1.1082175038416221e-12,2.4792309404613474e-13,-2.4997784108189327e-12,7.036331362763857e-13,3.668922765995802e-12,-9.253311367422187e-13,1.729888886074357e-13,-2.5586889014276003e-13,1.0,0.0,0.0,0.0,0.0
matt2000224,-0.9999999618935667,-2.0464945208238355e-05,-4.84622226428917e-06,1.2119435602271454e-05,-6.957626291751808e-06,-6.586176089241555e-06,-0.00012369255138466084,1.643213464517388e-05,-1.3151701557169637e-05,7.5069224048087e-06,-4.330658977362751e-06,-1.508627804792488e-06,-4.09665099429775e-06,-9.256703991913075e-06,-1.2785674533222945e-05,7.619996010753812e-06,2.9236647289085746e-06,1.6704960676690855e-05,-4.141037900098418e-05,1.3485274680419425e-05,2.4275840989170017e-05,2.254844377439691e-05,9.423505784329738e-08,1.679728519327651e-05,-1.5593099318921375e-05,-8.391683616172745e-06,5.775383203867663e-06,-1.5965602963940154e-05,8.816608409141618e-06,-1.456454126142407e-05,4.8703683203124055e-06,-9.29257214528167e-06,-1.0549635300910349e-05,-1.673727757882254e-05,6.298686028259132e-05,2.7384926992748937e-05,1.341330839521859e-05,2.2054799346491446e-05,2.3814342952441456e-05,-1.9907299369939284e-05,-1.7747129846213017e-05,-1.5804421107614118e-05,-1.3309193005474918e-05,-1.1856200271367101e-05,-8.229026527076755e-16,0.00021725753153783452,0.0,0.0,0.0
DBDude,-0.9999999687490247,-6.189555482465588e-06,6.802900717115744e-06,3.8900429164508505e-06,-2.1552749862244123e-05,-7.330994937982063e-06,-6.45287662455887e-05,2.452267255632425e-05,-5.772314476182884e-06,3.990715706618354e-06,-2.3973496764681578e-06,3.3715968223824465e-06,-1.3288980181231216e-05,-2.437344427825262e-06,-8.455257818756629e-06,6.583907668059026e-06,9.054129702155247e-06,3.545896408802646e-06,-4.7605784947199344e-05,5.387018850270054e-06,1.3480271960047674e-05,7.47343529402854e-06,2.0001771223066612e-06,1.300097052608241e-05,-1.797264934851343e-05,7.5506248304292185e-06,-7.350677592943679e-06,-3.1813065577564583e-06,5.220923071866817e-05,-5.512437527503643e-05,6.688131121338296e-06,-6.787183779380225e-06,3.262844477177906e-06,-1.0911546996208117e-05,5.2873608593069366e-05,1.5696856779926974e-05,1.1211304081450968e-05,1.7317496232023382e-05,-4.109807601304611e-06,-9.4795202724205e-07,5.220932439350361e-06,-1.1532997984623026e-05,-6.411694622146344e-06,-6.192604707391981e-06,1.6582764302601009e-15,0.00011856492733527351,0.0001724600881747846,0.0,0.0
davidthetechgeek,-0.9999999567446273,7.258362973409517e-06,1.9452877250147818e-05,-5.431314118296056e-06,-2.4523417339096054e-05,-1.1586854386498882e-05,-1.3429821054924661e-05,3.612075618589842e-05,2.406301148232281e-06,-1.131484057910559e-06,8.007595764661412e-07,6.024044066264651e-06,-2.5756415966631757e-05,3.3690172224755767e-06,3.8269741146573965e-06,-3.1964544260190954e-06,5.359013956720669e-06,-3.5893396269502787e-06,-3.8751078669053485e-05,-1.3593212339441837e-06,1.7096150151150877e-06,3.912966870148128e-06,3.985988330771783e-06,2.2475844483706893e-07,-1.937292490083131e-05,6.074499478454655e-06,1.9537478768753554e-05,2.37134409443528e-06,4.830232730298233e-06,-2.9143965133999676e-06,-7.562951490206443e-05,9.946744134797876e-07,3.896011266269291e-06,-2.8557358483487485e-06,2.8593189759783627e-05,8.997113473736418e-06,6.07186286406293e-06,8.545220274134111e-06,-1.1475491463529843e-05,7.631154761638357e-06,9.156960492746073e-06,-3.79912829620646e-06,4.479440043126906e-07,-1.7983708702271876e-06,-2.9795395947034056e-15,-9.35952727913835e-06,-6.311291171818692e-06,0.0002711153821308201,0.0
nothing_in_my_mind,0.999999966441557,3.891671338378244e-06,-8.206169276711737e-06,-2.4436721740904962e-06,1.9363343769977807e-05,7.669406226302212e-06,5.323490162529162e-05,-2.310136450908931e-05,4.221513065248773e-06,-3.079536902418244e-06,1.8073953220965211e-06,-3.826063740816502e-06,1.2385554260841172e-05,1.1761597173145228e-06,6.245636076668963e-06,-5.000011692578751e-06,-7.342172499652075e-06,-1.314147432482351e-06,4.1706538552174024e-05,-3.40381322615305e-06,-1.027395968706551e-05,-5.1571202539086815e-06,-2.2743520476811454e-06,-1.031942684057596e-05,1.4970497294881961e-05,-8.887243141860686e-06,6.0888241234667384e-06,1.174148272505698e-06,-6.375456125206128e-06,5.714307586273582e-06,-4.868693420131261e-06,4.196950520952585e-06,-3.1371968942040165e-06,8.616165001265911e-06,-4.626728486934055e-05,-8.071053178476433e-05,-1.012747709069871e-05,-1.5519998370785103e-05,7.179262880943148e-06,-1.6749596541815787e-06,-2.818793522964182e-05,1.0834374069682629e-05,4.536255449881197e-06,5.534816528058865e-06,6.135345703809593e-17,-9.043321080834823e-05,3.671221525843477e-05,7.074570456451483e-06,0.00020194188732946042
