username,0,1,2,3,4,5,6,7,8,9,10,11,12,13,14,15,16,17,18,19,20,21,22,23,24,25,26,27,28,29,30,31,32,33,34,35,36,37,38,39,40,41,42,43,44,45,46,47,48,49,50,51,52,53,54,55,56,57,58,59,60,61,62,63,64,65,66,67,68,69,70,71,72,73,74,75,76,77,78,79,80,81,82,83,84,85,86,87,88,89,90,91,92,93,94,95,96,97,98,99
EverlastingInferno,1.0,0.0,0.0,0.0,0.0,0.0,0.0,0.0,0.0,0.0,0.0,0.0,0.0,0.0,0.0,0.0,0.0,0.0,0.0,0.0,0.0,0.0,0.0,0.0,0.0,0.0,0.0,0.0,0.0,0.0,0.0,0.0,0.0,0.0,0.0,0.0,0.0,0.0,0.0,0.0,0.0,0.0,0.0,0.0,0.0,0.0,0.0,0.0,0.0,0.0,0.0,0.0,0.0,0.0,0.0,0.0,0.0,0.0,0.0,0.0,0.0,0.0,0.0,0.0,0.0,0.0,0.0,0.0,0.0,0.0,0.0,0.0,0.0,0.0,0.0,0.0,0.0,0.0,0.0,0.0,0.0,0.0,0.0,0.0,0.0,0.0,0.0,0.0,0.0,0.0,0.0,0.0,0.0,0.0,0.0,0.0,0.0,0.0,0.0,0.0
Snipe812,-0.9999999923356047,0.0001238094939503677,0.0,0.0,0.0,0.0,0.0,0.0,0.0,0.0,0.0,0.0,0.0,0.0,0.0,0.0,0.0,0.0,0.0,0.0,0.0,0.0,0.0,0.0,0.0,0.0,0.0,0.0,0.0,0.0,0.0,0.0,0.0,0.0,0.0,0.0,0.0,0.0,0.0,0.0,0.0,0.0,0.0,0.0,0.0,0.0,0.0,0.0,0.0,0.0,0.0,0.0,0.0,0.0,0.0,0.0,0.0,0.0,0.0,0.0,0.0,0.0,0.0,0.0,0.0,0.0,0.0,0.0,0.0,0.0,0.0,0.0,0.0,0.0,0.0,0.0,0.0,0.0,0.0,0.0,0.0,0.0,0.0,0.0,0.0,0.0,0.0,0.0,0.0,0.0,0.0,0.0,0.0,0.0,0.0,0.0,0.0,0.0,0.0,0.0
deathnate4,-0.8405209455283426,-0.006868370546361754,0.5417355126020253,0.0,0.0,0.0,0.0,0.0,0.0,0.0,0.0,0.0,0.0,0.0,0.0,0.0,0.0,0.0,0.0,0.0,0.0,0.0,0.0,0.0,0.0,0.0,0.0,0.0,0.0,0.0,0.0,0.0,0.0,0.0,0.0,0.0,0.0,0.0,0.0,0.0,0.0,0.0,0.0,0.0,0.0,0.0,0.0,0.0,0.0,0.0,0.0,0.0,0.0,0.0,0.0,0.0,0.0,0.0,0.0,0.0,0.0,0.0,0.0,0.0,0.0,0.0,0.0,0.0,0.0,0.0,0.0,0.0,0.0,0.0,0.0,0.0,0.0,0.0,0.0,0.0,0.0,0.0,0.0,0.0,0.0,0.0,0.0,0.0,0.0,0.0,0.0,0.0,0.0,0.0,0.0,0.0,0.0,0.0,0.0,0.0
opek,-0.8477568949431608,0.00695019497680393,-0.5291153408238222,0.03601246965990878,0.0,0.0,0.0,0.0,0.0,0.0,0.0,0.0,0.0,0.0,0.0,0.0,0.0,0.0,0.0,0.0,0.0,0.0,0.0,0.0,0.0,0.0,0.0,0.0,0.0,0.0,0.0,0.0,0.0,0.0,0.0,0.0,0.0,0.0,0.0,0.0,0.0,0.0,0.0,0.0,0.0,0.0,0.0,0.0,0.0,0.0,0.0,0.0,0.0,0.0,0.0,0.0,0.0,0.0,0.0,0.0,0.0,0.0,0.0,0.0,0.0,0.0,0.0,0.0,0.0,0.0,0.0,0.0,0.0,0.0,0.0,0.0,0.0,0.0,0.0,0.0,0.0,0.0,0.0,0.0,0.0,0.0,0.0,0.0,0.0,0.0,0.0,0.0,0.0,0.0,0.0,0.0,0.0,0.0,0.0,0.0
saltmarquis,-0.48981527182499734,-0.0076567193337238925,0.7940330145102139,0.35990519848614766,0.0014812516727134915,0.0,0.0,0.0,0.0,0.0,0.0,0.0,0.0,0.0,0.0,0.0,0.0,0.0,0.0,0.0,0.0,0.0,0.0,0.0,0.0,0.0,0.0,0.0,0.0,0.0,0.0,0.0,0.0,0.0,0.0,0.0,0.0,0.0,0.0,0.0,0.0,0.0,0.0,0.0,0.0,0.0,0.0,0.0,0.0,0.0,0.0,0.0,0.0,0.0,0.0,0.0,0.0,0.0,0.0,0.0,0.0,0.0,0.0,0.0,0.0,0.0,0.0,0.0,0.0,0.0,0.0,0.0,0.0,0.0,0.0,0.0,0.0,0.0,0.0,0.0,0.0,0.0,0.0,0.0,0.0,0.0,0.0,0.0,0.0,0.0,0.0,0.0,0.0,0.0,0.0,0.0,0.0,0.0,0.0,0.0
Akitten,0.3118237598520847,0.008416164862400346,-0.8679439620723243,-0.38647879429238635,-0.0015883519186382772,9.145162701444192e-05,0.0,0.0,0.0,0.0,0.0,0.0,0.0,0.0,0.0,0.0,0.0,0.0,0.0,0.0,0.0,0.0,0.0,0.0,0.0,0.0,0.0,0.0,0.0,0.0,0.0,0.0,0.0,0.0,0.0,0.0,0.0,0.0,0.0,0.0,0.0,0.0,0.0,0.0,0.0,0.0,0.0,0.0,0.0,0.0,0.0,0.0,0.0,0.0,0.0,0.0,0.0,0.0,0.0,0.0,0.0,0.0,0.0,0.0,0.0,0.0,0.0,0.0,0.0,0.0,0.0,0.0,0.0,0.0,0.0,0.0,0.0,0.0,0.0,0.0,0.0,0.0,0.0,0.0,0.0,0.0,0.0,0.0,0.0,0.0,0.0,0.0,0.0,0.0,0.0,0.0,0.0,0.0,0.0,0.0
Aim_2_misbehave,0.5382858254231841,-0.007723790839992189,0.7789925283812402,0.32149275797731436,0.0013147071410166663,-7.777065217840611e-05,0.0001612288536423509,0.0,0.0,0.0,0.0,0.0,0.0,0.0,0.0,0.0,0.0,0.0,0.0,0.0,0.0,0.0,0.0,0.0,0.0,0.0,0.0,0.0,0.0,0.0,0.0,0.0,0.0,0.0,0.0,0.0,0.0,0.0,0.0,0.0,0.0,0.0,0.0,0.0,0.0,0.0,0.0,0.0,0.0,0.0,0.0,0.0,0.0,0.0,0.0,0.0,0.0,0.0,0.0,0.0,0.0,0.0,0.0,0.0,0.0,0.0,0.0,0.0,0.0,0.0,0.0,0.0,0.0,0.0,0.0,0.0,0.0,0.0,0.0,0.0,0.0,0.0,0.0,0.0,0.0,0.0,0.0,0.0,0.0,0.0,0.0,0.0,0.0,0.0,0.0,0.0,0.0,0.0,0.0,0.0
Promotheos,0.46835438941634344,0.007687906911400021,-0.8020748640034783,-0.37048434658507823,-0.0015216904802888038,-5.56796380748718e-07,1.1948761273488394e-06,8.903561026707418e-05,0.0,0.0,0.0,0.0,0.0,0.0,0.0,0.0,0.0,0.0,0.0,0.0,0.0,0.0,0.0,0.0,0.0,0.0,0.0,0.0,0.0,0.0,0.0,0.0,0.0,0.0,0.0,0.0,0.0,0.0,0.0,0.0,0.0,0.0,0.0,0.0,0.0,0.0,0.0,0.0,0.0,0.0,0.0,0.0,0.0,0.0,0.0,0.0,0.0,0.0,0.0,0.0,0.0,0.0,0.0,0.0,0.0,0.0,0.0,0.0,0.0,0.0,0.0,0.0,0.0,0.0,0.0,0.0,0.0,0.0,0.0,0.0,0.0,0.0,0.0,0.0,0.0,0.0,0.0,0.0,0.0,0.0,0.0,0.0,0.0,0.0,0.0,0.0,0.0,0.0,0.0,0.0
StringerBell9,-0.9857722084599994,-2.5706776245691627e-05,0.08007139830144856,0.14778823949976716,0.0005837491410621432,1.392527418603551e-05,-2.7437950682599526e-05,-4.691012576489155e-05,0.00012608050493942815,0.0,0.0,0.0,0.0,0.0,0.0,0.0,0.0,0.0,0.0,0.0,0.0,0.0,0.0,0.0,0.0,0.0,0.0,0.0,0.0,0.0,0.0,0.0,0.0,0.0,0.0,0.0,0.0,0.0,0.0,0.0,0.0,0.0,0.0,0.0,0.0,0.0,0.0,0.0,0.0,0.0,0.0,0.0,0.0,0.0,0.0,0.0,0.0,0.0,0.0,0.0,0.0,0.0,0.0,0.0,0.0,0.0,0.0,0.0,0.0,0.0,0.0,0.0,0.0,0.0,0.0,0.0,0.0,0.0,0.0,0.0,0.0,0.0,0.0,0.0,0.0,0.0,0.0,0.0,0.0,0.0,0.0,0.0,0.0,0.0,0.0,0.0,0.0,0.0,0.0,0.0
polysyndetonic,-0.7764228883035683,0.0057766171687403615,-0.5825261766014805,-0.24040879150788527,-0.0009830670519658012,5.89885725245433e-05,-0.00011984307599398275,2.1662044101020445e-07,-3.1174088812199715e-07,0.00010718778960430797,0.0,0.0,0.0,0.0,0.0,0.0,0.0,0.0,0.0,0.0,0.0,0.0,0.0,0.0,0.0,0.0,0.0,0.0,0.0,0.0,0.0,0.0,0.0,0.0,0.0,0.0,0.0,0.0,0.0,0.0,0.0,0.0,0.0,0.0,0.0,0.0,0.0,0.0,0.0,0.0,0.0,0.0,0.0,0.0,0.0,0.0,0.0,0.0,0.0,0.0,0.0,0.0,0.0,0.0,0.0,0.0,0.0,0.0,0.0,0.0,0.0,0.0,0.0,0.0,0.0,0.0,0.0,0.0,0.0,0.0,0.0,0.0,0.0,0.0,0.0,0.0,0.0,0.0,0.0,0.0,0.0,0.0,0.0,0.0,0.0,0.0,0.0,0.0,0.0,0.0
Speckles,0.9488687321553614,0.001914600164882199,-0.25167315196001494,-0.19053730427749951,-0.0007676542597962832,-1.8364781012374615e-05,3.4552819008521617e-05,6.095721561474688e-05,-0.0001469519194442216,-4.471953313445754e-07,8.700682112207146e-05,0.0,0.0,0.0,0.0,0.0,0.0,0.0,0.0,0.0,0.0,0.0,0.0,0.0,0.0,0.0,0.0,0.0,0.0,0.0,0.0,0.0,0.0,0.0,0.0,0.0,0.0,0.0,0.0,0.0,0.0,0.0,0.0,0.0,0.0,0.0,0.0,0.0,0.0,0.0,0.0,0.0,0.0,0.0,0.0,0.0,0.0,0.0,0.0,0.0,0.0,0.0,0.0,0.0,0.0,0.0,0.0,0.0,0.0,0.0,0.0,0.0,0.0,0.0,0.0,0.0,0.0,0.0,0.0,0.0,0.0,0.0,0.0,0.0,0.0,0.0,0.0,0.0,0.0,0.0,0.0,0.0,0.0,0.0,0.0,0.0,0.0,0.0,0.0,0.0
aquantiV,0.7343734018051746,-0.0008489826156602709,-0.26346942964271675,-0.6255178868180862,-0.002461788481950167,8.04697669633064e-06,-2.000604109104913e-05,0.00013315872811583572,-0.0003288348754930809,-1.0151271875094809e-06,-9.437572260156228e-07,0.00017925100473991387,0.0,0.0,0.0,0.0,0.0,0.0,0.0,0.0,0.0,0.0,0.0,0.0,0.0,0.0,0.0,0.0,0.0,0.0,0.0,0.0,0.0,0.0,0.0,0.0,0.0,0.0,0.0,0.0,0.0,0.0,0.0,0.0,0.0,0.0,0.0,0.0,0.0,0.0,0.0,0.0,0.0,0.0,0.0,0.0,0.0,0.0,0.0,0.0,0.0,0.0,0.0,0.0,0.0,0.0,0.0,0.0,0.0,0.0,0.0,0.0,0.0,0.0,0.0,0.0,0.0,0.0,0.0,0.0,0.0,0.0,0.0,0.0,0.0,0.0,0.0,0.0,0.0,0.0,0.0,0.0,0.0,0.0,0.0,0.0,0.0,0.0,0.0,0.0
not_homestuck,-0.8408053628267984,0.00015930877411094905,-0.2624978108589849,-0.47343170549509295,-0.0018739976258162101,-1.7852932992665176e-05,3.454418671006989e-05,0.00012541599943395498,-0.00026979961546664063,7.630659403594523e-07,2.862817531904208e-05,0.00010746181783082091,0.00014737817599427727,0.0,0.0,0.0,0.0,0.0,0.0,0.0,0.0,0.0,0.0,0.0,0.0,0.0,0.0,0.0,0.0,0.0,0.0,0.0,0.0,0.0,0.0,0.0,0.0,0.0,0.0,0.0,0.0,0.0,0.0,0.0,0.0,0.0,0.0,0.0,0.0,0.0,0.0,0.0,0.0,0.0,0.0,0.0,0.0,0.0,0.0,0.0,0.0,0.0,0.0,0.0,0.0,0.0,0.0,0.0,0.0,0.0,0.0,0.0,0.0,0.0,0.0,0.0,0.0,0.0,0.0,0.0,0.0,0.0,0.0,0.0,0.0,0.0,0.0,0.0,0.0,0.0,0.0,0.0,0.0,0.0,0.0,0.0,0.0,0.0,0.0,0.0
all_thetime,-0.9548946436419445,0.00028881496037467326,0.12056589637880155,0.27136472793652855,0.0010680294653793298,2.9438827390150997e-06,-2.4553215025336395e-06,-6.327385804792265e-05,0.00016039841787468772,1.2925421053500768e-07,3.5123681777726444e-07,-6.28745194711191e-05,-1.0798480074424138e-07,0.00010395156637723107,0.0,0.0,0.0,0.0,0.0,0.0,0.0,0.0,0.0,0.0,0.0,0.0,0.0,0.0,0.0,0.0,0.0,0.0,0.0,0.0,0.0,0.0,0.0,0.0,0.0,0.0,0.0,0.0,0.0,0.0,0.0,0.0,0.0,0.0,0.0,0.0,0.0,0.0,0.0,0.0,0.0,0.0,0.0,0.0,0.0,0.0,0.0,0.0,0.0,0.0,0.0,0.0,0.0,0.0,0.0,0.0,0.0,0.0,0.0,0.0,0.0,0.0,0.0,0.0,0.0,0.0,0.0,0.0,0.0,0.0,0.0,0.0,0.0,0.0,0.0,0.0,0.0,0.0,0.0,0.0,0.0,0.0,0.0,0.0,0.0,0.0
Arizth,0.9725072379637322,-0.0001319407034135597,-0.10054450589778081,-0.2100469876029451,-0.0008273756234938892,-8.809633535638513e-06,1.5015832544621948e-05,5.52376641145587e-05,-0.00014382973965226462,-2.3171295327178914e-08,-7.319368998227736e-08,3.164463615642415e-05,4.603889259194056e-08,-5.232094146636982e-05,8.776064344445386e-05,0.0,0.0,0.0,0.0,0.0,0.0,0.0,0.0,0.0,0.0,0.0,0.0,0.0,0.0,0.0,0.0,0.0,0.0,0.0,0.0,0.0,0.0,0.0,0.0,0.0,0.0,0.0,0.0,0.0,0.0,0.0,0.0,0.0,0.0,0.0,0.0,0.0,0.0,0.0,0.0,0.0,0.0,0.0,0.0,0.0,0.0,0.0,0.0,0.0,0.0,0.0,0.0,0.0,0.0,0.0,0.0,0.0,0.0,0.0,0.0,0.0,0.0,0.0,0.0,0.0,0.0,0.0,0.0,0.0,0.0,0.0,0.0,0.0,0.0,0.0,0.0,0.0,0.0,0.0,0.0,0.0,0.0,0.0,0.0,0.0
Tsiaaw,-0.152381286118071,-0.01012591317171923,0.9473632186893902,0.2813873243155076,0.0011942410662450498,2.7575039502406276e-05,-4.739523732658304e-05,-9.213002571510833e-05,0.00015721464023604745,1.7339795702280755e-06,-0.00011281168009962277,4.3109876344513836e-06,-7.177394728017918e-05,-9.358510400646085e-07,4.148023917130901e-07,0.0001865182703763117,0.0,0.0,0.0,0.0,0.0,0.0,0.0,0.0,0.0,0.0,0.0,0.0,0.0,0.0,0.0,0.0,0.0,0.0,0.0,0.0,0.0,0.0,0.0,0.0,0.0,0.0,0.0,0.0,0.0,0.0,0.0,0.0,0.0,0.0,0.0,0.0,0.0,0.0,0.0,0.0,0.0,0.0,0.0,0.0,0.0,0.0,0.0,0.0,0.0,0.0,0.0,0.0,0.0,0.0,0.0,0.0,0.0,0.0,0.0,0.0,0.0,0.0,0.0,0.0,0.0,0.0,0.0,0.0,0.0,0.0,0.0,0.0,0.0,0.0,0.0,0.0,0.0,0.0,0.0,0.0,0.0,0.0,0.0,0.0
Kutbil-ik,0.3841085586411973,0.010256746045396429,-0.9051251070269725,-0.18194317594354933,-0.0007810712732957917,2.7003229806914538e-05,-6.0434247449145014e-05,1.684236842152746e-05,-3.3081176285189367e-07,-5.96009498404091e-07,1.80969334457981e-05,-5.0573920436669433e-05,-8.422032441256002e-06,3.2684749865482023e-07,-7.282775011897123e-08,-3.6659196614196626e-05,0.00012906599801190433,0.0,0.0,0.0,0.0,0.0,0.0,0.0,0.0,0.0,0.0,0.0,0.0,0.0,0.0,0.0,0.0,0.0,0.0,0.0,0.0,0.0,0.0,0.0,0.0,0.0,0.0,0.0,0.0,0.0,0.0,0.0,0.0,0.0,0.0,0.0,0.0,0.0,0.0,0.0,0.0,0.0,0.0,0.0,0.0,0.0,0.0,0.0,0.0,0.0,0.0,0.0,0.0,0.0,0.0,0.0,0.0,0.0,0.0,0.0,0.0,0.0,0.0,0.0,0.0,0.0,0.0,0.0,0.0,0.0,0.0,0.0,0.0,0.0,0.0,0.0,0.0,0.0,0.0,0.0,0.0,0.0,0.0,0.0
youonlylive2wice,0.2939253462807423,0.011340710088947192,-0.9499775760067422,-0.1049839806207884,-0.00047715794581654073,8.076264609161487e-06,-2.3567437857137835e-05,1.6798232336648185e-05,-2.632483845288195e-06,-1.171577486317356e-06,3.469332276772513e-05,-4.784380263890632e-05,1.35466644767031e-05,2.525754418163317e-07,-8.852818657636977e-08,-6.008642972956242e-05,5.005370296853208e-05,9.809669741715322e-05,0.0,0.0,0.0,0.0,0.0,0.0,0.0,0.0,0.0,0.0,0.0,0.0,0.0,0.0,0.0,0.0,0.0,0.0,0.0,0.0,0.0,0.0,0.0,0.0,0.0,0.0,0.0,0.0,0.0,0.0,0.0,0.0,0.0,0.0,0.0,0.0,0.0,0.0,0.0,0.0,0.0,0.0,0.0,0.0,0.0,0.0,0.0,0.0,0.0,0.0,0.0,0.0,0.0,0.0,0.0,0.0,0.0,0.0,0.0,0.0,0.0,0.0,0.0,0.0,0.0,0.0,0.0,0.0,0.0,0.0,0.0,0.0,0.0,0.0,0.0,0.0,0.0,0.0,0.0,0.0,0.0,0.0
waldrop02,-0.22044021809429815,-0.011775501280113414,0.9719106133815235,0.08159061702933103,0.0003901408448217075,-5.522742550828877e-06,1.8358045547453588e-05,-1.426603599800842e-05,-7.327534635983033e-06,1.0186067922713654e-06,-4.0383992515144625e-05,5.713348905812233e-05,-1.7778394564101808e-05,-3.646416118071706e-07,1.4503066067201967e-07,6.926299792644053e-05,-4.935126793126052e-05,-9.552659782087504e-05,6.496189502941628e-05,0.0,0.0,0.0,0.0,0.0,0.0,0.0,0.0,0.0,0.0,0.0,0.0,0.0,0.0,0.0,0.0,0.0,0.0,0.0,0.0,0.0,0.0,0.0,0.0,0.0,0.0,0.0,0.0,0.0,0.0,0.0,0.0,0.0,0.0,0.0,0.0,0.0,0.0,0.0,0.0,0.0,0.0,0.0,0.0,0.0,0.0,0.0,0.0,0.0,0.0,0.0,0.0,0.0,0.0,0.0,0.0,0.0,0.0,0.0,0.0,0.0,0.0,0.0,0.0,0.0,0.0,0.0,0.0,0.0,0.0,0.0,0.0,0.0,0.0,0.0,0.0,0.0,0.0,0.0,0.0,0.0
totallynotliamneeson,-0.36654049735197125,-0.010487206992693173,0.9152735688664625,0.16676878884473442,0.000721000333610104,-2.378490643849348e-05,5.313561801025761e-05,-1.683985967455127e-05,6.914861864317098e-07,2.2584957518638359e-07,-2.1099773747493522e-05,5.0230496654540314e-05,3.665757578256981e-06,-5.471587221628306e-07,1.8513686318771667e-07,4.07744426344101e-05,-0.00011312413928594089,-1.9229468183022666e-05,3.4674547766976186e-08,7.852382027397238e-05,0.0,0.0,0.0,0.0,0.0,0.0,0.0,0.0,0.0,0.0,0.0,0.0,0.0,0.0,0.0,0.0,0.0,0.0,0.0,0.0,0.0,0.0,0.0,0.0,0.0,0.0,0.0,0.0,0.0,0.0,0.0,0.0,0.0,0.0,0.0,0.0,0.0,0.0,0.0,0.0,0.0,0.0,0.0,0.0,0.0,0.0,0.0,0.0,0.0,0.0,0.0,0.0,0.0,0.0,0.0,0.0,0.0,0.0,0.0,0.0,0.0,0.0,0.0,0.0,0.0,0.0,0.0,0.0,0.0,0.0,0.0,0.0,0.0,0.0,0.0,0.0,0.0,0.0,0.0,0.0
thatoneguy54,-0.7827375330218274,-0.008492716763771968,0.6128772895432061,-0.10784744911972326,-0.00040783056432647333,-8.105325301910774e-06,1.754100150842732e-05,3.202960151854838e-05,-7.889715140430465e-05,-4.433756891795917e-07,-2.0075127984177544e-06,4.832164766675709e-05,2.1848597744878905e-05,7.061454951439573e-07,-5.13549591456052e-07,1.1241040708231102e-05,-1.8736810352484996e-05,-3.1382377809837586e-05,-8.41709905228952e-08,1.4932073820255956e-07,7.491304252579081e-05,0.0,0.0,0.0,0.0,0.0,0.0,0.0,0.0,0.0,0.0,0.0,0.0,0.0,0.0,0.0,0.0,0.0,0.0,0.0,0.0,0.0,0.0,0.0,0.0,0.0,0.0,0.0,0.0,0.0,0.0,0.0,0.0,0.0,0.0,0.0,0.0,0.0,0.0,0.0,0.0,0.0,0.0,0.0,0.0,0.0,0.0,0.0,0.0,0.0,0.0,0.0,0.0,0.0,0.0,0.0,0.0,0.0,0.0,0.0,0.0,0.0,0.0,0.0,0.0,0.0,0.0,0.0,0.0,0.0,0.0,0.0,0.0,0.0,0.0,0.0,0.0,0.0,0.0,0.0
kerouacrimbaud,-0.32099193374586543,-0.010230978292271448,0.921758376355658,0.21730183457791583,0.0009277528624792898,2.661576431573357e-05,-4.5994939135868336e-05,-7.606816072077071e-05,0.00012078046075230364,9.54135586867542e-07,-5.562353444648475e-05,1.8859420766843405e-05,-4.6424568508393974e-05,-1.2243064748205948e-06,5.167470137309493e-07,8.810723527205987e-05,-5.524142412693583e-05,-6.361898520768715e-05,3.5042515417359403e-06,-2.8799094472276e-07,-5.994001952630159e-06,9.705254461691062e-05,0.0,0.0,0.0,0.0,0.0,0.0,0.0,0.0,0.0,0.0,0.0,0.0,0.0,0.0,0.0,0.0,0.0,0.0,0.0,0.0,0.0,0.0,0.0,0.0,0.0,0.0,0.0,0.0,0.0,0.0,0.0,0.0,0.0,0.0,0.0,0.0,0.0,0.0,0.0,0.0,0.0,0.0,0.0,0.0,0.0,0.0,0.0,0.0,0.0,0.0,0.0,0.0,0.0,0.0,0.0,0.0,0.0,0.0,0.0,0.0,0.0,0.0,0.0,0.0,0.0,0.0,0.0,0.0,0.0,0.0,0.0,0.0,0.0,0.0,0.0,0.0,0.0,0.0
sarcazm,0.8737399156613285,0.00504194985007952,-0.4678324972082445,-0.13298695006187256,-0.0005595075890416015,-2.5163416101000447e-05,3.6928164603354794e-05,5.1216836997260704e-05,-0.00011434880902014196,6.296205470405989e-07,2.378182777743514e-05,-3.03675003149747e-05,8.204225577669403e-06,-2.2542861511434073e-06,1.8258864839203705e-06,-4.079336680258445e-05,2.4782549684953938e-05,2.9009456681270805e-05,-1.7837649664747445e-06,2.2255474136293756e-06,-7.607430367775688e-06,-3.4075570906793616e-05,0.0001659387933046849,0.0,0.0,0.0,0.0,0.0,0.0,0.0,0.0,0.0,0.0,0.0,0.0,0.0,0.0,0.0,0.0,0.0,0.0,0.0,0.0,0.0,0.0,0.0,0.0,0.0,0.0,0.0,0.0,0.0,0.0,0.0,0.0,0.0,0.0,0.0,0.0,0.0,0.0,0.0,0.0,0.0,0.0,0.0,0.0,0.0,0.0,0.0,0.0,0.0,0.0,0.0,0.0,0.0,0.0,0.0,0.0,0.0,0.0,0.0,0.0,0.0,0.0,0.0,0.0,0.0,0.0,0.0,0.0,0.0,0.0,0.0,0.0,0.0,0.0,0.0,0.0,0.0
Not_Just_You,-0.8737329134571145,-0.005043938374263766,0.4678421692062407,0.13299872103108717,0.0005567224902673309,3.214290011793442e-05,-3.485750051666177e-05,-5.166432811505166e-05,0.00012082595083142387,-1.915414849138855e-06,-2.3584361254413282e-05,3.0073810246077627e-05,-1.02349305818791e-05,5.307605360019939e-06,-4.18812796847334e-06,4.0057100168926206e-05,-2.4107584207918615e-05,-3.12054271684664e-05,9.642335676024856e-07,-5.361191584765293e-06,1.6288793923277567e-05,2.9303617098879657e-05,-0.00017686407477558806,0.00018132496449233446,0.0,0.0,0.0,0.0,0.0,0.0,0.0,0.0,0.0,0.0,0.0,0.0,0.0,0.0,0.0,0.0,0.0,0.0,0.0,0.0,0.0,0.0,0.0,0.0,0.0,0.0,0.0,0.0,0.0,0.0,0.0,0.0,0.0,0.0,0.0,0.0,0.0,0.0,0.0,0.0,0.0,0.0,0.0,0.0,0.0,0.0,0.0,0.0,0.0,0.0,0.0,0.0,0.0,0.0,0.0,0.0,0.0,0.0,0.0,0.0,0.0,0.0,0.0,0.0,0.0,0.0,0.0,0.0,0.0,0.0,0.0,0.0,0.0,0.0,0.0,0.0
Scottmk4,-0.6191664720212132,-0.009234042676049764,0.7792559263151076,0.09647564749086066,0.0004467418573229564,2.5840615209543112e-05,-4.2221346002791584e-05,-4.703001106657205e-05,7.813022089908114e-05,2.575791006314631e-07,-4.3808527871076865e-05,5.6288219126918095e-05,-1.3685699069730877e-05,5.079594129564584e-07,-7.433673338990563e-07,7.679409988455887e-05,-4.601016030437478e-05,-5.170013824312215e-05,4.220269648333777e-06,-1.1811564300378384e-06,5.487242959753229e-06,6.705172141631305e-05,-0.00010874350655196898,-2.3911633180334127e-06,0.0001429714245180264,0.0,0.0,0.0,0.0,0.0,0.0,0.0,0.0,0.0,0.0,0.0,0.0,0.0,0.0,0.0,0.0,0.0,0.0,0.0,0.0,0.0,0.0,0.0,0.0,0.0,0.0,0.0,0.0,0.0,0.0,0.0,0.0,0.0,0.0,0.0,0.0,0.0,0.0,0.0,0.0,0.0,0.0,0.0,0.0,0.0,0.0,0.0,0.0,0.0,0.0,0.0,0.0,0.0,0.0,0.0,0.0,0.0,0.0,0.0,0.0,0.0,0.0,0.0,0.0,0.0,0.0,0.0,0.0,0.0,0.0,0.0,0.0,0.0,0.0,0.0
scifiking,0.9857697855388305,2.584709211540507e-05,-0.08008215987268853,-0.1477984679781349,-0.0005815321144925198,-1.7338636255701868e-05,2.6796503813133206e-05,4.690713452304549e-05,-0.00012911953457282597,7.967862512482266e-07,3.23613215855237e-08,9.749224641140004e-07,7.233820036964282e-07,-2.9801989134023737e-06,2.0780552785385137e-06,1.1030112057035337e-06,-4.199438912992208e-07,5.242704483060475e-07,5.611938946863008e-07,1.5311773588712143e-06,-6.261465953240103e-06,2.6628692365126313e-06,9.699824845437807e-06,-1.0735701683754788e-05,8.215927435973228e-07,0.00017730688761962617,0.0,0.0,0.0,0.0,0.0,0.0,0.0,0.0,0.0,0.0,0.0,0.0,0.0,0.0,0.0,0.0,0.0,0.0,0.0,0.0,0.0,0.0,0.0,0.0,0.0,0.0,0.0,0.0,0.0,0.0,0.0,0.0,0.0,0.0,0.0,0.0,0.0,0.0,0.0,0.0,0.0,0.0,0.0,0.0,0.0,0.0,0.0,0.0,0.0,0.0,0.0,0.0,0.0,0.0,0.0,0.0,0.0,0.0,0.0,0.0,0.0,0.0,0.0,0.0,0.0,0.0,0.0,0.0,0.0,0.0,0.0,0.0,0.0,0.0
on_my_lunch_break,0.25725924427170666,0.004755905538763247,-0.7171475484310936,-0.6476785498210892,-0.002591934158926421,-3.873203069438843e-05,7.633989972987535e-05,0.00018687966430024454,-0.0003747868052777155,5.861060830306032e-07,5.490014633702296e-05,0.00011299600246804729,0.00011963260290421441,2.3667681429377466e-06,-1.2018747779981472e-06,-6.090475380341287e-05,-4.4523543041320035e-06,3.0242277590730295e-05,-2.4058556320987815e-06,-1.0462699187599128e-06,2.382033879770225e-05,-6.158069297609262e-05,-1.015163572222328e-05,7.23651806671662e-06,4.7653642303539465e-06,-3.2565856954777975e-06,0.00011108508993970474,0.0,0.0,0.0,0.0,0.0,0.0,0.0,0.0,0.0,0.0,0.0,0.0,0.0,0.0,0.0,0.0,0.0,0.0,0.0,0.0,0.0,0.0,0.0,0.0,0.0,0.0,0.0,0.0,0.0,0.0,0.0,0.0,0.0,0.0,0.0,0.0,0.0,0.0,0.0,0.0,0.0,0.0,0.0,0.0,0.0,0.0,0.0,0.0,0.0,0.0,0.0,0.0,0.0,0.0,0.0,0.0,0.0,0.0,0.0,0.0,0.0,0.0,0.0,0.0,0.0,0.0,0.0,0.0,0.0,0.0,0.0,0.0,0.0
Devlyn,0.985771735466332,2.5220425553200906e-05,-0.08007364345445706,-0.14779012924835805,-0.000582843173639147,-1.4629441862857679e-05,2.7609327498809992e-05,4.6937441935287385e-05,-0.00012645961270739943,-7.94806206319972e-08,4.236116246678018e-07,6.911934446152103e-07,-2.2602335360387241e-07,-1.061976498313002e-06,7.331304740558679e-07,3.0837871289494484e-07,9.687936014360894e-08,3.717567538513972e-08,9.388759245316682e-08,2.1320644183025174e-07,-1.5026412691076694e-06,5.418791060475187e-07,2.553497581106951e-06,-2.5438058727316775e-06,2.0408397124184786e-07,2.366049546327691e-06,-7.190898230374811e-07,0.0001238485003729718,0.0,0.0,0.0,0.0,0.0,0.0,0.0,0.0,0.0,0.0,0.0,0.0,0.0,0.0,0.0,0.0,0.0,0.0,0.0,0.0,0.0,0.0,0.0,0.0,0.0,0.0,0.0,0.0,0.0,0.0,0.0,0.0,0.0,0.0,0.0,0.0,0.0,0.0,0.0,0.0,0.0,0.0,0.0,0.0,0.0,0.0,0.0,0.0,0.0,0.0,0.0,0.0,0.0,0.0,0.0,0.0,0.0,0.0,0.0,0.0,0.0,0.0,0.0,0.0,0.0,0.0,0.0,0.0,0.0,0.0,0.0,0.0
Redbrick29,0.985772480688903,2.5203867640317488e-05,-0.08007048187263245,-0.14778690438772948,-0.0005834880358644032,-1.3518499679250172e-05,2.7819851400025818e-05,4.689995377133131e-05,-0.00012547958592542375,-3.190594168789349e-07,4.0251795150162595e-07,3.412748232282188e-07,-4.959476896765417e-07,-9.052787554773519e-08,6.526311154296899e-08,5.849926774170282e-08,2.330538513679354e-07,-1.4521137116403612e-07,-6.905360008481335e-08,-2.6607313304086805e-07,4.6297280134543557e-07,-3.6010947969803893e-07,-4.918028780742818e-07,8.32913445851635e-07,-6.368595768387457e-08,-1.9612283278276828e-07,8.874093856386351e-07,2.2180478462076388e-07,7.171277527073106e-05,0.0,0.0,0.0,0.0,0.0,0.0,0.0,0.0,0.0,0.0,0.0,0.0,0.0,0.0,0.0,0.0,0.0,0.0,0.0,0.0,0.0,0.0,0.0,0.0,0.0,0.0,0.0,0.0,0.0,0.0,0.0,0.0,0.0,0.0,0.0,0.0,0.0,0.0,0.0,0.0,0.0,0.0,0.0,0.0,0.0,0.0,0.0,0.0,0.0,0.0,0.0,0.0,0.0,0.0,0.0,0.0,0.0,0.0,0.0,0.0,0.0,0.0,0.0,0.0,0.0,0.0,0.0,0.0,0.0,0.0,0.0
irishking44,0.985772316964697,2.5209706176509415e-05,-0.08007126198199814,-0.1477875656966652,-0.0005833091160090584,-1.3755018866403006e-05,2.780712843335454e-05,4.69197148010052e-05,-0.0001257127749746375,-2.5080583392057683e-07,4.085803371157774e-07,4.2120320855803883e-07,-4.1806538664929197e-07,-3.5999694305337607e-07,2.4352663740074287e-07,1.765925305174064e-07,2.0715716302034302e-07,-1.2721988069867077e-07,-3.782717190318096e-08,-1.816065721499543e-07,-4.324225304473556e-08,-1.5716320704278242e-07,2.897423371779838e-07,-1.5287143454913595e-08,9.151463930163044e-09,4.524038038233125e-07,5.702909059880315e-07,5.028905490598503e-07,5.158134041642407e-07,8.764365039427033e-05,0.0,0.0,0.0,0.0,0.0,0.0,0.0,0.0,0.0,0.0,0.0,0.0,0.0,0.0,0.0,0.0,0.0,0.0,0.0,0.0,0.0,0.0,0.0,0.0,0.0,0.0,0.0,0.0,0.0,0.0,0.0,0.0,0.0,0.0,0.0,0.0,0.0,0.0,0.0,0.0,0.0,0.0,0.0,0.0,0.0,0.0,0.0,0.0,0.0,0.0,0.0,0.0,0.0,0.0,0.0,0.0,0.0,0.0,0.0,0.0,0.0,0.0,0.0,0.0,0.0,0.0,0.0,0.0,0.0,0.0
MaxJohnson15,0.9857721437695205,2.520976625666989e-05,-0.08007201760736533,-0.14778830334012444,-0.0005831483445789286,-1.4010902937034218e-05,2.776763751382693e-05,4.693163328675101e-05,-0.00012594331880128685,-1.9294994113403049e-07,4.168724393242623e-07,5.06313050497947e-07,-3.520704062940675e-07,-6.030117672706175e-07,4.088598693198798e-07,2.501739969693059e-07,1.7745366879733684e-07,-9.067281031756601e-08,-1.6572934303771916e-09,-7.605786326301784e-08,-5.20688419364977e-07,5.437715437216425e-08,1.0298870762929233e-06,-8.304441637842725e-07,7.527651777056219e-08,1.077256416535997e-06,2.0731404980434444e-07,7.6667764001956e-07,4.82230883115166e-07,5.81656552251036e-07,0.00010112064955315896,0.0,0.0,0.0,0.0,0.0,0.0,0.0,0.0,0.0,0.0,0.0,0.0,0.0,0.0,0.0,0.0,0.0,0.0,0.0,0.0,0.0,0.0,0.0,0.0,0.0,0.0,0.0,0.0,0.0,0.0,0.0,0.0,0.0,0.0,0.0,0.0,0.0,0.0,0.0,0.0,0.0,0.0,0.0,0.0,0.0,0.0,0.0,0.0,0.0,0.0,0.0,0.0,0.0,0.0,0.0,0.0,0.0,0.0,0.0,0.0,0.0,0.0,0.0,0.0,0.0,0.0,0.0,0.0,0.0
PuleaSpataru69,0.6939302413513706,0.009678483310180695,-0.7138477779422344,0.09374623165856984,0.00035465414501023205,7.500739161181603e-06,-1.4993960507065423e-05,-2.7699544069928714e-05,6.872249917670818e-05,4.4662746877414465e-07,1.8195550519987603e-06,-4.229637915270437e-05,-1.8554292940105684e-05,-6.317684289410626e-07,4.2068577331068873e-07,-9.729824900799992e-06,1.6293289143583355e-05,2.7326911286967116e-05,-4.755014730841327e-08,-3.4819199247729827e-07,-6.501559146789204e-05,-1.6995040100733163e-07,-5.392202107005818e-07,5.209149120774837e-07,1.4271702175077434e-07,-8.600615733276627e-08,8.15141427746725e-07,-1.9779661363049214e-08,-1.402626040497035e-09,-3.456297205325733e-09,-7.506253698322035e-09,4.5301645512435055e-05,0.0,0.0,0.0,0.0,0.0,0.0,0.0,0.0,0.0,0.0,0.0,0.0,0.0,0.0,0.0,0.0,0.0,0.0,0.0,0.0,0.0,0.0,0.0,0.0,0.0,0.0,0.0,0.0,0.0,0.0,0.0,0.0,0.0,0.0,0.0,0.0,0.0,0.0,0.0,0.0,0.0,0.0,0.0,0.0,0.0,0.0,0.0,0.0,0.0,0.0,0.0,0.0,0.0,0.0,0.0,0.0,0.0,0.0,0.0,0.0,0.0,0.0,0.0,0.0,0.0,0.0,0.0,0.0
ThisIceAintNice,0.05116621424062547,-0.000292554882605988,0.48426646084625347,0.8734160440860176,0.003456795223274018,3.200736898820831e-05,-6.415108268994543e-05,-0.00023129010458874775,0.0004959986880494038,-8.274860829445118e-07,-5.3080890711292836e-05,-0.0001988193572526422,-0.00016659524894524057,-1.1002428007449283e-06,6.319273054873859e-07,4.025912693000749e-05,1.8134406010420786e-05,1.3488551710004564e-06,1.0231663347511463e-06,1.3276990221507457e-06,-3.40222408647247e-05,2.2832121616195465e-05,1.0628715243618058e-05,-3.5175270237587375e-06,-1.0165525340186066e-05,1.0039990165610182e-06,-7.139618700389508e-05,-3.085676243039847e-07,2.1954000319458433e-07,9.994485131719763e-09,-1.2155578911907212e-07,-2.067834959913041e-07,9.28344935974848e-05,0.0,0.0,0.0,0.0,0.0,0.0,0.0,0.0,0.0,0.0,0.0,0.0,0.0,0.0,0.0,0.0,0.0,0.0,0.0,0.0,0.0,0.0,0.0,0.0,0.0,0.0,0.0,0.0,0.0,0.0,0.0,0.0,0.0,0.0,0.0,0.0,0.0,0.0,0.0,0.0,0.0,0.0,0.0,0.0,0.0,0.0,0.0,0.0,0.0,0.0,0.0,0.0,0.0,0.0,0.0,0.0,0.0,0.0,0.0,0.0,0.0,0.0,0.0,0.0,0.0,0.0,0.0
PrettySneaky71,-0.6939299956235094,-0.009678712621805731,0.7138478755467709,-0.09374726198986258,-0.00035498213019230604,-7.410001784290849e-06,1.4801828100546568e-05,2.750818379897968e-05,-6.832800790733871e-05,-5.904224445936771e-07,-1.915475407589328e-06,4.262335031268537e-05,1.800976015057285e-05,1.0119207565446095e-06,-6.384347013870845e-07,9.671269932473557e-06,-1.630461020835035e-05,-2.7499381887493584e-05,1.3810215425243827e-07,3.800150318704031e-07,6.574074025028069e-05,9.419317142180698e-08,-2.7870273374599043e-07,4.885964243483916e-07,-5.168352348021126e-07,-8.856031463068139e-07,-7.630607006007732e-07,-2.6710466066509384e-07,2.5452244101752156e-07,5.726642491407203e-08,-7.298259239850965e-08,-4.4829280098494346e-05,1.6071838177724972e-07,6.192763848568451e-05,0.0,0.0,0.0,0.0,0.0,0.0,0.0,0.0,0.0,0.0,0.0,0.0,0.0,0.0,0.0,0.0,0.0,0.0,0.0,0.0,0.0,0.0,0.0,0.0,0.0,0.0,0.0,0.0,0.0,0.0,0.0,0.0,0.0,0.0,0.0,0.0,0.0,0.0,0.0,0.0,0.0,0.0,0.0,0.0,0.0,0.0,0.0,0.0,0.0,0.0,0.0,0.0,0.0,0.0,0.0,0.0,0.0,0.0,0.0,0.0,0.0,0.0,0.0,0.0,0.0,0.0
JNelson_,-0.6857301040354608,-0.003725586641869898,0.5472812388496509,0.479833105097244,0.0019099696404868169,2.3917747748921058e-05,-4.640871986194055e-05,-0.00013306895079649847,0.0002753888518687158,7.526593845446075e-07,-3.628068701235284e-05,-9.623019418804605e-05,-8.957835619154008e-05,-5.18754756084015e-07,2.9759407380539674e-07,3.559152999413095e-05,5.570751806650505e-06,-1.2370896266075012e-05,1.1984843302108241e-06,3.0036022172391663e-07,-1.8466671001660765e-05,2.9651721169762902e-05,5.087676802339458e-06,-1.2977078755489097e-06,-5.40514191507149e-06,2.2183898919737632e-07,-6.043737548371329e-05,-4.6498051856321047e-07,3.9465654842113095e-07,1.1914944739686341e-07,-8.965766904133464e-08,1.0001683306818694e-06,2.4184540435460568e-05,-3.5784323560322025e-07,0.0001070193001508243,0.0,0.0,0.0,0.0,0.0,0.0,0.0,0.0,0.0,0.0,0.0,0.0,0.0,0.0,0.0,0.0,0.0,0.0,0.0,0.0,0.0,0.0,0.0,0.0,0.0,0.0,0.0,0.0,0.0,0.0,0.0,0.0,0.0,0.0,0.0,0.0,0.0,0.0,0.0,0.0,0.0,0.0,0.0,0.0,0.0,0.0,0.0,0.0,0.0,0.0,0.0,0.0,0.0,0.0,0.0,0.0,0.0,0.0,0.0,0.0,0.0,0.0,0.0,0.0,0.0
ZeusThunder369,0.6384037185991249,0.0039874542137275535,-0.5810811444992,-0.5047428343074638,-0.0020056396402734263,-2.2640986216840784e-05,4.522246931045922e-05,0.00013802730295000787,-0.0002883962768150277,-5.837360955311973e-07,3.6045698941945795e-05,0.0001052709605767688,9.482769562089218e-05,5.818722756706244e-07,-3.9872498073334823e-07,-3.3317075714469375e-05,-7.0645500019045375e-06,8.843468215644033e-06,-1.1326982546819363e-06,-6.194238762708061e-07,2.0019669287923232e-05,-2.5870474947811523e-05,-6.177912690875809e-06,2.1268280364394582e-06,5.777488851990058e-06,-6.82621541343301e-07,5.720347928220695e-05,2.880908516255648e-07,-2.862425347744131e-07,-1.0257874808228993e-07,3.636388380313296e-08,-6.881523846022054e-07,-3.417148373781104e-05,4.6307722934697074e-07,-7.680575267669733e-05,7.441600671067463e-05,0.0,0.0,0.0,0.0,0.0,0.0,0.0,0.0,0.0,0.0,0.0,0.0,0.0,0.0,0.0,0.0,0.0,0.0,0.0,0.0,0.0,0.0,0.0,0.0,0.0,0.0,0.0,0.0,0.0,0.0,0.0,0.0,0.0,0.0,0.0,0.0,0.0,0.0,0.0,0.0,0.0,0.0,0.0,0.0,0.0,0.0,0.0,0.0,0.0,0.0,0.0,0.0,0.0,0.0,0.0,0.0,0.0,0.0,0.0,0.0,0.0,0.0,0.0,0.0
elasticretreat,-0.6991115385582082,0.009660214461388806,-0.7074747226627337,0.10309763734084608,0.0003100026848523905,-9.17341037486825e-06,1.2875295092640092e-05,-1.1470785413567773e-05,5.8179313026863944e-05,-3.6328480255452564e-07,4.2458783649885074e-05,-7.325126936002352e-05,2.0487069908949565e-06,5.483304681097132e-07,-1.723686071667853e-07,-7.969031569625586e-05,2.7412939428838974e-05,3.194186312116875e-05,-7.698746265596609e-06,7.156847139096719e-07,-6.157148561875439e-06,-2.70187176477712e-05,1.0496281505929215e-05,-1.0535456808946094e-06,-1.2588135369342264e-05,2.717507137786185e-07,-1.4913333924531727e-05,-2.463909467141988e-07,-3.4245749521203763e-07,-3.0451187808167113e-07,-2.7774078615070727e-07,-2.3944576859435867e-07,1.8310661990834965e-05,-2.0424549606981747e-07,4.5684653802657656e-07,-3.15745368086347e-07,0.00011857461302012133,0.0,0.0,0.0,0.0,0.0,0.0,0.0,0.0,0.0,0.0,0.0,0.0,0.0,0.0,0.0,0.0,0.0,0.0,0.0,0.0,0.0,0.0,0.0,0.0,0.0,0.0,0.0,0.0,0.0,0.0,0.0,0.0,0.0,0.0,0.0,0.0,0.0,0.0,0.0,0.0,0.0,0.0,0.0,0.0,0.0,0.0,0.0,0.0,0.0,0.0,0.0,0.0,0.0,0.0,0.0,0.0,0.0,0.0,0.0,0.0,0.0,0.0,0.0
WhiteCrake,0.2888018617380532,-0.011591116546557824,0.954310438897029,0.07583213855771859,0.00039334307263448685,2.0018464683413734e-05,-3.224212908891822e-05,-3.87346648661694e-05,3.113453287251408e-05,8.868502685439759e-07,-8.37416401673105e-05,5.63204436345059e-05,-5.3063075399683855e-05,-6.991283065416157e-07,2.780290310889589e-07,0.00013844094556517988,-2.5715110029789828e-05,-3.880110920627736e-05,1.5325344592643604e-05,-5.928899809581344e-07,-7.976408375862904e-07,2.444807958625495e-05,-4.81109564759382e-06,1.207129903207763e-06,4.842349014611437e-06,-4.951042870447563e-07,8.90213657732002e-07,-6.072479128677293e-09,3.83322912012777e-07,2.458623151980605e-07,1.4773345079759657e-07,5.805262597257172e-07,-1.07578821534241e-07,-3.5048250380822086e-08,-2.613507251399289e-07,4.09116866976866e-07,-3.825638545065982e-05,9.131022814724279e-05,0.0,0.0,0.0,0.0,0.0,0.0,0.0,0.0,0.0,0.0,0.0,0.0,0.0,0.0,0.0,0.0,0.0,0.0,0.0,0.0,0.0,0.0,0.0,0.0,0.0,0.0,0.0,0.0,0.0,0.0,0.0,0.0,0.0,0.0,0.0,0.0,0.0,0.0,0.0,0.0,0.0,0.0,0.0,0.0,0.0,0.0,0.0,0.0,0.0,0.0,0.0,0.0,0.0,0.0,0.0,0.0,0.0,0.0,0.0,0.0,0.0,0.0
Dd_8630,-0.07210727613768639,0.01049353390571375,-0.9635898524114046,-0.25726199138779693,-0.0011019112095610676,-2.5281017864004466e-05,4.2565769440581355e-05,8.463951729229267e-05,-0.00013406348168752544,-1.318964175210675e-06,0.00010050459407341566,-5.180336756553856e-06,7.83803434281039e-05,9.038473336676963e-07,-4.0448189941838815e-07,-0.00016099050728420457,1.1526070575024997e-05,1.9419980017361928e-05,-6.580323451044099e-06,3.7123486292855143e-07,4.415501167204799e-06,-1.711658400715468e-05,1.5985096644509291e-06,-5.899271864865333e-07,-1.4876669463107371e-06,2.2468368125109406e-07,7.0462451651538794e-06,3.358185298172742e-08,-3.1622018304722144e-07,-1.986082453708017e-07,-1.113763727578692e-07,-4.5378952593413214e-07,-9.86837281810053e-06,3.4736583735065056e-08,-1.4890850539334793e-08,-2.8893110250587604e-07,1.7374828239136058e-05,-3.73950626485919e-05,6.232176507647666e-05,0.0,0.0,0.0,0.0,0.0,0.0,0.0,0.0,0.0,0.0,0.0,0.0,0.0,0.0,0.0,0.0,0.0,0.0,0.0,0.0,0.0,0.0,0.0,0.0,0.0,0.0,0.0,0.0,0.0,0.0,0.0,0.0,0.0,0.0,0.0,0.0,0.0,0.0,0.0,0.0,0.0,0.0,0.0,0.0,0.0,0.0,0.0,0.0,0.0,0.0,0.0,0.0,0.0,0.0,0.0,0.0,0.0,0.0,0.0,0.0,0.0
doggobotlovesyou,0.06485843438065003,-0.0117318624960648,0.9902543016267534,0.12268548407061002,0.0005814632297755812,1.4350037947334151e-05,-1.7372234253880856e-05,-4.272576228965926e-05,1.0766887037121298e-05,2.952501629327962e-06,-0.00011363430257172183,6.598485782304108e-06,-8.695780042838666e-05,1.018250146911756e-06,-3.95169286529838e-07,0.00018202765735512145,-1.4685540530452008e-05,-2.408007334426655e-05,7.294940722190106e-06,-1.495709878080859e-06,-4.592083333572619e-06,1.9578444420879354e-05,-8.347215766664348e-06,9.182332830197221e-06,4.829270613634618e-07,-3.9767308229358416e-06,-6.288780242251222e-06,-8.529808934121253e-07,1.7901098055032895e-06,9.400772818336627e-07,2.898683460064154e-07,2.172462065219455e-06,9.625010084007592e-06,2.694624759420485e-07,2.5616670889940464e-07,1.4924986978956477e-06,-1.9163759600385412e-05,4.0990837276104174e-05,-6.937527735936179e-05,0.00018536334225466959,0.0,0.0,0.0,0.0,0.0,0.0,0.0,0.0,0.0,0.0,0.0,0.0,0.0,0.0,0.0,0.0,0.0,0.0,0.0,0.0,0.0,0.0,0.0,0.0,0.0,0.0,0.0,0.0,0.0,0.0,0.0,0.0,0.0,0.0,0.0,0.0,0.0,0.0,0.0,0.0,0.0,0.0,0.0,0.0,0.0,0.0,0.0,0.0,0.0,0.0,0.0,0.0,0.0,0.0,0.0,0.0,0.0,0.0,0.0,0.0
LeonJKV,0.306251853317833,-0.01153608470002873,0.9490030487473453,0.0739576568601564,0.0003835028195969741,2.182398913929375e-05,-3.383845234064255e-05,-3.896543436052482e-05,3.479406620535403e-05,1.2690369659388123e-06,-7.738959986033584e-05,5.5806881723631994e-05,-3.902148510613087e-05,-6.598303454704063e-07,2.1434091650183678e-07,0.00013177182961836165,-3.544307105316281e-05,-4.3544624105248664e-05,8.174809488891344e-06,-1.2413383232799527e-06,1.095376302471969e-06,4.5771183955205526e-05,-9.011953846577283e-06,2.8606281830528905e-06,8.780556688970104e-06,-9.435861081137446e-07,8.553703408748023e-06,-2.779464776239328e-08,5.746811236751452e-07,3.813737352623637e-07,2.3151058001202265e-07,8.222564120674281e-07,-9.621574890714465e-06,2.2244343703327945e-07,2.922496466072563e-07,5.013313588434963e-07,-2.9811515083486754e-05,3.6978106734390434e-05,-2.3658028312826953e-05,3.913669498301369e-07,0.00010800358636996253,0.0,0.0,0.0,0.0,0.0,0.0,0.0,0.0,0.0,0.0,0.0,0.0,0.0,0.0,0.0,0.0,0.0,0.0,0.0,0.0,0.0,0.0,0.0,0.0,0.0,0.0,0.0,0.0,0.0,0.0,0.0,0.0,0.0,0.0,0.0,0.0,0.0,0.0,0.0,0.0,0.0,0.0,0.0,0.0,0.0,0.0,0.0,0.0,0.0,0.0,0.0,0.0,0.0,0.0,0.0,0.0,0.0,0.0,0.0
tfresca,-0.34983563573859444,0.011622356777769217,-0.9360270235939235,-0.03651379497860464,-0.00023554128715729949,-2.074177445624191e-05,3.18484998118169e-05,2.9405747956658324e-05,-1.4501169096043502e-05,-1.1445093274993628e-06,7.179183538715862e-05,-6.536124946958971e-05,3.078296030865285e-05,7.079177922837104e-07,-2.078137850208787e-07,-0.00012420860681592547,3.971841899141358e-05,4.770042320081732e-05,-8.451557763746797e-06,1.2396860735283115e-06,-2.351124483978722e-06,-5.1069742913167286e-05,1.005477352739577e-05,-2.7549252172650205e-06,-1.0227767719469757e-05,9.289995607503186e-07,-1.133857327971779e-05,-1.0055234642933064e-09,-5.351312493445078e-07,-3.636719006631402e-07,-2.3061663055388693e-07,-7.813117194264919e-07,1.3257233323943705e-05,-2.1716348117892408e-07,-2.1507740565993393e-07,-4.790102165555991e-07,3.207547545379281e-05,-3.657044162298051e-05,1.5696157504794533e-05,-2.7927848318252464e-07,-7.155921458719926e-05,6.382064942506057e-05,0.0,0.0,0.0,0.0,0.0,0.0,0.0,0.0,0.0,0.0,0.0,0.0,0.0,0.0,0.0,0.0,0.0,0.0,0.0,0.0,0.0,0.0,0.0,0.0,0.0,0.0,0.0,0.0,0.0,0.0,0.0,0.0,0.0,0.0,0.0,0.0,0.0,0.0,0.0,0.0,0.0,0.0,0.0,0.0,0.0,0.0,0.0,0.0,0.0,0.0,0.0,0.0,0.0,0.0,0.0,0.0,0.0,0.0
tsiru12,-0.2888010747493666,0.011591056991874573,-0.9543107118448203,-0.07583167513969423,-0.0003935787994929365,-2.0049225503586257e-05,3.2118511742850454e-05,3.8722155430700584e-05,-3.102887080444606e-05,-1.0138561354696533e-06,8.379384737608398e-05,-5.627286463929629e-05,5.294526660813063e-05,6.462420243028436e-07,-2.894820543212816e-07,-0.00013860555872653678,2.579552219113647e-05,3.881490618433093e-05,-1.5331798186319522e-05,6.49166444309627e-07,1.1396292901995652e-06,-2.438879983816908e-05,4.89727910877015e-06,-1.2774035380103871e-06,-4.938560913591773e-06,3.8483189117937475e-07,-9.233498433883539e-07,-2.1410418869762688e-08,-3.8052810996023033e-07,-2.53842166535209e-07,-1.632424731039593e-07,-5.228893033215921e-07,2.4911621173376094e-07,-1.6686508357998996e-08,1.1944969043991706e-07,-3.5678968943312314e-07,3.815509696384402e-05,-9.101549397217705e-05,6.279577646822808e-08,-2.3949403383354067e-07,-9.899641678845945e-08,-8.205886326706215e-09,7.159485681787677e-05,0.0,0.0,0.0,0.0,0.0,0.0,0.0,0.0,0.0,0.0,0.0,0.0,0.0,0.0,0.0,0.0,0.0,0.0,0.0,0.0,0.0,0.0,0.0,0.0,0.0,0.0,0.0,0.0,0.0,0.0,0.0,0.0,0.0,0.0,0.0,0.0,0.0,0.0,0.0,0.0,0.0,0.0,0.0,0.0,0.0,0.0,0.0,0.0,0.0,0.0,0.0,0.0,0.0,0.0,0.0,0.0,0.0
cysghost,-0.2887969947351467,0.01159079852971436,-0.9543123415630197,-0.0758266652621443,-0.00039446492203437606,-2.135021829109199e-05,3.1437336105967606e-05,3.8775318594638485e-05,-3.1660617800495364e-05,-1.632687355280833e-06,8.481528482769551e-05,-5.628762146002913e-05,5.269545203623601e-05,-2.3123704634429793e-08,-2.1897171985056297e-08,-0.00014043244478977255,2.6725189690382253e-05,4.064968595422519e-05,-1.4993728439514837e-05,1.8972138949476135e-06,2.0883216103096263e-06,-2.3867404374235743e-05,7.025949195974191e-06,-4.5423410278677e-06,-3.908490459836529e-06,1.4209413880945317e-06,-2.5985588277218964e-06,2.1911638933519775e-07,-7.932334056624038e-07,-4.615054045115978e-07,-2.1062666343922657e-07,-1.6656272691533745e-06,8.331450463308025e-07,1.609126852525707e-08,-6.064974363932733e-07,-8.195859250476123e-07,3.755336584035341e-05,-9.07343561319767e-05,2.000407352003346e-08,-1.2596905782975088e-06,-2.2462795357948892e-07,-1.222571029443129e-07,6.934547870547072e-07,0.00012437102704176124,0.0,0.0,0.0,0.0,0.0,0.0,0.0,0.0,0.0,0.0,0.0,0.0,0.0,0.0,0.0,0.0,0.0,0.0,0.0,0.0,0.0,0.0,0.0,0.0,0.0,0.0,0.0,0.0,0.0,0.0,0.0,0.0,0.0,0.0,0.0,0.0,0.0,0.0,0.0,0.0,0.0,0.0,0.0,0.0,0.0,0.0,0.0,0.0,0.0,0.0,0.0,0.0,0.0,0.0,0.0,0.0
NoRealsOnlyFeels,-0.3368333367859996,0.012528081276009724,-0.9363618811231654,0.09804401173070766,0.00029450893945168725,-1.4363814398539542e-05,2.1628620208869187e-05,-6.042238629054504e-06,7.526522075758824e-05,-7.283777325977184e-07,7.334849438380602e-05,-0.0001117060645976776,4.362856842414174e-05,3.467532770173776e-07,-2.5736937434041755e-07,-0.00012173062740454465,3.5738517209842794e-05,6.127063760942629e-05,-3.349573512938315e-05,6.163507149283525e-07,1.5019369185743674e-06,-1.718842106380589e-05,3.4629828055279496e-06,-1.0948464079062426e-06,-3.058017776911326e-06,5.651842243683702e-08,-4.408178329333202e-07,-1.3455002559799516e-07,-3.0411130934330576e-07,-2.346655664554466e-07,-1.9076526332061492e-07,-4.882158185110321e-07,-1.2636735260685926e-07,1.4538043576079563e-07,2.956707468020661e-07,-3.0859056890111106e-07,2.6803854147622017e-05,-6.381520539207768e-05,-2.0613315077172894e-07,5.998106459497284e-08,2.3997134297792743e-07,-1.7918172891065819e-07,3.4329205770499097e-07,1.4593438926407816e-07,0.00010389781127431365,0.0,0.0,0.0,0.0,0.0,0.0,0.0,0.0,0.0,0.0,0.0,0.0,0.0,0.0,0.0,0.0,0.0,0.0,0.0,0.0,0.0,0.0,0.0,0.0,0.0,0.0,0.0,0.0,0.0,0.0,0.0,0.0,0.0,0.0,0.0,0.0,0.0,0.0,0.0,0.0,0.0,0.0,0.0,0.0,0.0,0.0,0.0,0.0,0.0,0.0,0.0,0.0,0.0,0.0,0.0
choopie,0.33682733466939274,-0.012527814836638953,0.9363630797509034,-0.09805313626018489,-0.00029343131491625776,1.6612258970985294e-05,-2.078176169344005e-05,5.823517937744143e-06,-7.396560943902437e-05,1.5574392369555734e-06,-7.505834655483431e-05,0.00011195841128082956,-4.3778848891473025e-05,7.242116646607981e-07,-2.4495571601279614e-07,0.000124462360729682,-3.716955106418629e-05,-6.445672895175968e-05,3.299655303727746e-05,-2.6431789470516566e-06,-2.4713404075890886e-06,1.632932511146778e-05,-7.036102617493954e-06,6.606823660933629e-06,9.77453224697636e-07,-2.1073727836717056e-06,3.028933232009948e-06,-3.5778765528554465e-07,1.0384936381327028e-06,5.692558424491443e-07,2.240972372657816e-07,2.8507886272694694e-06,-6.893851538076142e-07,-4.582123290547357e-07,7.297648548366866e-07,1.1509234460683134e-06,-2.578668658573696e-05,6.311156657271177e-05,2.880319300557748e-07,1.5775331870669236e-06,-1.5868950856516562e-08,3.9263609459137995e-07,-8.816661600813749e-07,-1.3810783600576963e-06,-0.00010397820066188919,0.00012426066312795002,0.0,0.0,0.0,0.0,0.0,0.0,0.0,0.0,0.0,0.0,0.0,0.0,0.0,0.0,0.0,0.0,0.0,0.0,0.0,0.0,0.0,0.0,0.0,0.0,0.0,0.0,0.0,0.0,0.0,0.0,0.0,0.0,0.0,0.0,0.0,0.0,0.0,0.0,0.0,0.0,0.0,0.0,0.0,0.0,0.0,0.0,0.0,0.0,0.0,0.0,0.0,0.0,0.0,0.0
Subtlerer,0.7783723002072009,-0.007277483264194001,0.2761174212809685,-0.5637711203224699,-0.0021711453943288094,1.2043722165376884e-05,-2.7650909011318672e-05,0.00011208400284745334,-0.00030927780903196,-1.6555952788229318e-06,-3.783036111434398e-05,0.00020681062081705652,-2.3754646693946816e-05,4.310768790276062e-08,3.083386070996279e-07,6.104955741127243e-05,-1.8365088511184938e-05,-3.0607424223540445e-05,1.8083316396648366e-05,1.1650566197868256e-06,-1.185285005753155e-06,9.614070050880139e-06,-1.356449170972974e-07,-2.229683295737327e-06,2.172764871842035e-06,1.223419497589875e-06,-2.294363415512654e-06,4.901432078849976e-07,-4.1659231924651996e-08,7.086123906718668e-08,1.9623516064904589e-07,-1.3085317926554775e-06,1.5875315055365787e-06,-1.492906151137682e-08,-1.4577528021780221e-06,-2.357144022818392e-07,-1.4763132226993478e-05,3.330405520898861e-05,8.957139632900618e-07,-1.0573438134726345e-06,-7.61191537129659e-07,4.4192389810394734e-07,-4.02720728875362e-07,4.558247790693509e-07,-5.560354332113698e-05,-9.115437664987467e-07,0.0001281690002858122,0.0,0.0,0.0,0.0,0.0,0.0,0.0,0.0,0.0,0.0,0.0,0.0,0.0,0.0,0.0,0.0,0.0,0.0,0.0,0.0,0.0,0.0,0.0,0.0,0.0,0.0,0.0,0.0,0.0,0.0,0.0,0.0,0.0,0.0,0.0,0.0,0.0,0.0,0.0,0.0,0.0,0.0,0.0,0.0,0.0,0.0,0.0,0.0,0.0,0.0,0.0,0.0,0.0
shittyatmath,-0.7861146040437709,0.004222981691813877,-0.006571955066012217,0.618026559896127,0.0024074889661879722,-1.0072987128952512e-05,2.4718052806722427e-05,-0.00012746191663669454,0.00033191938992219833,1.3703380757631443e-06,2.0068587875442724e-05,-0.00020062727086474626,1.2242205206046466e-05,2.0541141118787452e-07,-3.1281642463977004e-07,-3.1666123001631895e-05,9.556345947927668e-06,1.5788927574543798e-05,-9.467190268577021e-06,-7.948260453029646e-07,1.1130204399599428e-06,-5.206112748419341e-06,-8.384496475542096e-07,2.2783233072406097e-06,-1.3052588956365496e-06,-1.2490987542768817e-06,1.6347661022504955e-06,-4.7201153616019353e-07,1.0576048049725655e-07,-5.925507372055839e-08,-1.9890775154597467e-07,9.040245723143948e-07,-7.714645629883918e-07,1.5495639653590386e-07,9.182028995388578e-07,2.3187137711441222e-07,7.700899034383978e-06,-1.723561511249788e-05,-5.550607086359514e-07,7.585455233514507e-07,4.987379937042842e-07,-2.888070723312582e-07,2.538968353946815e-07,-3.4209356097864086e-07,2.903843621624589e-05,7.164238324551009e-07,-6.685394916857066e-05,7.292745398743715e-05,0.0,0.0,0.0,0.0,0.0,0.0,0.0,0.0,0.0,0.0,0.0,0.0,0.0,0.0,0.0,0.0,0.0,0.0,0.0,0.0,0.0,0.0,0.0,0.0,0.0,0.0,0.0,0.0,0.0,0.0,0.0,0.0,0.0,0.0,0.0,0.0,0.0,0.0,0.0,0.0,0.0,0.0,0.0,0.0,0.0,0.0,0.0,0.0,0.0,0.0,0.0,0.0
RainbowPopsicle,0.6991149824324738,-0.009662701179230907,0.7074731801069545,-0.10308448312730822,-0.00031208391629035907,6.072928509606658e-06,-1.485936666124644e-05,1.0287451794906152e-05,-5.7316652586265345e-05,-1.6672613759811814e-06,-4.1084921308458826e-05,7.666777761101802e-05,-5.822553774752109e-06,1.5046747651415972e-06,-6.28528527615646e-07,7.504845350373369e-05,-2.693804480439542e-05,-2.97523563132627e-05,9.35557007414144e-06,2.2653980132941917e-06,9.608788978648947e-06,2.794463104278532e-05,-1.1544039217844678e-05,1.0018970965764658e-06,1.0563267104176517e-05,-2.9132803696225387e-06,1.0932973815330653e-05,-6.234093274762535e-07,8.517500816250935e-07,1.7241529351682952e-07,-2.0519003012648508e-07,1.0104798647070124e-06,-1.609631600561363e-05,-1.062028506577374e-06,-4.930102100247673e-06,1.3983439399754038e-06,-0.00011977504667958652,8.179773479576599e-08,7.031026053906255e-07,-1.7066048483278825e-06,1.1616241325927677e-07,-7.819276179886189e-08,-5.114718473813638e-07,-1.0718408894555917e-07,-1.8229350398018737e-06,-9.278042240527941e-07,4.205800826337973e-06,1.2987607103748138e-07,0.00017440904212780715,0.0,0.0,0.0,0.0,0.0,0.0,0.0,0.0,0.0,0.0,0.0,0.0,0.0,0.0,0.0,0.0,0.0,0.0,0.0,0.0,0.0,0.0,0.0,0.0,0.0,0.0,0.0,0.0,0.0,0.0,0.0,0.0,0.0,0.0,0.0,0.0,0.0,0.0,0.0,0.0,0.0,0.0,0.0,0.0,0.0,0.0,0.0,0.0,0.0,0.0,0.0
crazyauntanna,-0.6991183626736324,0.00966470378817755,-0.7074714731264277,0.10307293199475535,0.00031417377950116376,-2.5384884705188625e-06,1.7261579909409636e-05,-9.034642367692382e-06,5.6729197438109744e-05,3.238353583899911e-06,3.977600064022413e-05,-7.998136307101426e-05,9.018717355799803e-06,-3.3730299727114874e-06,1.3025816834308564e-06,-7.051816317045403e-05,2.6600254975221895e-05,2.758190181163169e-05,-1.1048636595587039e-05,-5.474575560153931e-06,-1.2352705041699586e-05,-2.9345553058562608e-05,1.1404806535812959e-05,4.660994884871593e-07,-8.77542961721797e-06,5.043378441027428e-06,-6.162039010991183e-06,1.4323188196799131e-06,-1.0326733593255852e-06,1.2610695650713348e-07,7.567559382208693e-07,-1.4945165663879458e-06,1.424302483907423e-05,2.613097098918337e-06,9.719345771855273e-06,-2.277832454732902e-06,0.00012168146311761158,-2.4798191851966445e-07,-1.4102207077157718e-06,4.475869238751378e-06,-5.165365078718913e-08,1.6605039540716753e-07,7.86072978715379e-07,-4.018166888892841e-07,3.436778718254969e-06,2.567852263864084e-06,-8.28246971389314e-06,-1.0752974818589578e-07,-0.00017325764048728328,0.0001742259560474194,0.0,0.0,0.0,0.0,0.0,0.0,0.0,0.0,0.0,0.0,0.0,0.0,0.0,0.0,0.0,0.0,0.0,0.0,0.0,0.0,0.0,0.0,0.0,0.0,0.0,0.0,0.0,0.0,0.0,0.0,0.0,0.0,0.0,0.0,0.0,0.0,0.0,0.0,0.0,0.0,0.0,0.0,0.0,0.0,0.0,0.0,0.0,0.0,0.0,0.0
DashingLeech,0.30357218257328916,-0.013608108541488813,0.877755049174386,-0.3704090448656799,-0.0013510862766246013,1.1700523182090183e-05,-8.172649113076906e-06,7.355267629791662e-05,-0.00020826867380594364,2.344102977652485e-06,-4.996498870675208e-05,0.00017056679949828678,4.8154848080613196e-05,2.075130280646352e-06,-1.1536997993191445e-06,0.0001108268613095598,-6.149555242584024e-05,-6.381012633366915e-05,7.983293963733065e-06,-3.68941417535715e-06,2.002975885056387e-05,5.9042996373507445e-05,-3.696787669379519e-05,1.451562365148128e-05,3.138618800435231e-05,-5.277090879688228e-06,4.7953728544710705e-05,-6.285365214595373e-07,1.9189224681984002e-06,1.0769862734209412e-06,4.494575206755719e-07,2.9219706162011846e-06,-5.84435644303156e-05,9.040416709071645e-07,3.185246980122062e-07,1.7123909077394037e-06,-6.967894312844567e-05,1.7122744908240254e-05,-7.406347452667338e-06,9.675376399296978e-07,3.383435784536317e-05,-2.9763545809155908e-05,-1.6330903110570723e-07,-1.2348481036815148e-06,5.467266676058293e-08,1.929963468077333e-06,-5.312159699188266e-07,5.41336933720238e-07,4.762579567578762e-07,5.157112432329228e-07,0.00012029923926369505,0.0,0.0,0.0,0.0,0.0,0.0,0.0,0.0,0.0,0.0,0.0,0.0,0.0,0.0,0.0,0.0,0.0,0.0,0.0,0.0,0.0,0.0,0.0,0.0,0.0,0.0,0.0,0.0,0.0,0.0,0.0,0.0,0.0,0.0,0.0,0.0,0.0,0.0,0.0,0.0,0.0,0.0,0.0,0.0,0.0,0.0,0.0,0.0,0.0
Personage1,0.320976724016033,0.010231608757782904,-0.9217602533700526,-0.21731628046674287,-0.0009269290030485543,-2.4130395942381455e-05,4.606318384581601e-05,7.584381448895345e-05,-0.00011985531001060464,1.3001641589033486e-06,5.3996279409735653e-05,-1.872369804489765e-05,4.746367107891624e-05,2.709983229268909e-06,-1.1343486056434942e-06,-8.528046813947958e-05,5.357568269073169e-05,6.1056380828951e-05,-3.6292900920890026e-06,-9.320470133709166e-07,5.16755297994238e-06,-9.597458482984906e-05,-4.992518758959244e-06,6.598658700936058e-06,-1.480761997879086e-06,-2.6894637061419425e-06,2.605382410986034e-06,-4.596885924640407e-07,1.2054773519605286e-06,6.846117328754073e-07,2.780976654417169e-07,2.0928814860324425e-06,-2.009056996682639e-06,-6.179995066565824e-07,8.354015804642814e-07,6.911008041985717e-07,-3.4680744981090427e-07,1.177967094823295e-06,-1.064713132537653e-06,6.952769511608282e-07,1.4249030826026043e-06,-5.307350492768535e-07,-2.340873543579157e-07,-2.8989185140937762e-06,-7.395551796839205e-07,4.233249056285615e-06,-2.379340429729231e-06,5.236676803195785e-07,-5.00039684631463e-06,5.380035141364544e-06,3.527658212254412e-06,0.00012450171891750266,0.0,0.0,0.0,0.0,0.0,0.0,0.0,0.0,0.0,0.0,0.0,0.0,0.0,0.0,0.0,0.0,0.0,0.0,0.0,0.0,0.0,0.0,0.0,0.0,0.0,0.0,0.0,0.0,0.0,0.0,0.0,0.0,0.0,0.0,0.0,0.0,0.0,0.0,0.0,0.0,0.0,0.0,0.0,0.0,0.0,0.0,0.0,0.0
Larkyo,0.26357549396077534,0.011919750451992232,-0.9635502446098577,-0.04423442028188626,-0.000261664780317723,-2.429564279718134e-05,3.9083510303355174e-05,3.433651654205239e-05,-2.977652412717716e-05,-7.287687444180131e-07,5.54735376510523e-05,-7.211173010174862e-05,1.564023499927751e-05,1.0731832147085014e-06,-2.479739741598066e-07,-9.898187129076699e-05,5.9025705719930083e-05,6.50578516504912e-05,-5.392792355765307e-06,7.534080791497595e-07,-3.432354205929801e-06,-8.802375676627678e-05,3.697772780746019e-05,1.2877901581967504e-06,-4.952213717442512e-05,-6.044292904028751e-07,-1.2522772283382062e-05,-2.681991551224322e-07,2.60849739723384e-07,7.76662439911109e-08,-5.21845548339914e-08,7.422176300461904e-07,1.5952491613510052e-05,-5.308696008206667e-07,-5.510627144636348e-07,4.45600055559974e-07,1.9388916252835886e-05,-4.98127930649821e-06,2.1879870273133663e-06,-5.118255741557347e-07,-9.335662313892879e-06,8.216620200955153e-06,2.2965713105509557e-08,3.1418426742238356e-07,2.274658745264253e-07,-6.087514380731817e-07,-3.477448799056833e-07,1.6362315625037991e-07,-1.2402769857112217e-06,1.2383073824336908e-06,-3.2928719537979465e-05,1.0548979026041683e-06,9.134349824732408e-05,0.0,0.0,0.0,0.0,0.0,0.0,0.0,0.0,0.0,0.0,0.0,0.0,0.0,0.0,0.0,0.0,0.0,0.0,0.0,0.0,0.0,0.0,0.0,0.0,0.0,0.0,0.0,0.0,0.0,0.0,0.0,0.0,0.0,0.0,0.0,0.0,0.0,0.0,0.0,0.0,0.0,0.0,0.0,0.0,0.0,0.0,0.0
StoopidMonkey78,-0.3209520363726408,-0.010232691816110412,0.9217633821050133,0.21733935661708434,0.000925519870901863,2.0160590571992734e-05,-4.613540956055167e-05,-7.550188634306799e-05,0.00011849568806695282,-4.849087870823288e-06,-5.142532425659393e-05,1.8720289374614674e-05,-4.9213446745463605e-05,-5.263198076246426e-06,2.2166049935732896e-06,8.095624001482541e-05,-5.0871364097189764e-05,-5.7212972743159765e-05,3.8242916990417515e-06,2.7000777678705433e-06,-4.085977948341585e-06,9.393310161713007e-05,1.3394780445134392e-05,-1.7653476419755028e-05,3.451733401520197e-06,7.245705759509059e-06,-6.783960493363198e-06,1.319027361901995e-06,-3.2110321041403345e-06,-1.7892301892018042e-06,-6.820875422234515e-07,-5.067612445923009e-06,5.461089303844525e-06,1.1867279263307372e-06,-2.4769154968735953e-06,-1.7506965095497426e-06,6.701653882026129e-07,-2.912449593846415e-06,2.8318470063134536e-06,-2.427724825361852e-06,-3.9650432285413115e-06,1.4718288465383704e-06,7.354053779654451e-07,8.006723626990432e-06,1.8722227378076879e-06,-1.169494826450003e-05,6.538788252144355e-06,-1.4578325469121255e-06,1.284709639760643e-05,-1.3847553073649443e-05,-9.505868438725693e-06,-0.00012592916519649867,-2.5079906216103534e-06,0.0001759050189036094,0.0,0.0,0.0,0.0,0.0,0.0,0.0,0.0,0.0,0.0,0.0,0.0,0.0,0.0,0.0,0.0,0.0,0.0,0.0,0.0,0.0,0.0,0.0,0.0,0.0,0.0,0.0,0.0,0.0,0.0,0.0,0.0,0.0,0.0,0.0,0.0,0.0,0.0,0.0,0.0,0.0,0.0,0.0,0.0,0.0,0.0
GalacticCow,0.7535673613922643,-0.00881485869670552,0.652268940475428,-0.08126309161007143,-0.00020841470453263384,5.450707046639179e-06,-9.054799046607655e-06,7.474465241774405e-06,-3.8899080026135995e-05,-2.2667619777137052e-07,-2.817840611921217e-05,4.990178521263666e-05,-2.2342629752581113e-06,6.64071738805841e-08,-4.295517798652823e-08,5.250676012429942e-05,-1.8261526918583598e-05,-2.089801627366876e-05,5.494665526455929e-06,1.5087621331129328e-07,4.912126839240937e-06,1.836118276100019e-05,-7.4718991800500965e-06,9.640947126369663e-07,8.1155271919535e-06,-6.994439709463553e-07,9.091995620580937e-06,3.6425566046709545e-08,4.106892142880043e-07,2.4364595850356457e-07,1.4689573275549119e-07,2.6606678421883925e-07,-1.1782521534198523e-05,-8.646183621655417e-09,-1.2684247066756621e-06,4.5882976138280396e-07,-7.982487839422456e-05,5.911608139105062e-08,1.547706875147945e-07,-4.0299351479935735e-07,-1.1532572696802339e-08,-2.3098906318359805e-08,-5.553063153739393e-08,7.232509833143845e-08,-3.0982393205182907e-07,-2.1959116635350943e-07,9.423692417438817e-07,1.4011125936276121e-08,3.2057810200901404e-07,-1.201039557774968e-07,-1.6118457728884963e-08,-1.519021860529288e-06,-4.4700262177815143e-07,1.6943777737895715e-06,0.00010145299595955576,0.0,0.0,0.0,0.0,0.0,0.0,0.0,0.0,0.0,0.0,0.0,0.0,0.0,0.0,0.0,0.0,0.0,0.0,0.0,0.0,0.0,0.0,0.0,0.0,0.0,0.0,0.0,0.0,0.0,0.0,0.0,0.0,0.0,0.0,0.0,0.0,0.0,0.0,0.0,0.0,0.0,0.0,0.0,0.0,0.0
LockhartPianist,-0.7535677580834061,0.008816186445834068,-0.6522688929411355,0.08125955318244663,0.00020962858731678457,-3.289833094791239e-06,1.0628031629072754e-05,-6.809113099906789e-06,3.86600272828289e-05,1.2782359625625513e-06,2.737625301523427e-05,-5.182025176251768e-05,4.198999365164138e-06,-1.257915406333711e-06,4.652491928341258e-07,-4.978677645594614e-05,1.7973844908289673e-05,1.927489774895461e-05,-6.44435641181818e-06,-2.0986880412647677e-06,-6.978603909166845e-06,-1.9235520105143162e-05,8.54762052412832e-06,-1.4805613660940817e-06,-7.461631409828555e-06,2.008044892270336e-06,-5.9887909327178535e-06,3.5008838534361617e-07,-7.717229896986334e-07,-2.624376700552767e-07,2.3936783183565246e-08,-2.6888199476141114e-07,1.0606471003255383e-05,3.494342340602581e-07,3.973322418000861e-06,-1.0182137397906782e-06,8.068576728453146e-05,-1.576746302091083e-07,-6.108396263807814e-07,1.9886693953154285e-06,1.0281865753206706e-07,8.886316069944011e-08,1.2242367393558867e-07,-5.230571987465579e-07,1.0010052182997284e-06,1.0846915871457867e-06,-3.3974939326966745e-06,-1.570434723891914e-09,-9.712560118971848e-07,3.281149382315325e-07,9.900181701679246e-07,6.2069445112682875e-06,1.96037834729946e-06,-6.889828008280698e-06,-0.00010115895685973664,0.00012366986485106313,0.0,0.0,0.0,0.0,0.0,0.0,0.0,0.0,0.0,0.0,0.0,0.0,0.0,0.0,0.0,0.0,0.0,0.0,0.0,0.0,0.0,0.0,0.0,0.0,0.0,0.0,0.0,0.0,0.0,0.0,0.0,0.0,0.0,0.0,0.0,0.0,0.0,0.0,0.0,0.0,0.0,0.0,0.0,0.0
mazhoonies,-0.7535674557498259,0.008815157727321552,-0.6522689240363124,0.08126229208703815,0.00020865600862059872,-5.042265629867384e-06,9.340139128275981e-06,-7.331304521506948e-06,3.8851038064528524e-05,4.6136089207816616e-07,2.8021290937199972e-05,-5.030291216779953e-05,2.67238012077204e-06,-3.1395580384999027e-07,1.2846586133873542e-07,-5.197945597311267e-05,1.820137714923748e-05,2.0580129982085885e-05,-5.6930677661352635e-06,-5.356435233648097e-07,-5.310684570757636e-06,-1.85077338500363e-05,7.712242006953258e-06,-1.0885295365582218e-06,-7.973970119226543e-06,9.544324705968295e-07,-8.4914230082062e-06,3.191381744571089e-08,-5.029498061835675e-07,-2.603902646241826e-07,-1.2281675794136889e-07,-2.735317124371199e-07,1.1540466241159517e-05,7.036586676031263e-08,1.7753853910638964e-06,-5.604752765026135e-07,7.995867018541585e-05,-6.213953589340634e-08,-2.4535960271981787e-07,6.315694449965998e-07,8.670759488147582e-09,2.9732732292246857e-08,1.0285796751557721e-07,-8.672484580710825e-08,4.838067043608244e-07,3.2367064932669956e-07,-1.4821480750519853e-06,-9.551502406169538e-09,-4.81224901288626e-07,1.7107041799148847e-07,1.0419799046453158e-07,2.4345647439309236e-06,7.231007699785642e-07,-2.6912617245598964e-06,-0.00010131921099902086,1.59108921575642e-07,6.19969298472098e-05,0.0,0.0,0.0,0.0,0.0,0.0,0.0,0.0,0.0,0.0,0.0,0.0,0.0,0.0,0.0,0.0,0.0,0.0,0.0,0.0,0.0,0.0,0.0,0.0,0.0,0.0,0.0,0.0,0.0,0.0,0.0,0.0,0.0,0.0,0.0,0.0,0.0,0.0,0.0,0.0,0.0,0.0,0.0
Legendary_Hypocrite,0.6991129749380907,-0.009661247787242583,0.707474054442105,-0.10309231032735877,-0.0003106441942078986,8.318335737585046e-06,-1.3351947911632308e-05,1.097500162452437e-05,-5.7795697637618625e-05,-4.846315621761674e-07,-4.203909148870375e-05,7.451257225729597e-05,-3.5919338345029906e-06,2.4753845151947175e-07,-1.3542223969262244e-07,7.822375588029207e-05,-2.7241058552237744e-05,-3.127114746289311e-05,8.321871267321341e-06,2.480827435787464e-07,7.2559483205312915e-06,2.7082559559813645e-05,-1.1058543727249992e-05,1.2489119522055727e-06,1.1722598200337622e-05,-1.2443765095866363e-06,1.377921165161508e-05,-5.694568836908588e-08,5.994786541427625e-07,2.961347188388532e-07,1.2638000365903153e-07,6.306703747072352e-07,-1.7571916226865036e-05,-2.2689344988010911e-07,-1.7679601787221164e-06,6.51664105082052e-07,-0.00011871970533408644,-6.402187130770933e-08,1.920966297521021e-07,1.2996649326949655e-08,2.2341571285281372e-07,1.3599169938994899e-10,-4.072187019656863e-07,-5.836431802107375e-07,-8.309761627637147e-07,1.9047943147933123e-07,1.6835401052173003e-06,6.253245116980321e-08,1.2591211533054078e-07,2.7753745959078677e-07,1.0331605845796004e-06,-2.2050799460462613e-06,-5.240011877090073e-07,2.264775409213024e-06,2.3775925233623163e-07,-3.098541237500215e-07,-1.99849333368841e-07,0.00012367660078959903,0.0,0.0,0.0,0.0,0.0,0.0,0.0,0.0,0.0,0.0,0.0,0.0,0.0,0.0,0.0,0.0,0.0,0.0,0.0,0.0,0.0,0.0,0.0,0.0,0.0,0.0,0.0,0.0,0.0,0.0,0.0,0.0,0.0,0.0,0.0,0.0,0.0,0.0,0.0,0.0,0.0,0.0
kapten_krok,-0.6384057069821233,-0.00398781792736173,0.5810811793164538,0.504740263706665,0.0020049588184803033,2.20357165336082e-05,-4.601370076682609e-05,-0.00013848571613315352,0.00028909985230258687,2.5005297739544293e-07,-3.6011198989512765e-05,-0.00010472270963296038,-9.576339628125263e-05,3.501142213059106e-08,9.542294067902719e-09,3.2629265078680945e-05,7.143390581659407e-06,-8.374940336890915e-06,1.4701528656047651e-06,1.2951940299048448e-06,-1.8008538463474016e-05,2.5733282530268833e-05,4.770682489650406e-06,-6.021432089668411e-07,-5.8362554610105824e-06,-1.0021031347754858e-06,-5.807964091445869e-05,-8.973761503840829e-07,5.793511252768663e-07,6.593076295163034e-08,-2.97701732568303e-07,4.847656719257581e-07,3.45832645341117e-05,5.725672088321953e-08,7.532893913136998e-05,-7.338869131380917e-05,3.30620720590203e-08,-2.250927187949079e-07,2.1066745398830247e-07,-7.538148946113582e-07,2.1563310229149003e-08,-1.021064426603436e-07,1.056193828449952e-07,7.323586197919614e-07,5.459879834788134e-07,-9.836908222941938e-07,3.1570599897514663e-07,2.513343688724206e-07,3.252929632841631e-07,-1.3578074609153347e-07,-1.1624839578222734e-06,-1.9230705620970776e-06,-1.0934050388594573e-06,1.6992611564888787e-06,8.002561595310938e-08,-2.092690453093668e-07,-1.2254778717723036e-07,2.2854488140013408e-07,0.00012372078677696377,0.0,0.0,0.0,0.0,0.0,0.0,0.0,0.0,0.0,0.0,0.0,0.0,0.0,0.0,0.0,0.0,0.0,0.0,0.0,0.0,0.0,0.0,0.0,0.0,0.0,0.0,0.0,0.0,0.0,0.0,0.0,0.0,0.0,0.0,0.0,0.0,0.0,0.0,0.0,0.0,0.0
ApeTit4TwoHundred,0.9997295475320929,-0.00018655163596046883,-4.44076845819716e-05,0.006123001374961579,-0.0004032155818023693,0.001473431463367755,0.0012394487297645064,0.00028503389373335026,0.00021104280297947503,-0.00010170665011400152,0.00023618500675360514,-0.0006174369558013363,0.00027074867444108145,-0.00046621369069434323,0.0001129089435923056,0.0006078405208687157,0.0003184916725856837,-0.0005447465715074916,-0.0003289591423593553,-0.0009091816570313124,6.803192016468119e-05,-0.0011813081066580416,0.00047830314503309823,-0.0006422296405022759,0.00048584500311385585,0.000528574743622125,0.00257639198449302,0.0001057757124741595,-0.00029975256996669073,-0.0001795440285601205,-8.061629959540753e-05,-0.00046685218982955,6.09114221433125e-06,0.0005440316303396156,0.0017982897319151771,-0.0006231957063127781,0.00042643126818314736,0.00015773611216566452,-0.0004122134548547223,0.0021668398864386432,0.0004964721667580892,-3.0223891365274643e-05,-0.0002615343899531341,-0.0011138073083233231,-0.00024670278873971813,0.0012443283356388052,-0.0007493583200288834,2.240207555218691e-05,-0.0012457901514407006,0.0010520238813538432,0.0029819337840653382,0.0024430593969197423,0.0020028554857768645,-0.0028153107985591317,-0.000209090357577993,-8.29001170537832e-06,6.137953772296183e-05,-0.0007563062535480024,0.000902642809379837,0.021064047416400233,0.0,0.0,0.0,0.0,0.0,0.0,0.0,0.0,0.0,0.0,0.0,0.0,0.0,0.0,0.0,0.0,0.0,0.0,0.0,0.0,0.0,0.0,0.0,0.0,0.0,0.0,0.0,0.0,0.0,0.0,0.0,0.0,0.0,0.0,0.0,0.0,0.0,0.0,0.0,0.0
LeopoldTheLlama,-0.999932201741998,9.253347065590898e-05,3.346229969111495e-05,-0.0030408292859253555,0.0002010984831377365,-0.0007415547560876544,-0.0006221140806713056,-0.00014205613201072852,-0.00010713425065992521,5.0828522170397716e-05,-0.00011678710690208009,0.00031069618601075916,-0.00013548344747502843,0.00023454648213125088,-5.649391898116861e-05,-0.0003065871333028175,-0.00016005924546320282,0.00027415586216988355,0.00016522288293897627,0.0004566461455188472,-3.1845214688860904e-05,0.0005929818245290254,-0.0002424530305665128,0.00032528002351501714,-0.000242049673986975,-0.0002635223471205747,-0.001294111270687494,-5.2556784290031665e-05,0.00014983837847274762,8.983960042760175e-05,4.046549321112329e-05,0.00023245283171891189,-2.4027736882852485e-06,-0.0002707911018121397,-0.0009034483707408558,0.0003133185196284307,-0.00021336827749847634,-7.956127872077737e-05,0.00020741210065979018,-0.0010892183707910956,-0.000249621698242917,1.5280954745071924e-05,0.00013150841274579998,0.0005602368712462122,0.00012410434687068128,-0.0006261242935408424,0.00037624559012814507,-1.1753421744528392e-05,0.0006206669876348581,-0.0005241343528965784,-0.001499202822305186,-0.0012281793756599585,-0.001006847048795636,0.0014154067065363296,0.00010319882851843506,7.205881176151073e-06,-2.94419481873424e-05,0.00037673570387342927,-0.00045155619241816255,-0.010549582844922245,4.101467197226107e-05,0.0,0.0,0.0,0.0,0.0,0.0,0.0,0.0,0.0,0.0,0.0,0.0,0.0,0.0,0.0,0.0,0.0,0.0,0.0,0.0,0.0,0.0,0.0,0.0,0.0,0.0,0.0,0.0,0.0,0.0,0.0,0.0,0.0,0.0,0.0,0.0,0.0,0.0,0.0
FerrumFist,0.547164173173579,-0.0005456001192074927,0.4239308275069611,0.721723766190491,0.002859431971950168,3.45632199171872e-05,-7.422565891164108e-05,-0.0002021021429887888,0.00042045546201719905,-1.9118374020258243e-06,-5.4442783994738085e-05,-0.00015134768965706897,-0.00017603024180944704,1.0117582176567884e-06,-3.536332149703605e-07,3.885344951785851e-05,1.871530411429854e-05,1.682238034246074e-06,1.9734450187736185e-06,2.6414534176467075e-06,-3.1237244068475295e-05,2.394110714820635e-05,5.58427058594583e-06,2.4257665357669735e-06,-1.195563642429816e-05,-3.045990068765164e-06,-7.65812646238627e-05,-1.2062277919643444e-06,1.8865506022968628e-06,7.111775772922015e-07,-5.98022908642454e-08,-3.7307730969181637e-07,9.75179420952106e-05,1.3870443758550746e-06,-3.349697157586583e-06,1.235965284659867e-06,-1.1985541546394533e-06,1.548238065642822e-07,8.555199562029034e-07,-1.6659338799986777e-06,-3.58756657128925e-07,1.1812234707528349e-07,3.4690502221000315e-08,7.485043919662654e-07,-8.146708210775192e-07,-1.0101071544788912e-06,4.301461675458689e-06,7.807803388123833e-09,4.204149513363252e-06,-3.1463180378711695e-06,-1.6901524301834427e-06,-3.3281404039343096e-06,-1.318231176495988e-06,3.3249440010767196e-06,1.3966625720392977e-06,-2.1465824745899585e-06,-1.0624667672839994e-06,2.524244438656377e-06,-4.793138953891534e-07,9.460460960361867e-06,-5.784679814021387e-06,0.00022792974357454596,0.0,0.0,0.0,0.0,0.0,0.0,0.0,0.0,0.0,0.0,0.0,0.0,0.0,0.0,0.0,0.0,0.0,0.0,0.0,0.0,0.0,0.0,0.0,0.0,0.0,0.0,0.0,0.0,0.0,0.0,0.0,0.0,0.0,0.0,0.0,0.0,0.0,0.0
Coziestpigeon2,-0.9347536309077323,0.0004608982265971374,0.1368877856313425,0.3278649848535062,0.0012895941861403128,-4.5774833875670045e-06,1.1584352753036804e-05,-6.91440394997785e-05,0.00017197466205941,3.171122615379906e-07,1.155894136960062e-06,-9.430594534653457e-05,2.4615677189675046e-06,6.847801780544776e-07,-3.7800405199034896e-07,-1.2784749121919116e-06,-1.5267394744312934e-07,3.4104866273726697e-07,-1.3336747440757087e-07,1.065944349623718e-08,6.628789302335804e-07,-7.00445669379482e-07,-9.566393534442872e-07,6.565514555084438e-07,2.556492704421228e-07,-8.904825391808133e-07,9.981171262970027e-07,-7.648419029907594e-07,-6.260403042275391e-07,-6.818598325020901e-07,-7.166826032458647e-07,-3.230106989747978e-07,-5.951358859886449e-07,2.818591968269974e-07,5.467919314772901e-07,-1.562122264070523e-07,4.4018625679887616e-07,-1.9947636930853455e-07,9.978970778726587e-08,3.967108253316441e-07,-1.3081308086705166e-07,1.7569975029134038e-07,-9.524165948617826e-08,-1.51898360927119e-07,3.2513176168192227e-08,1.1416025981265701e-07,-2.994672149666585e-07,2.7757019125418307e-07,9.149221166979591e-07,-1.1093162496257791e-06,4.547403636342215e-07,4.0581216236638734e-07,2.920355708848169e-07,-4.595112440767188e-07,2.654844939472362e-07,-7.926540006631716e-07,-2.839414409481577e-07,4.518602164017267e-07,7.655044531223957e-07,-2.7013220363024896e-06,-3.2350994619835514e-07,-3.717629892008054e-05,0.0001227199685188627,0.0,0.0,0.0,0.0,0.0,0.0,0.0,0.0,0.0,0.0,0.0,0.0,0.0,0.0,0.0,0.0,0.0,0.0,0.0,0.0,0.0,0.0,0.0,0.0,0.0,0.0,0.0,0.0,0.0,0.0,0.0,0.0,0.0,0.0,0.0,0.0,0.0
Faemn,-0.06949304566558494,0.00030389236415659105,-0.48439237103951865,-0.8720793083368976,-0.003451079248603933,-3.150112856690681e-05,6.584893971390929e-05,0.00023212375386034954,-0.0004965709748846645,1.3828898085208484e-06,5.293891818373947e-05,0.00019701829252204804,0.00016951878679990497,4.6086308857554305e-07,-3.544323586031795e-07,-3.878034701072916e-05,-1.8517192362459514e-05,-2.042113982191933e-06,-1.6248134312400197e-06,-2.3395917565973172e-06,3.323159217704125e-05,-2.3037938717545085e-05,-1.007961989393955e-05,3.368938685106854e-06,1.04785127836793e-05,-1.548366647075059e-07,7.395445920850197e-05,6.445260032357446e-07,-3.830032185499043e-07,4.5353262716900106e-08,3.040516858994556e-07,9.561635477791181e-07,-9.441454476287978e-05,-5.357467477962514e-07,1.4669191603972558e-06,-1.3298530748093837e-07,3.339092666954119e-07,1.6401910664758826e-07,-5.115941895108261e-07,8.149195155563356e-07,3.044952806806312e-07,-2.474946609102617e-07,1.9445529594044484e-07,-3.1670155633017175e-07,6.499301288683931e-07,7.46797551049998e-07,-2.640737227772299e-06,2.0325962550776086e-07,-2.5368674966131223e-06,2.205923531321663e-06,1.2577488743393103e-06,2.02649154067636e-06,7.826802950551559e-07,-1.9701757819408274e-06,-8.618755464262133e-07,1.63927833871835e-06,7.440633661281278e-07,-1.4305897216715879e-06,-2.096026734279028e-08,5.298020571202329e-07,-1.9640213555611146e-07,-0.0001384880618083051,-4.0132968955131e-05,0.00010036742727961993,0.0,0.0,0.0,0.0,0.0,0.0,0.0,0.0,0.0,0.0,0.0,0.0,0.0,0.0,0.0,0.0,0.0,0.0,0.0,0.0,0.0,0.0,0.0,0.0,0.0,0.0,0.0,0.0,0.0,0.0,0.0,0.0,0.0,0.0,0.0,0.0
Kallipolan,-0.999999983637498,2.1862722037804295e-07,7.539246505309491e-06,1.5209936237885685e-05,-1.148894289800782e-06,4.529262002647179e-06,1.7712888061239524e-06,5.242057990399387e-07,1.909097806915929e-06,-2.8670261932569086e-07,-7.896407837168123e-07,-1.4442374582555234e-06,-4.979635626467787e-07,8.213322838965517e-07,-8.751395661726366e-07,1.6619416239749913e-06,2.753046224865971e-07,-2.0167154154822813e-06,-9.396451116091567e-07,-2.7252421058310604e-06,2.5044953210166817e-06,-2.600243312561893e-06,-4.478836260061703e-06,5.415200187688619e-06,-1.132953564158919e-06,-3.6425903224283017e-06,6.434599708352765e-06,-1.301021061230027e-06,3.0412833901929416e-07,-2.5428038135142357e-07,-6.510131615408301e-07,7.531055710345991e-07,1.483138492473794e-06,1.2328480788232675e-06,3.685581989825275e-06,7.414368866148747e-08,1.579560158003684e-07,6.964324208791093e-07,-7.114991752891521e-07,4.40188610959394e-06,1.1843270628668683e-06,-3.171822660371015e-07,-1.5949034581982523e-07,-2.3117919460265573e-06,-3.8219618329520286e-08,3.676975264419955e-06,-2.554931790524834e-06,7.474665157379814e-07,-7.300388266241356e-07,1.0650991198133272e-06,7.580149325717869e-06,6.352826094468259e-06,4.706470721362008e-06,-7.023925018306086e-06,3.7555039397450817e-07,-7.931703667717095e-07,-3.095382979648315e-07,-1.7136178804110979e-07,1.4612938071872296e-06,-1.533491281190967e-05,-1.2634675482309513e-05,4.440472413851739e-06,-5.531542111585152e-07,3.7824564671617227e-06,0.0001777601293973519,0.0,0.0,0.0,0.0,0.0,0.0,0.0,0.0,0.0,0.0,0.0,0.0,0.0,0.0,0.0,0.0,0.0,0.0,0.0,0.0,0.0,0.0,0.0,0.0,0.0,0.0,0.0,0.0,0.0,0.0,0.0,0.0,0.0,0.0,0.0
Emijah1,0.9999999781971344,-3.13315346725821e-07,-4.957488285577235e-06,-7.811097572768682e-06,7.782307587715141e-07,-2.487129209940617e-06,-3.3146289099141435e-07,-3.9920800628711395e-07,-9.244603773546192e-07,3.6297883985964554e-07,8.94695596646463e-07,1.0408925008790463e-06,6.567828641027396e-07,-3.795145287915785e-07,4.925486487898768e-07,-7.915554200969648e-08,-1.6212752253538956e-07,9.398095902013668e-07,5.957682689618761e-07,1.4559466679197078e-06,-1.7573860305186023e-06,1.3292243501782574e-06,2.6096852509454576e-06,-3.2296881099019e-06,1.2590061467122984e-06,1.8320786271411482e-06,-2.976384693444118e-06,8.478579246954047e-07,3.9402799856192365e-07,5.480457013581615e-07,6.568381262102108e-07,-7.628144997644287e-07,-1.2576766903319795e-06,-4.909645398931313e-07,-1.8646033282233517e-06,-2.0771483797001805e-07,-1.8806111165652365e-07,-3.856524588637465e-07,1.2773168255338164e-07,-1.9529529943776367e-06,-4.154311465468011e-07,3.644309488101084e-08,-1.700226844753699e-08,1.076811746319137e-06,1.0784029641331918e-07,-1.8986587916648868e-06,1.235706867012704e-06,-4.923081206600937e-07,-3.3077138159843743e-07,-1.4027127677105966e-08,-3.9929228997527206e-06,-3.5912241913368546e-06,-2.6230651944380123e-06,3.5945061206180387e-06,-6.036666293823786e-07,1.0456438444760698e-06,4.3690275226735656e-07,-4.0091041757294043e-07,-8.234547493522294e-07,7.245900206605742e-06,8.259373516518045e-06,-2.7075538756993004e-06,1.5131809974192073e-07,-1.7389191452953793e-06,-0.00018123861377730802,0.00010208805252102787,0.0,0.0,0.0,0.0,0.0,0.0,0.0,0.0,0.0,0.0,0.0,0.0,0.0,0.0,0.0,0.0,0.0,0.0,0.0,0.0,0.0,0.0,0.0,0.0,0.0,0.0,0.0,0.0,0.0,0.0,0.0,0.0,0.0,0.0
everysinglehoetrife,-0.9999999743794038,4.5190503272409544e-07,4.86384189395069e-06,9.471607393210502e-06,-7.144540738267424e-07,3.0050261831392304e-06,6.265110958839246e-07,5.31533484831127e-07,1.0291941079098154e-06,-1.9497417440513155e-07,-9.684597611665525e-07,-1.4729455399886186e-06,-3.222270491980629e-07,1.9317225226307164e-07,-4.650631819355477e-07,6.249751882339442e-07,1.4698416833050375e-07,-1.2092958367885525e-06,-7.510458340319082e-07,-1.8282428759633332e-06,1.7815236196384738e-06,-1.5770015940629394e-06,-2.5198940875613885e-06,3.2910925790909345e-06,-1.19833314448443e-06,-1.9255766852866616e-06,3.939999937023171e-06,-8.492649953433701e-07,-3.6681612448486365e-07,-5.186374518947507e-07,-6.33503246675941e-07,9.008492663941375e-07,9.406158316362168e-07,4.848565286329727e-07,2.3996107260231583e-06,1.676825396983638e-07,3.4242545179041583e-07,3.981575560314999e-07,-3.3812655677846195e-07,2.5177162376588624e-06,6.724217670939689e-07,-1.3583189063755126e-07,-2.9798998041729744e-08,-1.3953625690866852e-06,5.673850712253483e-08,2.3628035795527864e-06,-2.0707426303951733e-06,5.960872763329964e-07,-4.789415506430717e-07,7.825702700534842e-07,4.712462250003049e-06,4.312963200269701e-06,3.054526626118613e-06,-4.4190067337281e-06,3.4068599674153165e-07,-5.810100906916766e-07,-2.2664881339278968e-07,-4.802408382436994e-08,9.102801638863907e-07,-9.367084062839399e-06,-1.03101536110323e-05,2.6496378670114424e-06,-3.582153172898816e-07,1.9945687733692916e-06,0.00018058700416162147,-0.00010245984579283716,8.745416641838407e-05,0.0,0.0,0.0,0.0,0.0,0.0,0.0,0.0,0.0,0.0,0.0,0.0,0.0,0.0,0.0,0.0,0.0,0.0,0.0,0.0,0.0,0.0,0.0,0.0,0.0,0.0,0.0,0.0,0.0,0.0,0.0,0.0,0.0
falafax,-0.9999999705125144,5.349483685652893e-07,6.006084403952965e-06,1.1259091508841898e-05,-9.77158253247768e-07,3.526282467292091e-06,7.357912256390863e-07,5.608529618279754e-07,1.4687158005477882e-06,-2.0201418550201388e-07,-9.694567911396673e-07,-1.6266452466017223e-06,-2.680854923057229e-07,4.691096857841377e-07,-6.964293286431707e-07,6.515156832072527e-07,2.1586537661875034e-07,-1.3290026840993795e-06,-8.658853104316249e-07,-2.1090448747970745e-06,2.554157665917946e-06,-1.9359953276509866e-06,-3.536763249213769e-06,4.52036554688854e-06,-1.2254248944713224e-06,-2.8692574709084156e-06,4.7810968908566936e-06,-1.2273174935921033e-06,-3.14415811468635e-07,-6.177444859242857e-07,-8.376803946581218e-07,9.680650013026996e-07,9.879411625024912e-07,7.889550213525212e-07,2.8167438587519198e-06,2.2224258939469817e-07,3.5054604695604373e-07,5.271335339852286e-07,-4.5518577671178806e-07,2.976844066874091e-06,8.602282589119372e-07,-2.491453004377981e-07,2.963800353784682e-08,-1.5142332440495975e-06,2.154647412622756e-07,2.71154847643453e-06,-2.5886980965757064e-06,7.688017411512289e-07,-6.148617057978125e-07,8.74815048557959e-07,5.498361683727268e-06,4.868076144122552e-06,3.551568804954299e-06,-5.08098046652577e-06,2.9666795405819843e-07,-5.501315141667732e-07,-1.7570359882523405e-07,-1.8217025863166466e-07,1.308075547337631e-06,-1.087711860544637e-05,-1.1944999448105754e-05,2.9626595806813427e-06,-2.255841760765968e-07,2.434696262144601e-06,0.00018039477103541583,-0.0001026210790580905,5.781885228043208e-07,0.00012337835204264506,0.0,0.0,0.0,0.0,0.0,0.0,0.0,0.0,0.0,0.0,0.0,0.0,0.0,0.0,0.0,0.0,0.0,0.0,0.0,0.0,0.0,0.0,0.0,0.0,0.0,0.0,0.0,0.0,0.0,0.0,0.0,0.0
trer24,-0.9999999705125148,5.34943884971224e-07,6.006084346698032e-06,1.125909151443039e-05,-9.771521821616284e-07,3.5262780442209197e-06,7.357953633666296e-07,5.60851895218278e-07,1.4687149199810224e-06,-2.0201522383680499e-07,-9.69458283727412e-07,-1.6266462563670112e-06,-2.680907655160337e-07,4.6910754426728276e-07,-6.964255423696023e-07,6.515173550840871e-07,2.1586408632187697e-07,-1.3290025916091589e-06,-8.65877609470908e-07,-2.109042472790984e-06,2.55415914793361e-06,-1.9359923762707618e-06,-3.5367639133159094e-06,4.520366738158788e-06,-1.2254256710062337e-06,-2.8692568411511664e-06,4.78109744234818e-06,-1.2273130189595963e-06,-3.144204559257227e-07,-6.177444585900383e-07,-8.376781768281591e-07,9.680576493251722e-07,9.87937126284311e-07,7.889622029262931e-07,2.816740645263792e-06,2.222433422656297e-07,3.5054042911089285e-07,5.271330040884495e-07,-4.5518630989198773e-07,2.9768420560783126e-06,8.602292868620841e-07,-2.491432780444579e-07,2.9639555893229783e-08,-1.5142310171850875e-06,2.1546367269017478e-07,2.711547135548755e-06,-2.588695104818434e-06,7.688034000435228e-07,-6.148642520488808e-07,8.748118792267802e-07,5.498362630278844e-06,4.868076597858361e-06,3.551571235829065e-06,-5.080982325314668e-06,2.966614298771181e-07,-5.501307087596124e-07,-1.7571616292455561e-07,-1.821738107657799e-07,1.3080782861350685e-06,-1.0877118551339579e-05,-1.1945002811898245e-05,2.962661029604161e-06,-2.2558739004582647e-07,2.434696611298476e-06,0.00018039476745630948,-0.0001026210816891568,5.781883555567285e-07,7.767509221936153e-07,0.00012337590627795476,0.0,0.0,0.0,0.0,0.0,0.0,0.0,0.0,0.0,0.0,0.0,0.0,0.0,0.0,0.0,0.0,0.0,0.0,0.0,0.0,0.0,0.0,0.0,0.0,0.0,0.0,0.0,0.0,0.0,0.0,0.0
lackingsaint,-0.9999999765188754,4.167859371288497e-07,4.548120974635997e-06,8.494105631821609e-06,-6.61683181253687e-07,2.706414485629305e-06,5.175413261912543e-07,4.6847370620660167e-07,8.80327251620454e-07,-2.0692079449023712e-07,-9.356814598823143e-07,-1.3170980729888208e-06,-4.497242347237237e-07,1.991317916587901e-07,-4.24850285543277e-07,4.819700443473146e-07,1.308743817674601e-07,-1.1180852903255371e-06,-6.719161984956298e-07,-1.6390510821996797e-06,1.59027690827519e-06,-1.3973272058216015e-06,-2.2811274255300884e-06,2.967261514748249e-06,-1.1986111439826903e-06,-1.7236685508710567e-06,3.4257562085429048e-06,-7.842744321118143e-07,-3.6656377564976316e-07,-5.019039467711838e-07,-6.018642506269616e-07,8.329116319349912e-07,9.915402732027621e-07,4.307582629072002e-07,2.1343718226204892e-06,1.546016173908307e-07,2.9629919787141503e-07,3.7405112800841565e-07,-2.529913692002586e-07,2.2174414544219075e-06,5.611754602834693e-07,-9.403994489706826e-08,-2.066165156778082e-08,-1.2546894778289912e-06,-1.7830194074045222e-08,2.1245464922863584e-06,-1.7076548629225361e-06,5.242981049599933e-07,-2.543488385953633e-07,5.513372189885969e-07,4.261944793667503e-06,3.936178575006275e-06,2.7791917725947156e-06,-3.9976063145047184e-06,3.894262388367658e-07,-6.78469478954652e-07,-2.7302893882809977e-07,7.281863311646322e-08,8.05333516920121e-07,-8.34778722852115e-06,-9.225862527888175e-06,2.5576166322949136e-06,-3.050492004289371e-07,1.7952077587169145e-06,0.00018083148775148954,-0.00010224902536037236,2.3731291810024764e-07,1.9902392886635565e-07,1.9777389967008357e-07,5.8450790423856377e-05,0.0,0.0,0.0,0.0,0.0,0.0,0.0,0.0,0.0,0.0,0.0,0.0,0.0,0.0,0.0,0.0,0.0,0.0,0.0,0.0,0.0,0.0,0.0,0.0,0.0,0.0,0.0,0.0,0.0,0.0
thomasbomb45,-0.9999999705125144,5.349465751276632e-07,6.006084381214941e-06,1.1259091502387754e-05,-9.771535312918817e-07,3.5262770712362565e-06,7.357928118244509e-07,5.608513106185209e-07,1.468716681114554e-06,-2.0201211139343855e-07,-9.69459121283404e-07,-1.6266423929939416e-06,-2.6808775225299896e-07,4.6910861541698215e-07,-6.964261704127305e-07,6.515155452089523e-07,2.1586451642083477e-07,-1.3290022451845936e-06,-8.658810459018653e-07,-2.109043180690969e-06,2.554157665917946e-06,-1.9359947556809115e-06,-3.536762462703835e-06,4.520368670748352e-06,-1.2254256710062337e-06,-2.8692555888331772e-06,4.781096479626525e-06,-1.2273148413468998e-06,-3.144173596209976e-07,-6.17747010306214e-07,-8.376803727546808e-07,9.680551981280707e-07,9.879389949038389e-07,7.889604053020547e-07,2.8167391795723287e-06,2.2224120683933e-07,3.5054511064851857e-07,5.271355734595254e-07,-4.5518429192631357e-07,2.976844748586891e-06,8.602287728870106e-07,-2.491490731368502e-07,2.96395545183327e-08,-1.5142314701373829e-06,2.15465275548326e-07,2.7115511571691234e-06,-2.5886978457209415e-06,7.687986873034033e-07,-6.148629789233467e-07,8.748118708131153e-07,5.498362625274679e-06,4.868075757763527e-06,3.551571235829065e-06,-5.080981378590949e-06,2.9666798000115197e-07,-5.501324800233055e-07,-1.757072034357046e-07,-1.8216934224259846e-07,1.3080773691575968e-06,-1.0877118329162469e-05,-1.1945001318455397e-05,2.962659516734463e-06,-2.255860422303604e-07,2.4346968245915493e-06,0.00018039476828674925,-0.0001026210782195684,5.781986147393096e-07,7.767590879156591e-07,7.718776596084142e-07,4.1485399466770095e-07,0.00012337279872415654,0.0,0.0,0.0,0.0,0.0,0.0,0.0,0.0,0.0,0.0,0.0,0.0,0.0,0.0,0.0,0.0,0.0,0.0,0.0,0.0,0.0,0.0,0.0,0.0,0.0,0.0,0.0,0.0,0.0
shadowlass,-0.9999999743794038,4.5190682616172157e-07,4.8638419162788355e-06,9.471607365896539e-06,-7.144499514843019e-07,3.0050261548694135e-06,6.265146519020548e-07,5.315315684177298e-07,1.029191466209518e-06,-1.9497107476679943e-07,-9.684603789328083e-07,-1.4729441781923911e-06,-3.222270491980629e-07,1.9317332028259584e-07,-4.650650753220521e-07,6.249784715988968e-07,1.4698459842946152e-07,-1.209297188009862e-06,-7.510436489273207e-07,-1.828243295143289e-06,1.7815265836698019e-06,-1.576996263272565e-06,-2.5198901807739266e-06,3.2910964865673345e-06,-1.1983315914146073e-06,-1.9255779448011613e-06,3.939999833474979e-06,-8.492676637507371e-07,-3.668207689419514e-07,-5.186361578138312e-07,-6.335032319708337e-07,9.008370126793471e-07,9.406193446409292e-07,4.848511411917593e-07,2.399609914129754e-06,1.6767738075573757e-07,3.424235791753655e-07,3.981573793992402e-07,-3.38125249974305e-07,2.5177150748513023e-06,6.724243369693358e-07,-1.3582987895147828e-07,-2.9801320311023424e-08,-1.3953598715090186e-06,5.673636997833322e-08,2.3628040249016694e-06,-2.070745286820981e-06,5.96088732469338e-07,-4.789409140803046e-07,7.825689913832482e-07,4.712460868637729e-06,4.3129659954298985e-06,3.05452541068123e-06,-4.419005173184505e-06,3.406859653234937e-07,-5.810100101839623e-07,-2.2665415533881124e-07,-4.802502360313073e-08,9.102792309506896e-07,-9.367083638114438e-06,-1.031016324118074e-05,2.6496365854987792e-06,-3.5821571530023867e-07,1.9945649536496994e-06,0.00018058700184387237,-0.00010245985042011678,4.0793758408404765e-07,4.0792938164379507e-07,4.053646062062826e-07,3.5064338490058106e-07,4.016650033987329e-07,8.744969846166528e-05,0.0,0.0,0.0,0.0,0.0,0.0,0.0,0.0,0.0,0.0,0.0,0.0,0.0,0.0,0.0,0.0,0.0,0.0,0.0,0.0,0.0,0.0,0.0,0.0,0.0,0.0,0.0,0.0
Spacefungi,-0.9999999705125147,5.349483685652893e-07,6.006084403952965e-06,1.1259091493427472e-05,-9.771540559536467e-07,3.526280098798614e-06,7.357937302453639e-07,5.608529493459232e-07,1.468716681114554e-06,-2.0201314716722278e-07,-9.694604026254209e-07,-1.626641786238154e-06,-2.680885055687577e-07,4.691107506734868e-07,-6.964236319671798e-07,6.515142187322182e-07,2.1586537661875034e-07,-1.3290043817452543e-06,-8.658843887486878e-07,-2.1090445840016847e-06,2.5541621119649377e-06,-1.935996197001589e-06,-3.536763892962741e-06,4.5203634355063686e-06,-1.2254264475411453e-06,-2.8692562113939168e-06,4.781098493557058e-06,-1.2273148164803507e-06,-3.14415811468635e-07,-6.177432191776137e-07,-8.376782061061851e-07,9.680576495586838e-07,9.87937201029092e-07,7.889568244082616e-07,2.816743722601922e-06,2.222436023907901e-07,3.505432380334683e-07,5.271341809470218e-07,-4.5518571880609444e-07,2.976845152439094e-06,8.602303148122308e-07,-2.491403858518955e-07,2.9638782294995097e-08,-1.5142327935123991e-06,2.154631384041244e-07,2.7115489221290645e-06,-2.588697922555625e-06,7.688040568966841e-07,-6.148610692350453e-07,8.748163188145302e-07,5.49836352153067e-06,4.86807561685873e-06,3.551568804954299e-06,-5.0809810976749155e-06,2.966657759539665e-07,-5.501306377718129e-07,-1.7570360652282682e-07,-1.8217203606823544e-07,1.3080773568967614e-06,-1.0877119326781764e-05,-1.194500523916321e-05,2.962659517909681e-06,-2.2558965106825828e-07,2.4346940467373083e-06,0.0001803947680619687,-0.00010262108275293548,5.781921055441743e-07,7.767544535405469e-07,7.718757539289944e-07,4.1484630473418796e-07,7.656764328798735e-07,5.631387962942996e-07,0.0001233691319992224,0.0,0.0,0.0,0.0,0.0,0.0,0.0,0.0,0.0,0.0,0.0,0.0,0.0,0.0,0.0,0.0,0.0,0.0,0.0,0.0,0.0,0.0,0.0,0.0,0.0,0.0,0.0
opsidenta,-0.9999999705125144,5.349483685652893e-07,6.006084405387532e-06,1.1259091508339157e-05,-9.771580658685662e-07,3.5262790447335303e-06,7.357921783868442e-07,5.608517658009632e-07,1.4687149199810224e-06,-2.0201315228923652e-07,-9.694608251168762e-07,-1.6266450192803081e-06,-2.680869989372403e-07,4.6911395629714694e-07,-6.964229866940876e-07,6.515155571914162e-07,2.1586322612396137e-07,-1.3290015868124144e-06,-8.658823397751297e-07,-2.10904487773922e-06,2.554153219870954e-06,-1.9359944583003843e-06,-3.5367639435762805e-06,4.520367577646158e-06,-1.2254264475411453e-06,-2.8692555852349224e-06,4.78109601332667e-06,-1.2273157392798498e-06,-3.144220040780853e-07,-6.177457162252946e-07,-8.376814559687717e-07,9.680527471690872e-07,9.879401908203366e-07,7.889586094236562e-07,2.8167409781196077e-06,2.222421315643942e-07,3.505432380334683e-07,5.271347888871438e-07,-4.551833499057747e-07,2.9768437334276485e-06,8.602313427623776e-07,-2.491418426554439e-07,2.9639558900504487e-08,-1.5142296730724639e-06,2.154658098343764e-07,2.711548923857324e-06,-2.5887019609053857e-06,7.687992911328219e-07,-6.148629789233467e-07,8.74812508044817e-07,5.498359853889449e-06,4.868074917019058e-06,3.55156941267299e-06,-5.0809823513085734e-06,2.966679882137786e-07,-5.501280099407006e-07,-1.7570185013413175e-07,-1.8217380073258873e-07,1.3080764901375146e-06,-1.08771180583122e-05,-1.1944989733854185e-05,2.9626599176753726e-06,-2.2558220171333097e-07,2.434699444839692e-06,0.00018039477224452116,-0.00010262107329352299,5.78195077828962e-07,7.767585488460766e-07,7.718825231442594e-07,4.148522711942958e-07,7.656840397430586e-07,5.631467237489655e-07,7.583786225137165e-07,0.0001233668067366573,0.0,0.0,0.0,0.0,0.0,0.0,0.0,0.0,0.0,0.0,0.0,0.0,0.0,0.0,0.0,0.0,0.0,0.0,0.0,0.0,0.0,0.0,0.0,0.0,0.0,0.0
cheertina,-0.9999999761502678,4.439215451312941e-07,4.424239069238887e-06,8.536681542391041e-06,-6.373358023318055e-07,2.7270892327593752e-06,5.321335123133364e-07,4.850342749396265e-07,8.495162204857856e-07,-1.7528258156187193e-07,-9.57094094330567e-07,-1.373143646253009e-06,-3.972814048672149e-07,1.5055293217267963e-07,-4.037342796958609e-07,5.428365826008229e-07,1.2129908867014484e-07,-1.1374175605512102e-06,-6.837010993247133e-07,-1.6608576016671669e-06,1.5366472074413476e-06,-1.3974809777239964e-06,-2.1793727393110713e-06,2.867965182888426e-06,-1.19002266786325e-06,-1.657014900756897e-06,3.4707942307788204e-06,-7.611065399933601e-07,-3.833318138888618e-07,-5.033772936467398e-07,-5.932383915610342e-07,8.505332101790111e-07,9.338793087486251e-07,4.014113862951185e-07,2.1720119540470612e-06,1.452183653185241e-07,3.2317871430342775e-07,3.664478900514672e-07,-2.6916225557604406e-07,2.241796319767743e-06,5.772731595821523e-07,-9.891387950956985e-08,-2.6480671273192486e-08,-1.2779591131073139e-06,-2.4983215716839105e-09,2.150977004914302e-06,-1.7905859717404992e-06,5.265465688024151e-07,-3.671617653047116e-07,6.55850847035674e-07,4.273741529243574e-06,3.976288274570023e-06,2.7855746420114665e-06,-4.037829014822214e-06,3.5003671286139335e-07,-6.06244274793593e-07,-2.4156165569569926e-07,1.2237832608434395e-08,7.884177702369386e-07,-8.471686918236553e-06,-9.38530602614314e-06,2.504609075100552e-06,-3.354797439821538e-07,1.7746605476279964e-06,0.0001808105496489239,-0.00010234507575148138,3.088824790917631e-07,2.595913476173786e-07,2.5796029001358737e-07,3.0451109715000554e-07,2.553334222071331e-07,3.026568187592627e-07,2.523720539945667e-07,2.508272916837527e-07,6.431285975675806e-05,0.0,0.0,0.0,0.0,0.0,0.0,0.0,0.0,0.0,0.0,0.0,0.0,0.0,0.0,0.0,0.0,0.0,0.0,0.0,0.0,0.0,0.0,0.0,0.0,0.0
kaijyuu,-0.9999999705125147,5.349474718464762e-07,6.006084392379015e-06,1.125909149952087e-05,-9.77154580615412e-07,3.5262782703597745e-06,7.357929949171413e-07,5.60851462542605e-07,1.4687158005477882e-06,-2.0201522127579812e-07,-9.694606245184334e-07,-1.6266452726502288e-06,-2.6808775225299896e-07,4.6911181947555477e-07,-6.96424260224354e-07,6.515145153749413e-07,2.1586494651979254e-07,-1.3290018987600285e-06,-8.65881491517527e-07,-2.1090438899116386e-06,2.554160629949274e-06,-1.935995716561363e-06,-3.536763862246934e-06,4.5203678069411225e-06,-1.2254264475411453e-06,-2.8692562113939168e-06,4.781095495252717e-06,-1.2273121445799542e-06,-3.14415811468635e-07,-6.177444859242857e-07,-8.376792967389237e-07,9.680650014846192e-07,9.87939144393401e-07,7.889604049140902e-07,2.816741220597914e-06,2.2224039822783026e-07,3.5054136541841796e-07,5.271309646141526e-07,-4.5518734931819513e-07,2.976843861957392e-06,8.602292868620841e-07,-2.4915023643823567e-07,2.9636453691275834e-08,-1.514233238403638e-06,2.1546260411807398e-07,2.7115489217834124e-06,-2.588697288129284e-06,7.687987617683979e-07,-6.148648886116479e-07,8.74811246201911e-07,5.498361712628184e-06,4.868074396314711e-06,3.5515681972356075e-06,-5.080981737488697e-06,2.9666578396195486e-07,-5.501297595017992e-07,-1.7570898868852816e-07,-1.821765218505919e-07,1.3080746726639498e-06,-1.087711792445563e-05,-1.1945019558016105e-05,2.962661077649748e-06,-2.2558282717183432e-07,2.4346996749924952e-06,0.00018039476827991823,-0.00010262107793568276,5.78191811512454e-07,7.767549538436559e-07,7.718771509617857e-07,4.1485369894391806e-07,7.656786962368639e-07,5.631397243202539e-07,7.583751438004247e-07,7.537331664020953e-07,4.782041616123708e-07,0.00012336357477182224,0.0,0.0,0.0,0.0,0.0,0.0,0.0,0.0,0.0,0.0,0.0,0.0,0.0,0.0,0.0,0.0,0.0,0.0,0.0,0.0,0.0,0.0,0.0,0.0
synthequated,-0.9999999705125144,5.349465751276632e-07,6.006084382034695e-06,1.1259091502100485e-05,-9.77153568767722e-07,3.526280669348685e-06,7.357920986028268e-07,5.608531960843749e-07,1.4687193228148514e-06,-2.020172825793391e-07,-9.694534100909347e-07,-1.6266375460266551e-06,-2.6808925888451635e-07,4.691118179104672e-07,-6.964242603670514e-07,6.515146796461487e-07,2.1586580671770814e-07,-1.3290006400289396e-06,-8.658824051369435e-07,-2.109048704435463e-06,2.554157665917946e-06,-1.9359958996210617e-06,-3.536764704779444e-06,4.520362995000053e-06,-1.225428000610968e-06,-2.8692555780384115e-06,4.781099578183468e-06,-1.2273139232870371e-06,-3.144173596209976e-07,-6.177419433195258e-07,-8.376771081429241e-07,9.680478468522926e-07,9.879405645442423e-07,7.889514373550127e-07,2.8167419070874216e-06,2.2224181469294026e-07,3.5054604695604373e-07,5.271353578055943e-07,-4.5518535039983466e-07,2.9768465932297847e-06,8.602298008371574e-07,-2.491435715466211e-07,2.9638005868072255e-08,-1.514230115232696e-06,2.1546848126462842e-07,2.711551159243035e-06,-2.5886990536248127e-06,7.688069600795129e-07,-6.148610692350453e-07,8.748144071194248e-07,5.4983602996301966e-06,4.868078020090663e-06,3.55156941267299e-06,-5.080981089010281e-06,2.9666577848687036e-07,-5.501315425818683e-07,-1.7570539754426328e-07,-1.821720388179385e-07,1.3080746667622613e-06,-1.0877119226445454e-05,-1.1945000950605127e-05,2.9626591163716683e-06,-2.2558432573125856e-07,2.434696067661922e-06,0.00018039476960736997,-0.0001026210792495005,5.781947892206963e-07,7.767591031499892e-07,7.71880374357925e-07,4.148520731647229e-07,7.65680105227056e-07,5.631426540421455e-07,7.583756307957123e-07,7.53733650410257e-07,4.782009753802412e-07,7.472928497840645e-07,0.0001233613118267607,0.0,0.0,0.0,0.0,0.0,0.0,0.0,0.0,0.0,0.0,0.0,0.0,0.0,0.0,0.0,0.0,0.0,0.0,0.0,0.0,0.0,0.0,0.0
alexskc95,-0.9999999692554665,7.552937021891828e-07,4.820265566992147e-06,1.0043465741956144e-05,-8.493606907823875e-07,3.227397889074518e-06,5.328046251192206e-07,5.646377033504788e-07,1.165469740015278e-06,1.107194199616611e-08,-1.0344952272667965e-06,-1.7877151550871661e-06,-3.9270350500169545e-09,2.72470129633813e-07,-5.883477217756707e-07,7.083576316693258e-07,1.370161948847247e-07,-1.2315185896702908e-06,-8.364976817385644e-07,-1.939343983265213e-06,2.236595795479026e-06,-1.6935897217175412e-06,-2.836351814687096e-06,3.7854865781861285e-06,-1.133726216395704e-06,-2.510860087830594e-06,4.3262089722848175e-06,-1.159174741392691e-06,-4.5204655650195334e-07,-6.795827044728275e-07,-8.474839541211925e-07,9.794405098008624e-07,6.169813936756939e-07,5.90195487955666e-07,2.6623348907735597e-06,1.678902253220981e-07,4.722435538449696e-07,4.318424194301333e-07,-4.570487428180213e-07,2.657750160947621e-06,8.163748776998608e-07,-2.3392836088508782e-07,2.5141000497606482e-08,-1.391849847222334e-06,3.049918490119854e-07,2.4814842830055092e-06,-2.7369286864993984e-06,7.401139510127163e-07,-1.0329491290325474e-06,1.1988925770050629e-06,4.799641785783813e-06,4.438999491651017e-06,3.147494823824522e-06,-4.576952344683001e-06,7.529396939709063e-08,-1.4925224917046561e-07,5.760357260847979e-09,-4.446861534636497e-07,1.2036468015761095e-06,-9.882171802460292e-06,-1.1490396509875535e-05,2.328340942258727e-06,-1.7591833283673733e-07,1.972379574543438e-06,0.00018038599647700508,-0.00010299652284232338,8.852569276905396e-07,1.1002819729524588e-06,1.093375548200953e-06,7.067405443875083e-07,1.0841904059327785e-06,8.63155348525688e-07,1.0735482640158227e-06,1.0669737361669035e-06,2.8675203007072774e-05,9.49325149099979e-07,9.435937944935182e-07,0.00013019691473679777,0.0,0.0,0.0,0.0,0.0,0.0,0.0,0.0,0.0,0.0,0.0,0.0,0.0,0.0,0.0,0.0,0.0,0.0,0.0,0.0,0.0,0.0
Aristoshit,0.9999999690309676,-7.739983599111018e-07,-4.753534182739783e-06,-1.0061807280627762e-05,8.392110339838754e-07,-3.2364058956778757e-06,-5.386395302912431e-07,-5.700466834151565e-07,-1.1533601858522612e-06,-3.252592173125945e-08,1.0380197114150746e-06,1.8174180893689115e-06,-2.39509212315824e-08,-2.5393263782285527e-07,5.812388982668223e-07,-7.398454628020937e-07,-1.308941663195185e-07,1.2421344470839078e-06,8.421952111517861e-07,1.9479917001426605e-06,-2.2228678843832213e-06,1.6914667501417348e-06,2.797351929909824e-06,-3.752192757410133e-06,1.1250608633200409e-06,2.5031083182344546e-06,-4.348715185239297e-06,1.1577479357094497e-06,4.5300486281439005e-07,6.789842270639364e-07,8.463311093521825e-07,-9.841853386708016e-07,-5.817855711440529e-07,-5.82163768210208e-07,-2.679708297067545e-06,-1.6219350760867667e-07,-4.864276765434704e-07,-4.2781312111516536e-07,4.6768318640516077e-07,-2.668692974384917e-06,-8.274849628863338e-07,2.389184262554014e-07,-2.313755189367457e-08,1.4005060719454062e-06,-3.1827046022264836e-07,-2.491934328614989e-06,2.7848702563028925e-06,-7.440822357956592e-07,1.095746046006045e-06,-1.2523985402632035e-06,-4.797432254305994e-06,-4.45113598979577e-06,-3.147074282490009e-06,4.591591217986418e-06,-4.812382176236376e-08,1.0401768611926596e-07,-2.671867296513556e-08,4.825433965727814e-07,-1.204163527744554e-06,9.934736325004856e-06,1.1550110288305658e-05,-2.2916115200050725e-06,1.814453947013494e-07,-1.9617821987537484e-06,-0.00018034485495054995,0.0001030195541219958,-9.158822750828955e-07,-1.132112352697453e-06,-1.1250079569045061e-06,-7.394753198539324e-07,-1.1155174287688942e-06,-8.930729463361407e-07,-1.1045461255718723e-06,-1.0977816290533924e-06,-3.5773934830874316e-05,-9.524246226962421e-07,-9.466765380631445e-07,-0.00010402730120574378,7.828045602127794e-05,0.0,0.0,0.0,0.0,0.0,0.0,0.0,0.0,0.0,0.0,0.0,0.0,0.0,0.0,0.0,0.0,0.0,0.0,0.0,0.0,0.0
A7AXgeneration,-0.9999999705125143,5.349501620029155e-07,6.006084429969998e-06,1.1259091486400956e-05,-9.771553676080597e-07,3.5262767417018157e-06,7.357924775122674e-07,5.608511024848631e-07,1.4687184422480856e-06,-2.0201314204520902e-07,-9.694548760604673e-07,-1.6266391456908452e-06,-2.6808473898996424e-07,4.6911182260572987e-07,-6.964229948809778e-07,6.515176066234607e-07,2.1586451642083477e-07,-1.3290033769485101e-06,-8.658818556443342e-07,-2.1090420436199326e-06,2.554165075996266e-06,-1.935993154091515e-06,-3.5367617941035293e-06,4.520365336989316e-06,-1.2254272240760566e-06,-2.8692555816366667e-06,4.781098045613764e-06,-1.2273130369599345e-06,-3.144189077733602e-07,-6.177444677014541e-07,-8.376759883202852e-07,9.680601004694672e-07,9.879434795907057e-07,7.88960393663122e-07,2.816743353092954e-06,2.222475738053627e-07,3.5054604695604373e-07,5.2713718162596e-07,-4.5518536944714824e-07,2.976846257653462e-06,8.602272309617905e-07,-2.491473228311384e-07,2.964032793798085e-08,-1.5142314755140672e-06,2.154658098343764e-07,2.7115516042462657e-06,-2.588695012097877e-06,7.688025901692115e-07,-6.148617057978125e-07,8.748131368628536e-07,5.498363076249261e-06,4.868077079008822e-06,3.551571235829065e-06,-5.080982640889241e-06,2.966669067603742e-07,-5.501316327702631e-07,-1.7570364204938247e-07,-1.8216661613947284e-07,1.3080791818374132e-06,-1.0877119014897632e-05,-1.1945001475693858e-05,2.9626595643976946e-06,-2.2558695801742251e-07,2.434696492483365e-06,0.00018039477004322854,-0.00010262107717842812,5.781935168068795e-07,7.767572818986888e-07,7.718830638879552e-07,4.148463910954208e-07,7.656782976400085e-07,5.631477623942121e-07,7.583747109748591e-07,7.53732736226525e-07,4.782061934421389e-07,7.47290121015014e-07,7.427774208025827e-07,8.886663206325685e-07,-3.0191610073484236e-07,0.00012335550560933222,0.0,0.0,0.0,0.0,0.0,0.0,0.0,0.0,0.0,0.0,0.0,0.0,0.0,0.0,0.0,0.0,0.0,0.0,0.0,0.0
TheEvenDarkerKnight,-0.9999999441946787,5.015527665287726e-07,-3.4525910904394533e-06,-2.2098902328552125e-05,1.3145786526995112e-07,-5.896600502598606e-06,-5.935906957332542e-06,-2.591360119364052e-07,-1.4424141518206832e-06,-7.830234082342903e-07,-4.276926316536447e-08,7.632850282135371e-07,-3.1768078859440815e-07,-3.393129954044649e-07,3.7535958960610426e-07,-7.351677376088593e-06,-1.7902740088389643e-07,4.077612263419817e-06,7.216058457730636e-07,3.9647091408788865e-06,1.8769283780096731e-06,3.6557997051715376e-06,1.5371911657856304e-06,-1.4859060746856156e-06,-1.04138767355314e-06,2.4248310926986613e-06,-1.0224770057036998e-05,-3.4763013697376955e-08,-2.430188948873745e-06,-1.6029238327530961e-06,-9.97198814808261e-07,5.887080121476786e-07,-3.625289312408806e-07,-1.3774357507133074e-06,-5.8700850673029854e-06,1.1087686502233034e-06,3.69588669402549e-07,-9.106439280574033e-07,1.9709384993815664e-06,-8.220241306506417e-06,-2.4481059345041168e-06,6.763166660217868e-07,1.0851861490723244e-06,4.729332864628471e-06,7.068721989761315e-07,-5.769864353386178e-06,2.88423598840929e-06,7.80016432583072e-08,5.059691782021456e-06,-4.787795515857873e-06,-1.1234681735747167e-05,-8.922702482825166e-06,-6.119383254555224e-06,1.150343655892142e-05,1.1662874648751826e-06,-1.7502983720128482e-06,-7.152715592588664e-07,2.562626240446669e-06,-7.307444124672874e-07,2.7290968495634372e-05,8.612728994587613e-06,-5.937485236099494e-06,2.3991122121044526e-06,-6.253086015560556e-06,0.0001876155039180095,-0.00020594721618337843,3.6325410540862453e-06,4.112049543056162e-06,4.086242400629892e-06,2.794979994316277e-06,4.051385869141575e-06,3.5478348536249556e-06,4.010160898474488e-06,3.985593790464605e-06,3.15845353189706e-06,3.949103698715862e-06,3.925248385110541e-06,4.224546510088036e-06,-1.394793095560425e-06,3.867954513376849e-06,0.00017743730958013962,0.0,0.0,0.0,0.0,0.0,0.0,0.0,0.0,0.0,0.0,0.0,0.0,0.0,0.0,0.0,0.0,0.0,0.0,0.0
Thin-White-Duke,-0.9999999771150806,3.6654636890754346e-07,4.755748414063024e-06,8.289959198547563e-06,-7.113294132085498e-07,2.6383802187989363e-06,4.521011791476227e-07,4.4807239182876933e-07,9.078115015140026e-07,-2.7871941787474485e-07,-9.233555778508567e-07,-1.210590113492944e-06,-5.273519170245384e-07,2.660853975236342e-07,-4.5109885780433607e-07,3.2323294754268836e-07,1.46085691607677e-07,-1.0495444484598444e-06,-6.466077841811468e-07,-1.579265108908055e-06,1.6653469297203895e-06,-1.3842954760726163e-06,-2.4280342088981424e-06,3.0875345315349196e-06,-1.2269880592478535e-06,-1.7577691720546464e-06,3.280827917906009e-06,-8.030796958952125e-07,-3.806240954067103e-07,-5.196341885952055e-07,-6.20622241688035e-07,8.114799646292431e-07,1.1070835961527e-06,4.551735896148072e-07,2.040883334520188e-06,1.802153857663708e-07,2.5374682977591266e-07,3.8051010536457576e-07,-2.0452794897039555e-07,2.1323977521712332e-06,5.059051507661042e-07,-7.14432103628627e-08,-5.782064211472658e-09,-1.192964803225825e-06,-5.382290814548627e-08,2.051083230478773e-06,-1.5324791319944657e-06,5.1424918776792e-07,-1.6981584937678647e-08,3.404755200672244e-07,4.193487280328254e-06,3.829052242278958e-06,2.7396219931542227e-06,-3.866796160322887e-06,4.828653105687173e-07,-8.364518943735392e-07,-3.4470315274281026e-07,2.102221733323585e-07,8.101254885947077e-07,-7.97402494732939e-06,-8.906424866731578e-06,2.637966073275493e-06,-2.574143051437782e-07,1.7905281337291259e-06,0.0001809808959228916,-0.00010220123577519644,1.5164686960868564e-07,1.2355872759048492e-07,1.2278233612238093e-07,1.5577620072418015e-07,1.2149793608781574e-07,1.4861388788113716e-07,1.20064593882782e-07,1.1933243964581887e-07,1.706415573376597e-07,1.1794485518188344e-07,1.1723262521435966e-07,1.4664683546090142e-07,-4.6151220444572824e-08,1.1536282183425455e-07,5.666241209648356e-07,4.686805533318235e-05,0.0,0.0,0.0,0.0,0.0,0.0,0.0,0.0,0.0,0.0,0.0,0.0,0.0,0.0,0.0,0.0,0.0,0.0
agirlhasnoname99,-0.9999999705125147,5.349465751276632e-07,6.006084380395189e-06,1.1259091502675022e-05,-9.77153568767722e-07,3.526279455348387e-06,7.357922016160728e-07,5.60852563638659e-07,1.4687149199810224e-06,-2.0201625961058922e-07,-9.694608410878034e-07,-1.6266462756972765e-06,-2.68090012200275e-07,4.691118171279234e-07,-6.964242604384e-07,6.515142409506594e-07,2.1586322612396137e-07,-1.3290021526943727e-06,-8.6588359916502e-07,-2.109045015760273e-06,2.5541621119649377e-06,-1.9359956250315137e-06,-3.5367651136200333e-06,4.520364601578541e-06,-1.2254256710062337e-06,-2.869258093469155e-06,4.7810954067654945e-06,-1.2273139032902304e-06,-3.144204559257227e-07,-6.177457253367104e-07,-8.376803653800958e-07,9.680650010691883e-07,9.879401160755555e-07,7.889568168429553e-07,2.8167430638257365e-06,2.2224426108194483e-07,3.505432380334683e-07,5.271360047673876e-07,-4.551846244552404e-07,2.9768432121335924e-06,8.602292868620841e-07,-2.491484968397912e-07,2.9641105997281303e-08,-1.5142314772931566e-06,2.154663441204268e-07,2.7115475840085047e-06,-2.5886991399910203e-06,7.688016775363545e-07,-6.148636154861138e-07,8.748125122516496e-07,5.498362163602764e-06,4.8680748258269156e-06,3.551568804954299e-06,-5.080980782100343e-06,2.966624877158344e-07,-5.501351053524188e-07,-1.7571074597103778e-07,-1.8217295593755967e-07,1.308077341760107e-06,-1.0877117849510669e-05,-1.1945000195215531e-05,2.9626585607722302e-06,-2.2558359604359195e-07,2.434697314092424e-06,0.0001803947703811205,-0.00010262107582277242,5.781948787989821e-07,7.76754692087528e-07,7.718795904594172e-07,4.1485596660552403e-07,7.656793131218844e-07,5.631427554442083e-07,7.58375743040211e-07,7.537328620301218e-07,4.782045204673052e-07,7.472893525772562e-07,7.427793569364025e-07,8.8866847256168e-07,-3.019127178497128e-07,7.311998040924672e-07,2.6730845351982296e-06,2.695152116671624e-07,0.00012332407671859872,0.0,0.0,0.0,0.0,0.0,0.0,0.0,0.0,0.0,0.0,0.0,0.0,0.0,0.0,0.0,0.0,0.0
