username,0,1,2,3,4,5,6,7,8,9,10,11,12,13,14,15,16,17,18,19,20,21
KanoDoMario,1.0,0.0,0.0,0.0,0.0,0.0,0.0,0.0,0.0,0.0,0.0,0.0,0.0,0.0,0.0,0.0,0.0,0.0,0.0,0.0,0.0,0.0
UNRThrowAway,-0.9999999968754909,7.905073316446682e-05,0.0,0.0,0.0,0.0,0.0,0.0,0.0,0.0,0.0,0.0,0.0,0.0,0.0,0.0,0.0,0.0,0.0,0.0,0.0,0.0
Klarkson1273,-0.9999999914060229,6.947923321212067e-06,0.00013091860324162546,0.0,0.0,0.0,0.0,0.0,0.0,0.0,0.0,0.0,0.0,0.0,0.0,0.0,0.0,0.0,0.0,0.0,0.0,0.0
Qwerty_Resident,-0.9999999960593356,-5.939713933384486e-06,7.732381357884075e-06,8.823978111322521e-05,0.0,0.0,0.0,0.0,0.0,0.0,0.0,0.0,0.0,0.0,0.0,0.0,0.0,0.0,0.0,0.0,0.0,0.0
Gourok,-0.9999999960593356,-5.939713933384486e-06,7.732381357884075e-06,-4.084079518608536e-06,8.814521718876661e-05,0.0,0.0,0.0,0.0,0.0,0.0,0.0,0.0,0.0,0.0,0.0,0.0,0.0,0.0,0.0,0.0,0.0
tit_wrangler,-0.9999999943742874,-7.704917059404136e-06,2.757169757828308e-06,-1.7836927118299194e-06,-1.8682509169901044e-06,0.00010572504763317117,0.0,0.0,0.0,0.0,0.0,0.0,0.0,0.0,0.0,0.0,0.0,0.0,0.0,0.0,0.0,0.0
bohknows,-0.9999999923343431,-2.294292170749616e-06,-1.830435715154869e-06,4.10234212873645e-06,4.296818911030494e-06,-1.3063294588673896e-08,0.0001236422559283348,0.0,0.0,0.0,0.0,0.0,0.0,0.0,0.0,0.0,0.0,0.0,0.0,0.0,0.0,0.0
figsbar,-0.999999996717321,1.3482597516728935e-05,3.956030915110174e-06,-5.0502124855105735e-06,-5.2896250128365634e-06,-5.4520563055327796e-06,-8.04705747294188e-07,7.927212791486613e-05,0.0,0.0,0.0,0.0,0.0,0.0,0.0,0.0,0.0,0.0,0.0,0.0,0.0,0.0
alnicoblue,-0.9999999914060228,6.947924725655746e-06,3.121146504818787e-06,1.1198789804035034e-05,1.1729683603244802e-05,3.7289993484541595e-06,-2.6707515125803868e-06,8.103154258296283e-06,0.00012953857159017792,0.0,0.0,0.0,0.0,0.0,0.0,0.0,0.0,0.0,0.0,0.0,0.0,0.0
OFGhost,-0.9999999967756195,1.4599023503305146e-06,8.439495475388655e-06,-5.0573665469082536e-06,-5.297115488823827e-06,-2.9802845998952217e-06,3.0007485999599917e-06,4.654142308688043e-07,9.361477373493524e-06,7.884179111131796e-05,0.0,0.0,0.0,0.0,0.0,0.0,0.0,0.0,0.0,0.0,0.0,0.0
nekozoshi,-0.9999999943742874,-7.704917059404136e-06,2.757169757828308e-06,-1.7836914536411404e-06,-1.8682496574515158e-06,-1.466863067946886e-06,-1.1326510607133287e-08,-7.372394463703706e-06,3.5466497313979705e-06,-4.429113293461686e-06,0.00010530472862969554,0.0,0.0,0.0,0.0,0.0,0.0,0.0,0.0,0.0,0.0,0.0
Burflax,-0.9999999914060231,6.947921916768389e-06,3.1211422646917266e-06,1.1198788545846255e-05,1.1729682343706213e-05,3.72899619814196e-06,-2.670753308443809e-06,8.103150056732428e-06,3.7962863968605635e-07,1.5336008276150378e-05,4.995087651172041e-06,0.00012852996825294267,0.0,0.0,0.0,0.0,0.0,0.0,0.0,0.0,0.0,0.0
LilSebs_MrsF,-0.999999996717321,1.3482597516728935e-05,3.956029319782032e-06,-5.050213090495926e-06,-5.289626272375152e-06,-5.452056607704375e-06,-8.047055538846063e-07,1.1764729503333729e-05,4.222855344818713e-06,-1.0290182494728316e-07,-4.872753397312353e-06,4.445168413829283e-06,7.800202095987231e-05,0.0,0.0,0.0,0.0,0.0,0.0,0.0,0.0,0.0
kublahkoala,-0.9999999967756197,1.4599023503305146e-06,8.439494940789511e-06,-5.057366919496228e-06,-5.297116748362416e-06,-2.980286002097763e-06,3.0007485566278613e-06,4.6541300651855816e-07,9.361475659373921e-06,-5.694296773836355e-06,-3.55558592640138e-06,1.022490455192163e-05,-9.163358387834022e-07,7.788178243297667e-05,0.0,0.0,0.0,0.0,0.0,0.0,0.0,0.0
I_am_the_night,-0.9999999923343431,-2.294290766305938e-06,-1.8304359127334316e-06,4.102339068192611e-06,4.296816391953316e-06,-1.3064793379696194e-08,-3.6960990440718047e-06,-1.2926347731987414e-06,-2.5445299872348606e-06,5.156306273267889e-06,1.9837959244495698e-07,-3.179935381363458e-06,-7.805519641826375e-07,6.01422561860341e-06,0.00012325616324593156,0.0,0.0,0.0,0.0,0.0,0.0,0.0
worldeditor,-0.9999999930204135,8.553179974478072e-06,1.0131575525293101e-05,8.14209046988699e-06,8.528077578978249e-06,1.7062447926301922e-06,-6.990501533831797e-07,8.532675637875104e-06,7.922005154948933e-06,1.1681162255624972e-05,2.558617811725307e-06,6.46755695887898e-06,6.762460821593168e-06,1.2026477651675516e-05,-1.339102697269912e-06,0.0001145792102494989,0.0,0.0,0.0,0.0,0.0,0.0
ThatSpencerGuy,-0.9999999914060229,6.947924725655746e-06,3.12114364832184e-06,1.119878938749235e-05,1.1729684862783391e-05,3.7290000992123108e-06,-2.6707524666668585e-06,8.103153171094674e-06,3.796277826262548e-07,1.5336010420305434e-05,4.995089763309176e-06,-1.6425118259784484e-06,7.41825257084425e-06,1.717730371712659e-05,-4.149550962491286e-06,5.058448176806355e-06,0.00012698172393637685,0.0,0.0,0.0,0.0,0.0
Weisse_Rose,-0.9999999923343429,-2.2942893618622597e-06,-1.8304351392426292e-06,4.102341611327576e-06,4.296817651491905e-06,-1.3062670914451934e-08,-3.696097291755653e-06,-1.2926317243466796e-06,-2.5445282731152574e-06,5.156310294234575e-06,1.983807581308595e-07,-3.179935047719153e-06,-7.805476942047152e-07,6.0142256688428066e-06,-4.481070500175181e-06,-1.4928825513677184e-06,-4.114768626036481e-06,0.00012309688142383204,0.0,0.0,0.0,0.0
Salanmander,-0.9999999914060229,6.947923321212067e-06,3.12114372285645e-06,1.1198789286423155e-05,1.1729682343706213e-05,3.7289979544899554e-06,-2.670752379350421e-06,8.103150055340522e-06,3.796277826262548e-07,1.533600901213978e-05,4.995087595490759e-06,-1.6425098461391043e-06,7.418251147518276e-06,1.717729942380996e-05,-4.149550762014537e-06,5.058449682746425e-06,-4.777902076240429e-06,-4.404338608480052e-06,0.00012681534581070596,0.0,0.0,0.0
EmpRupus,-0.9999999930204136,8.553178570034394e-06,1.0131574751802299e-05,8.142089184940802e-06,8.52807631943966e-06,1.7062447703730812e-06,-6.990510075457246e-07,8.532675543627813e-06,7.922004297889132e-06,1.1681160949224458e-05,2.5586177856438094e-06,6.467556254516481e-06,6.76245797494122e-06,1.2026476192659194e-05,-1.3391035448495069e-06,4.098810014874633e-06,4.401102981767386e-06,-1.1927584832225913e-06,4.531268848919338e-06,0.00011432528360580884,0.0,0.0
Love_Shaq_Baby,-0.9999999943742874,-7.704917059404136e-06,2.7571714159506266e-06,-1.7836908183419865e-06,-1.8682471383743382e-06,-1.4668613014781666e-06,-1.1323931256571649e-08,-7.372395070256809e-06,3.5466505884577724e-06,-4.429110522161123e-06,-2.31503327754922e-06,4.182448537260235e-06,-6.961308000127266e-06,-5.544238206842649e-06,5.075637818878967e-07,3.1658482758922934e-06,5.334685996110986e-06,7.434140458178508e-07,5.5684935906714455e-06,2.6410627559483056e-06,0.00010444979766391325,0.0
foraskaliberal224,-0.9999999930204136,8.553177165590715e-06,1.0131574826336907e-05,8.142089083871606e-06,8.52807631943966e-06,1.7062437202690148e-06,-6.990519055883837e-07,8.532675462289179e-06,7.922004297889132e-06,1.1681158132893147e-05,2.5586166128935017e-06,6.467556636133871e-06,6.7624593982671935e-06,1.202647620940566e-05,-1.3391035366530579e-06,4.098810898164813e-06,4.401102861432615e-06,-1.192759369937322e-06,4.53126694216855e-06,3.5994952265076428e-06,2.799752219983697e-06,0.00011423430081425417
