username,0,1,2,3,4,5,6,7,8,9,10,11,12,13,14,15,16,17,18,19,20,21,22,23,24,25,26,27,28,29,30,31,32,33,34,35,36,37,38,39,40,41,42,43,44,45,46,47,48,49,50,51,52,53,54,55,56,57
ILikeNiceDiscussions,1.0,0.0,0.0,0.0,0.0,0.0,0.0,0.0,0.0,0.0,0.0,0.0,0.0,0.0,0.0,0.0,0.0,0.0,0.0,0.0,0.0,0.0,0.0,0.0,0.0,0.0,0.0,0.0,0.0,0.0,0.0,0.0,0.0,0.0,0.0,0.0,0.0,0.0,0.0,0.0,0.0,0.0,0.0,0.0,0.0,0.0,0.0,0.0,0.0,0.0,0.0,0.0,0.0,0.0,0.0,0.0,0.0,0.0
incruente,-0.9999937681039328,0.0035304041267408283,0.0,0.0,0.0,0.0,0.0,0.0,0.0,0.0,0.0,0.0,0.0,0.0,0.0,0.0,0.0,0.0,0.0,0.0,0.0,0.0,0.0,0.0,0.0,0.0,0.0,0.0,0.0,0.0,0.0,0.0,0.0,0.0,0.0,0.0,0.0,0.0,0.0,0.0,0.0,0.0,0.0,0.0,0.0,0.0,0.0,0.0,0.0,0.0,0.0,0.0,0.0,0.0,0.0,0.0,0.0,0.0
ElfmanLV,0.9999947578302775,-0.00323744712471442,5.69919255954175e-05,0.0,0.0,0.0,0.0,0.0,0.0,0.0,0.0,0.0,0.0,0.0,0.0,0.0,0.0,0.0,0.0,0.0,0.0,0.0,0.0,0.0,0.0,0.0,0.0,0.0,0.0,0.0,0.0,0.0,0.0,0.0,0.0,0.0,0.0,0.0,0.0,0.0,0.0,0.0,0.0,0.0,0.0,0.0,0.0,0.0,0.0,0.0,0.0,0.0,0.0,0.0,0.0,0.0,0.0,0.0
jark831,0.999993747895999,-0.0035335947133806928,4.274391497602847e-06,0.00013363773593373917,0.0,0.0,0.0,0.0,0.0,0.0,0.0,0.0,0.0,0.0,0.0,0.0,0.0,0.0,0.0,0.0,0.0,0.0,0.0,0.0,0.0,0.0,0.0,0.0,0.0,0.0,0.0,0.0,0.0,0.0,0.0,0.0,0.0,0.0,0.0,0.0,0.0,0.0,0.0,0.0,0.0,0.0,0.0,0.0,0.0,0.0,0.0,0.0,0.0,0.0,0.0,0.0,0.0,0.0
fiiiiiine,0.9999937478959989,-0.0035335947134435878,4.274389549567203e-06,3.599773053553038e-06,0.00013358924294766428,0.0,0.0,0.0,0.0,0.0,0.0,0.0,0.0,0.0,0.0,0.0,0.0,0.0,0.0,0.0,0.0,0.0,0.0,0.0,0.0,0.0,0.0,0.0,0.0,0.0,0.0,0.0,0.0,0.0,0.0,0.0,0.0,0.0,0.0,0.0,0.0,0.0,0.0,0.0,0.0,0.0,0.0,0.0,0.0,0.0,0.0,0.0,0.0,0.0,0.0,0.0,0.0,0.0
visarga,-0.9174873669554838,0.008456235471388967,0.012700985236917378,0.013544316218012734,0.013184260013572839,0.3970224619827431,0.0,0.0,0.0,0.0,0.0,0.0,0.0,0.0,0.0,0.0,0.0,0.0,0.0,0.0,0.0,0.0,0.0,0.0,0.0,0.0,0.0,0.0,0.0,0.0,0.0,0.0,0.0,0.0,0.0,0.0,0.0,0.0,0.0,0.0,0.0,0.0,0.0,0.0,0.0,0.0,0.0,0.0,0.0,0.0,0.0,0.0,0.0,0.0,0.0,0.0,0.0,0.0
aFunnyWorldWeLiveIn,0.9475998139730022,-0.0067938181409758795,-0.010196575993379437,-0.010874990552355674,-0.010585894539521986,-0.3188638002488043,0.00012938154962940614,0.0,0.0,0.0,0.0,0.0,0.0,0.0,0.0,0.0,0.0,0.0,0.0,0.0,0.0,0.0,0.0,0.0,0.0,0.0,0.0,0.0,0.0,0.0,0.0,0.0,0.0,0.0,0.0,0.0,0.0,0.0,0.0,0.0,0.0,0.0,0.0,0.0,0.0,0.0,0.0,0.0,0.0,0.0,0.0,0.0,0.0,0.0,0.0,0.0,0.0,0.0
elmley,0.9982155281513682,-0.05970740484173597,-9.372866552467215e-05,-7.926231953550266e-06,-7.715552720136566e-06,3.0365263413267935e-05,-1.5718744559329607e-05,0.0008803908249564641,0.0,0.0,0.0,0.0,0.0,0.0,0.0,0.0,0.0,0.0,0.0,0.0,0.0,0.0,0.0,0.0,0.0,0.0,0.0,0.0,0.0,0.0,0.0,0.0,0.0,0.0,0.0,0.0,0.0,0.0,0.0,0.0,0.0,0.0,0.0,0.0,0.0,0.0,0.0,0.0,0.0,0.0,0.0,0.0,0.0,0.0,0.0,0.0,0.0,0.0
uncledrewkrew,-0.9999999956314352,2.239672139320406e-06,-7.399048462227389e-07,-5.178616861380047e-07,-5.040959684931233e-07,-4.437711457246808e-06,-2.046262919185584e-06,-2.5469967000097856e-06,9.327741575832658e-05,0.0,0.0,0.0,0.0,0.0,0.0,0.0,0.0,0.0,0.0,0.0,0.0,0.0,0.0,0.0,0.0,0.0,0.0,0.0,0.0,0.0,0.0,0.0,0.0,0.0,0.0,0.0,0.0,0.0,0.0,0.0,0.0,0.0,0.0,0.0,0.0,0.0,0.0,0.0,0.0,0.0,0.0,0.0,0.0,0.0,0.0,0.0,0.0,0.0
asdf2602,0.999999955213891,4.599369678443492e-05,1.937480212556654e-05,1.3625322443844087e-05,1.3263114887235516e-05,-9.100971075049734e-05,-2.813862508118254e-06,-6.682088399871137e-06,-1.4537336674621045e-05,0.00027959467773026186,0.0,0.0,0.0,0.0,0.0,0.0,0.0,0.0,0.0,0.0,0.0,0.0,0.0,0.0,0.0,0.0,0.0,0.0,0.0,0.0,0.0,0.0,0.0,0.0,0.0,0.0,0.0,0.0,0.0,0.0,0.0,0.0,0.0,0.0,0.0,0.0,0.0,0.0,0.0,0.0,0.0,0.0,0.0,0.0,0.0,0.0,0.0,0.0
Ieatbabies154,-0.999999995631435,2.239672107872929e-06,-7.399087422940262e-07,-5.178625169086077e-07,-5.0409513742095e-07,-4.437711331410008e-06,-2.0462637772855437e-06,-2.5469992221238128e-06,3.3877487434840117e-06,-4.673751472381818e-06,9.309863437250382e-05,0.0,0.0,0.0,0.0,0.0,0.0,0.0,0.0,0.0,0.0,0.0,0.0,0.0,0.0,0.0,0.0,0.0,0.0,0.0,0.0,0.0,0.0,0.0,0.0,0.0,0.0,0.0,0.0,0.0,0.0,0.0,0.0,0.0,0.0,0.0,0.0,0.0,0.0,0.0,0.0,0.0,0.0,0.0,0.0,0.0,0.0,0.0
muyamable,-0.9999986830816101,0.001620018722089071,-3.0425100547621293e-05,-1.461795706802595e-06,-1.4229351807698383e-06,-1.966195634846634e-06,-1.7355020189492978e-06,3.3002106694085437e-06,7.623484760103465e-07,-2.2409198272570673e-06,6.235693071830143e-07,9.176478911065797e-05,0.0,0.0,0.0,0.0,0.0,0.0,0.0,0.0,0.0,0.0,0.0,0.0,0.0,0.0,0.0,0.0,0.0,0.0,0.0,0.0,0.0,0.0,0.0,0.0,0.0,0.0,0.0,0.0,0.0,0.0,0.0,0.0,0.0,0.0,0.0,0.0,0.0,0.0,0.0,0.0,0.0,0.0,0.0,0.0,0.0,0.0
birdbirdbirdbird,-0.9943860611605159,0.10580058315863307,0.00018163235772436064,2.2158251214879584e-05,2.156925824337085e-05,-4.707201301578507e-05,3.430431870486109e-05,-0.001580096763270746,7.739651965554525e-07,1.8595928113793082e-05,1.6808474593425738e-06,-5.029189380289164e-06,0.0002520983266475644,0.0,0.0,0.0,0.0,0.0,0.0,0.0,0.0,0.0,0.0,0.0,0.0,0.0,0.0,0.0,0.0,0.0,0.0,0.0,0.0,0.0,0.0,0.0,0.0,0.0,0.0,0.0,0.0,0.0,0.0,0.0,0.0,0.0,0.0,0.0,0.0,0.0,0.0,0.0,0.0,0.0,0.0,0.0,0.0,0.0
super-commenting,-0.05283135582952373,-0.9984858056373656,-0.0017993777761355749,-0.0002360518349059331,-0.0002297772268638142,0.00044069684174372217,-0.00035857504119100685,0.015000334764840037,1.1649919549407759e-05,-0.0001526236769248761,3.5863160226519424e-06,7.984338644061996e-05,-0.002418245031617017,0.0006220483095617512,0.0,0.0,0.0,0.0,0.0,0.0,0.0,0.0,0.0,0.0,0.0,0.0,0.0,0.0,0.0,0.0,0.0,0.0,0.0,0.0,0.0,0.0,0.0,0.0,0.0,0.0,0.0,0.0,0.0,0.0,0.0,0.0,0.0,0.0,0.0,0.0,0.0,0.0,0.0,0.0,0.0,0.0,0.0,0.0
AnotherMasterMind,-0.9999999942323499,3.4130154935391652e-06,1.079708495694509e-06,-3.2125151523682674e-07,-3.1271168199859526e-07,-6.52626854496535e-06,-2.630279744739954e-06,-5.99220799244958e-06,4.686246960259347e-06,-5.203218016889189e-06,4.2635049842579234e-06,5.665156933492592e-07,1.6517400939826864e-06,2.8423348578125286e-06,0.00010657639568903682,0.0,0.0,0.0,0.0,0.0,0.0,0.0,0.0,0.0,0.0,0.0,0.0,0.0,0.0,0.0,0.0,0.0,0.0,0.0,0.0,0.0,0.0,0.0,0.0,0.0,0.0,0.0,0.0,0.0,0.0,0.0,0.0,0.0,0.0,0.0,0.0,0.0,0.0,0.0,0.0,0.0,0.0,0.0
thirteenthfox2,-0.9999999942323493,3.41301565077655e-06,1.0796987555162906e-06,-3.2125151523682674e-07,-3.127150062872884e-07,-6.5262681266279e-06,-2.630283177139791e-06,-5.99219878673338e-06,4.686254101685913e-06,-5.203218811055254e-06,4.26350975435163e-06,5.665169032065862e-07,1.6517422959469744e-06,2.842341059943378e-06,5.235520290526809e-06,0.00010644772655132185,0.0,0.0,0.0,0.0,0.0,0.0,0.0,0.0,0.0,0.0,0.0,0.0,0.0,0.0,0.0,0.0,0.0,0.0,0.0,0.0,0.0,0.0,0.0,0.0,0.0,0.0,0.0,0.0,0.0,0.0,0.0,0.0,0.0,0.0,0.0,0.0,0.0,0.0,0.0,0.0,0.0,0.0
MuaddibMcFly,-0.999999995631435,2.239672107872929e-06,-7.399092607160298e-07,-5.178625322327868e-07,-5.0409513742095e-07,-4.437711314802135e-06,-2.0462622622502672e-06,-2.5469993995273017e-06,3.3877499337217724e-06,-4.6737517474404195e-06,3.0363481944526647e-06,6.11999882845466e-07,6.126912783886884e-07,2.822558483826403e-06,3.5148455711205896e-06,3.3462251836136015e-06,9.287555184700029e-05,0.0,0.0,0.0,0.0,0.0,0.0,0.0,0.0,0.0,0.0,0.0,0.0,0.0,0.0,0.0,0.0,0.0,0.0,0.0,0.0,0.0,0.0,0.0,0.0,0.0,0.0,0.0,0.0,0.0,0.0,0.0,0.0,0.0,0.0,0.0,0.0,0.0,0.0,0.0,0.0,0.0
GoyBeorge,-0.9987604981925763,0.049768637122095685,7.722103025079538e-05,5.868755936568766e-06,5.712767680135353e-06,-2.5319448076602487e-05,1.2787431689947164e-05,-0.0007328903994527911,4.5567062433282856e-08,-9.921323733442617e-07,-5.808356167444021e-09,3.164262345786384e-07,-4.058083660779437e-07,1.2564488262237294e-06,-1.688553507817066e-07,-1.6075246013046683e-07,-3.1046612183867065e-08,7.773766795918875e-05,0.0,0.0,0.0,0.0,0.0,0.0,0.0,0.0,0.0,0.0,0.0,0.0,0.0,0.0,0.0,0.0,0.0,0.0,0.0,0.0,0.0,0.0,0.0,0.0,0.0,0.0,0.0,0.0,0.0,0.0,0.0,0.0,0.0,0.0,0.0,0.0,0.0,0.0,0.0,0.0
mr_indigo,0.26488713873102177,-0.02050011152734661,-0.030793610399098652,-0.03283338633257372,-0.03196055788923672,-0.9624794324673234,0.00015759189041468158,-4.72053214615009e-06,1.1480696603092096e-05,3.5013590866355286e-05,1.2842724310933019e-05,7.85263218563117e-06,-3.2172757082555355e-06,5.874801417727748e-05,1.3277476049191109e-05,1.2640490401987274e-05,9.679887679738092e-06,1.1630472482459069e-07,0.00032549387047441525,0.0,0.0,0.0,0.0,0.0,0.0,0.0,0.0,0.0,0.0,0.0,0.0,0.0,0.0,0.0,0.0,0.0,0.0,0.0,0.0,0.0,0.0,0.0,0.0,0.0,0.0,0.0,0.0,0.0,0.0,0.0,0.0,0.0,0.0,0.0,0.0,0.0,0.0,0.0
MenShouldntHaveCats,-0.9540859276929998,0.0063703704873478845,0.009559777010478275,0.010196018749720901,0.009924972225998316,0.2989742337417051,-9.339787009542857e-05,1.448796016227116e-06,1.0138219101056343e-06,2.583892568611878e-06,1.1085915949230123e-06,9.06813819770252e-07,-1.4679227575874987e-06,1.8470254539709579e-06,1.1389166266271898e-06,1.084275751508773e-06,9.404199573130105e-07,1.220938944381544e-07,-3.652765189197714e-05,7.231774322857107e-05,0.0,0.0,0.0,0.0,0.0,0.0,0.0,0.0,0.0,0.0,0.0,0.0,0.0,0.0,0.0,0.0,0.0,0.0,0.0,0.0,0.0,0.0,0.0,0.0,0.0,0.0,0.0,0.0,0.0,0.0,0.0,0.0,0.0,0.0,0.0,0.0,0.0,0.0
Artificial_Cinnamon,0.9809466894321645,-0.004135327189523452,-0.006196394799350338,-0.006612142745225463,-0.006436368418127116,-0.19391476294013618,6.0487840686977205e-05,-5.577065953838842e-06,-1.3521243790867863e-06,1.0077760494554487e-06,-1.2549261994147373e-06,-2.1587903721427198e-06,2.489883009128965e-06,-6.537590135716559e-06,-1.0316906294029444e-06,-9.821968199008455e-07,-9.460000276069537e-07,-2.4322603118529983e-07,2.2228660295206947e-05,-4.576941140116791e-05,8.577027528107922e-05,0.0,0.0,0.0,0.0,0.0,0.0,0.0,0.0,0.0,0.0,0.0,0.0,0.0,0.0,0.0,0.0,0.0,0.0,0.0,0.0,0.0,0.0,0.0,0.0,0.0,0.0,0.0,0.0,0.0,0.0,0.0,0.0,0.0,0.0,0.0,0.0,0.0
aarr44,-0.26489420038696765,0.020496208052992727,0.03079643268003547,0.03283277500282141,0.03195996280956438,0.9624775127965727,-0.00015653753312662227,2.4437095877250608e-06,-1.0034148281967979e-05,-3.357361847492986e-05,-1.1373746587327101e-05,-9.933842779961132e-06,2.788014000350939e-06,-4.538931090029035e-05,-1.1794342896057027e-05,-1.1228511109008767e-05,-8.75184177933334e-06,2.824114332492292e-07,-0.0003007791763792907,5.239091963833905e-06,1.4356346272010551e-06,0.00018958216928277648,0.0,0.0,0.0,0.0,0.0,0.0,0.0,0.0,0.0,0.0,0.0,0.0,0.0,0.0,0.0,0.0,0.0,0.0,0.0,0.0,0.0,0.0,0.0,0.0,0.0,0.0,0.0,0.0,0.0,0.0,0.0,0.0,0.0,0.0,0.0,0.0
samsonkeane,-0.7952557571594355,0.012883453047415632,0.019354842330557488,0.020639059405112035,0.020090399637635186,0.6051429826966067,-9.876870937379427e-05,9.904485079325818e-06,-4.710214778047954e-06,-5.754844877536717e-06,-4.836762887608182e-06,-1.2986108325412573e-06,-4.0084527069091645e-06,-1.4327041914027345e-05,-5.428594593674767e-06,-5.168155755367139e-06,-3.828197183902099e-06,1.7581002836290279e-06,-0.00016449265670974588,9.731158307800329e-06,-3.6002908507124264e-06,1.353694467388417e-05,0.00015939038335178709,0.0,0.0,0.0,0.0,0.0,0.0,0.0,0.0,0.0,0.0,0.0,0.0,0.0,0.0,0.0,0.0,0.0,0.0,0.0,0.0,0.0,0.0,0.0,0.0,0.0,0.0,0.0,0.0,0.0,0.0,0.0,0.0,0.0,0.0,0.0
weepycreepy,-0.9962315243295874,0.0018485949416750655,0.0027620718532446586,0.0029515604450845072,0.0028730974502682405,0.08657210459681393,-2.758686865767366e-05,7.969657877116317e-06,5.890439068535669e-07,-1.6563040823925442e-06,4.855916343714841e-07,2.1086317260492293e-06,-2.2723359837720113e-06,6.725289630898012e-06,-1.0794106486561156e-07,-1.0275770047250381e-07,2.7537551269584693e-07,1.3924763317493133e-07,-9.542684734213573e-06,2.0730765969680786e-05,-3.6622760332575366e-05,-8.150301440311108e-07,6.59613902494784e-07,7.175958165493068e-05,0.0,0.0,0.0,0.0,0.0,0.0,0.0,0.0,0.0,0.0,0.0,0.0,0.0,0.0,0.0,0.0,0.0,0.0,0.0,0.0,0.0,0.0,0.0,0.0,0.0,0.0,0.0,0.0,0.0,0.0,0.0,0.0,0.0,0.0
noodledense,0.9941196991957588,-0.002309372638727529,-0.0034470475742551035,-0.00368270358975289,-0.003584804199954607,-0.10808503313123563,3.449198940281393e-05,-1.1051740506568377e-05,-1.0134410340221883e-06,1.1515911969070747e-05,-4.003857502036304e-07,-3.112360833979301e-06,4.8903565795270814e-06,-9.747784036562126e-06,4.294078371331437e-07,4.0880633334533444e-07,-1.3474770003088124e-07,-8.936702004950229e-07,9.36219903454799e-06,-2.6179514335842947e-05,4.520043539416726e-05,-8.294843023142386e-07,-3.187866632750076e-06,-8.627259549863282e-05,9.472469559493381e-05,0.0,0.0,0.0,0.0,0.0,0.0,0.0,0.0,0.0,0.0,0.0,0.0,0.0,0.0,0.0,0.0,0.0,0.0,0.0,0.0,0.0,0.0,0.0,0.0,0.0,0.0,0.0,0.0,0.0,0.0,0.0,0.0,0.0
Sornos,-0.9999999712135054,-3.64913468554755e-05,-1.7778597199780298e-05,-1.1022434387464111e-05,-1.07294193350705e-05,7.272728477622294e-05,3.8120899114869747e-06,7.208142881003686e-06,1.051492459138871e-05,-0.00020179189236324715,2.210230179996683e-08,1.960120401346773e-06,-1.8013160049156043e-06,3.2549541792216944e-06,-2.6190551005105206e-07,-2.4933964978938333e-07,-5.962594392928113e-08,2.087397953553527e-07,3.2423470104699906e-06,-8.73559384123254e-08,-1.2892276319020025e-06,-7.285638484652496e-07,6.172638789703762e-06,1.0243728640830437e-06,7.223564948766099e-07,9.711927043181242e-05,0.0,0.0,0.0,0.0,0.0,0.0,0.0,0.0,0.0,0.0,0.0,0.0,0.0,0.0,0.0,0.0,0.0,0.0,0.0,0.0,0.0,0.0,0.0,0.0,0.0,0.0,0.0,0.0,0.0,0.0,0.0,0.0
PhilliesJawn,-0.9431122716961113,0.0003298199235273365,0.008976774477277513,0.021317632099375622,0.02075093328779094,0.21162518940363226,0.026125285389626357,-0.005426428503600616,-0.004205754595149064,0.013738162083752982,-0.0033711032303440193,0.0004809058376052768,0.012476383807602938,0.019299479836617315,-0.004363135743091066,-0.004153812321839281,-0.0036262110318467764,-0.003591244968947047,0.03505956945681047,-0.0038274121742308807,0.004239597109057634,-0.020017750488214844,0.010230226008040667,-0.002566209114993323,0.009118228000719148,0.013032643019435061,0.24746935376034143,0.0,0.0,0.0,0.0,0.0,0.0,0.0,0.0,0.0,0.0,0.0,0.0,0.0,0.0,0.0,0.0,0.0,0.0,0.0,0.0,0.0,0.0,0.0,0.0,0.0,0.0,0.0,0.0,0.0,0.0,0.0
lookafist,0.7019348003788215,0.018353431877802768,0.01907141200144838,0.008587555924965835,0.008359268241962032,0.664550901675397,-0.026250978652294785,0.005423152723429984,0.004184376083667836,-0.013804564244998001,0.003347128081792435,-0.000498330350667764,-0.012455036795232001,-0.01941528456349923,0.0043387409877030485,0.004130587915024412,0.003608215460549225,0.00358795273282682,-0.03542710158288228,0.0037855841595390814,-0.004228243807615091,0.020012627046591628,-0.010260354757408363,0.0025620011747458705,-0.009110149311480888,-0.013026155704337468,-0.24744934511081396,0.00021662924269138942,0.0,0.0,0.0,0.0,0.0,0.0,0.0,0.0,0.0,0.0,0.0,0.0,0.0,0.0,0.0,0.0,0.0,0.0,0.0,0.0,0.0,0.0,0.0,0.0,0.0,0.0,0.0,0.0,0.0,0.0
MustLuvPolarBearDogs,-0.7019257628076262,-0.0183285414090972,-0.019080355705057245,-0.008593213263635553,-0.008364775189632023,-0.6645516603304389,0.026238234221849926,-0.005423653172358342,-0.004179844248632756,0.013807210426019985,-0.003342619609390837,0.0005001510236444595,0.012448859463191029,0.019434708928439175,-0.004334416525737671,-0.004126470926212951,-0.0036047171103097144,-0.0035879891535057573,0.03543948373425102,-0.003773835537843818,0.0042174657182338015,-0.020000187590721846,0.010267505638329146,-0.0025568581412732275,0.009098596416081099,0.0130087919050574,0.24747461417885674,-0.0002466556845213458,0.0001895675930464241,0.0,0.0,0.0,0.0,0.0,0.0,0.0,0.0,0.0,0.0,0.0,0.0,0.0,0.0,0.0,0.0,0.0,0.0,0.0,0.0,0.0,0.0,0.0,0.0,0.0,0.0,0.0,0.0,0.0
RedBlackSeed,0.0003655689728364268,-0.02249392991633577,-0.031166465237094494,-0.02960407313516648,-0.02881709139825186,-0.9952985416218288,0.008242869714029502,-0.001680192001185356,-0.0012815791901641305,0.004330071278946312,-0.001020026186457063,0.00016295026756895932,0.003841341534078576,0.006100356088090652,-0.0013267138843787438,-0.0012630641784419127,-0.0011052219830335408,-0.001108253484526548,0.01127595836183081,-0.001142876845286973,0.0013066360981902009,-0.006205707605897352,0.003188994015193925,-0.0007936955682725229,0.0028157531451730848,0.004028407256564617,0.07643835720010743,-0.00022158532981792127,9.239832150986959e-06,0.0001623102762196061,0.0,0.0,0.0,0.0,0.0,0.0,0.0,0.0,0.0,0.0,0.0,0.0,0.0,0.0,0.0,0.0,0.0,0.0,0.0,0.0,0.0,0.0,0.0,0.0,0.0,0.0,0.0,0.0
StaySkepticYT,-0.7024679698078983,0.012371732573022001,0.023484628621285003,0.03183504295436731,0.030988753940403242,0.6944245601954201,0.015007848825383084,-0.003127310345335783,-0.0024367461291114625,0.007887941446188871,-0.0019567635001103076,0.00027439959014674754,0.007211025637580766,0.011076752544650606,-0.002529912247353863,-0.00240853856056693,-0.0021009802013902514,-0.002074859013970363,0.0200253268155409,-0.0022361351265751173,0.002448385882926005,-0.011554130316184201,0.005897998522876064,-0.0014793351467203713,0.005265919018026818,0.0075270877601689296,0.1430570681297042,0.00012299754796244282,7.007947955643374e-07,-7.008122070796568e-05,0.00013017870808923587,0.0,0.0,0.0,0.0,0.0,0.0,0.0,0.0,0.0,0.0,0.0,0.0,0.0,0.0,0.0,0.0,0.0,0.0,0.0,0.0,0.0,0.0,0.0,0.0,0.0,0.0,0.0
Lindsiria,0.8104531524164724,-0.008653784134588623,-0.019309551027871436,-0.029333975630415687,-0.028554173874839845,-0.5524239169176492,-0.019378407739022406,0.00403051552929539,0.003133951648676458,-0.01018758457254687,0.0025144903562584232,-0.00035581870950656297,-0.009283484617784499,-0.014306207403853723,0.0032525901098429586,0.00309654562171861,0.0027020292739373536,0.0026716788182960583,-0.025923229670590475,0.0028662961205544067,-0.0031535141336063743,0.014885811125157657,-0.007601894938763643,0.0019066604433108977,-0.006782232721067147,-0.009695005625443289,-0.18417233600138444,-8.80717511722649e-05,6.300526481676953e-07,4.86394612495923e-05,-8.915742533363688e-05,7.852400226397444e-05,0.0,0.0,0.0,0.0,0.0,0.0,0.0,0.0,0.0,0.0,0.0,0.0,0.0,0.0,0.0,0.0,0.0,0.0,0.0,0.0,0.0,0.0,0.0,0.0,0.0,0.0
Zhentar,0.943117870507849,-0.00033210005058155755,-0.008969969749892876,-0.021311029686984503,-0.02074450638727196,-0.21162760658117255,-0.026122858636926035,0.005415545573687676,0.004206510260440047,-0.013723035899207316,0.00337259221358811,-0.00048233188165306123,-0.012468971888794466,-0.019295879265906236,0.004365258416781286,0.00415583316363984,0.0036273528555237564,0.0035893121222211038,-0.03505169958437968,0.0038309699849942026,-0.004239109991974124,0.020013248653483032,-0.010229149037759821,0.002564881756774201,-0.009113661113043615,-0.013030110991664031,-0.2474509466291079,6.781741719365863e-07,-4.238730948593225e-06,3.1692915718192057e-06,-6.182948544967652e-06,1.7752974559520044e-06,0.00013607098945308548,0.0,0.0,0.0,0.0,0.0,0.0,0.0,0.0,0.0,0.0,0.0,0.0,0.0,0.0,0.0,0.0,0.0,0.0,0.0,0.0,0.0,0.0,0.0,0.0,0.0
blank_dota2,-0.0927999461130986,0.02116286288282247,0.03179848795583648,0.033901116094675186,0.03299990358740253,0.9938262857886451,-0.00017299314528294459,5.7920226475689184e-06,-1.2922261993830755e-05,-3.2355150367085446e-05,-1.410114142725265e-05,-9.802335824748888e-06,1.7625461297970923e-06,-6.970047470091761e-05,-1.442099810740747e-05,-1.3729152785402907e-05,-1.0462388689147684e-05,8.885560587161148e-07,-0.00036048298369851703,-2.937408871093487e-06,1.0057038905440733e-06,-2.2074684640597273e-06,-1.8752825810212015e-06,-1.5687201367515153e-06,-1.7422376575435291e-06,4.462946136145321e-06,-1.0578523860419361e-05,1.2108125829241168e-05,2.878923275269404e-06,-1.918316865867115e-05,3.885433016820354e-06,2.0185754995514372e-07,-1.952508036648582e-06,0.0001621232679459117,0.0,0.0,0.0,0.0,0.0,0.0,0.0,0.0,0.0,0.0,0.0,0.0,0.0,0.0,0.0,0.0,0.0,0.0,0.0,0.0,0.0,0.0,0.0,0.0
TrueLazuli,-0.08212657878890212,-0.021180102825853038,-0.031829048332828604,-0.03393194907326988,-0.033029916915817595,-0.9947617580113467,0.00018336570313216228,-7.921036456155102e-06,1.4557266908365682e-05,2.9059704841566278e-05,1.5514351333193235e-05,1.0225711426867058e-05,-6.831984501321844e-07,8.094669103243309e-05,1.5778274552376392e-05,1.5021313723796913e-05,1.1383179183243719e-05,-1.5528495023847946e-06,0.0003920145493310104,6.578290006562757e-06,-1.633434652781057e-06,7.33821909348892e-06,7.787940055994644e-06,1.9932424265616152e-06,1.20862075380413e-06,-9.457546697565596e-06,1.8925542437428616e-05,-2.6760420593507357e-05,-4.477833400110606e-07,3.484720577867461e-05,-5.974532422309725e-06,-1.1258496406010447e-07,2.098701365027078e-06,-0.00010519477488658209,0.00015043056330275517,0.0,0.0,0.0,0.0,0.0,0.0,0.0,0.0,0.0,0.0,0.0,0.0,0.0,0.0,0.0,0.0,0.0,0.0,0.0,0.0,0.0,0.0,0.0
Nephilim8,-0.33649970671842805,0.02001765188234719,0.030071741720327942,0.03206378523412413,0.03121141553173456,0.9399258242216344,-0.0001451292580657097,4.755256845507666e-06,-1.0031423232614698e-05,-3.770149143699221e-05,-1.1578341769095422e-05,-8.013368209757995e-06,2.9094822775419095e-06,-5.586287401092326e-05,-1.1949211611502996e-05,-1.1375948837380346e-05,-8.634226975079652e-06,4.139753661389086e-07,-0.00029541716974515805,-1.2290881991265868e-06,7.669419856211435e-07,2.5209742390479793e-06,5.726764086322639e-06,-1.2367586049852238e-06,-1.9222174310114364e-06,2.410936492220685e-06,5.559566989691514e-06,1.2548730986274753e-06,6.625588194559899e-06,2.8357373171762146e-06,-1.5158378205866081e-06,5.248884182803536e-08,-1.0994563020507378e-06,6.205634166955963e-05,-8.439060683922859e-05,0.0001133751844420045,0.0,0.0,0.0,0.0,0.0,0.0,0.0,0.0,0.0,0.0,0.0,0.0,0.0,0.0,0.0,0.0,0.0,0.0,0.0,0.0,0.0,0.0
mudra311,0.9943119024554753,-0.0022796912881679955,-0.003400371920222815,-0.0036339435075724616,-0.0035373403375923915,-0.1063075666638442,-6.0584947515232576e-05,7.67810164576352e-06,-5.181199001410838e-06,3.159020201378604e-05,-3.4167209546646416e-06,9.237483082115029e-07,-7.678153466199237e-06,-2.8112522337899236e-05,-3.0750559255894995e-06,-2.9275350013222157e-06,-2.192442850271363e-06,2.5127053032704982e-06,-0.00012818734579456677,5.514430547639245e-06,-3.938857237934885e-06,-1.4731434479909922e-05,-2.7568997685399513e-05,1.5233560593372937e-06,3.7643825141861615e-06,1.5824295442794533e-05,-3.340465604624605e-05,1.1251602163322387e-05,-1.7473712646108e-05,-2.2941166608439125e-05,-4.663052629773602e-06,4.874321304353796e-07,2.620329214380848e-06,2.5123945905049407e-05,-4.496324865235715e-05,-9.180158058482468e-05,0.00016586518144208053,0.0,0.0,0.0,0.0,0.0,0.0,0.0,0.0,0.0,0.0,0.0,0.0,0.0,0.0,0.0,0.0,0.0,0.0,0.0,0.0,0.0
10z20Luka,-0.2648902326803642,0.020498313809180404,0.030794917563425683,0.03283303348270954,0.03196021441791145,0.9624785979732522,-0.00015709925093758604,3.976469568387525e-06,-1.1259762884581502e-05,-3.5490472215887426e-05,-1.265334869276237e-05,-8.998113957371132e-06,2.91385207567121e-06,-5.4333103211493466e-05,-1.3120745797963015e-05,-1.2491280088619547e-05,-9.632176166104382e-06,9.676886367134422e-08,-0.0003165921799118242,1.5764647476748212e-06,8.019008897861374e-07,3.31995084371976e-06,5.8756791093697306e-06,-1.1226514350041231e-06,-1.5303387962905076e-06,-1.1353807458834504e-06,-6.216211057946147e-06,-2.430172590012589e-07,5.458802012068282e-06,-1.0608457994852928e-05,4.166800530195956e-06,1.2952768902646722e-07,-1.5724113798365611e-06,-1.3063000830935758e-06,3.605230542944024e-06,6.457680680512365e-06,-2.1408711568734355e-06,0.00010776313169174391,0.0,0.0,0.0,0.0,0.0,0.0,0.0,0.0,0.0,0.0,0.0,0.0,0.0,0.0,0.0,0.0,0.0,0.0,0.0,0.0
SmileyFace-_-,-0.26489420038696726,0.020496208052977003,0.030796432679142303,0.03283277500160342,0.03195996280831777,0.9624775127966854,-0.00015653753183947233,2.4437083978893853e-06,-1.0034148281967979e-05,-3.357361847492986e-05,-1.1373745991065388e-05,-9.933842179084247e-06,2.7880137801545105e-06,-4.538931054321874e-05,-1.179434290216729e-05,-1.1228511636313335e-05,-8.751841181639434e-06,2.824128616540392e-07,-0.0003007791750332209,5.239092633549012e-06,1.4356346618510643e-06,6.230576533577273e-06,1.5571957097069757e-05,-2.2256056904125843e-06,-3.1085307321199852e-06,-2.3185723707764582e-06,-1.526144961340797e-05,-6.189263153401154e-07,1.3039010233385359e-05,-2.991921862302003e-05,1.1106270923788229e-05,5.301338077343213e-07,-2.395199619266626e-06,-7.324490885124935e-06,1.2179153320110835e-05,1.7203913818294067e-05,-4.898799796183429e-06,-1.8692209072567278e-06,0.00018353968771289635,0.0,0.0,0.0,0.0,0.0,0.0,0.0,0.0,0.0,0.0,0.0,0.0,0.0,0.0,0.0,0.0,0.0,0.0,0.0
KatMcTwitchington,-0.8863320856823764,0.00985300974049416,0.014785000435859072,0.015771649931095456,0.01535238325891793,0.4621853230039015,-1.5001151603621207e-05,-4.603630527634142e-06,1.6085896703507396e-06,-4.202354277531985e-05,-5.565257040999679e-07,-2.920709637770417e-06,6.669642812528148e-06,3.963166894707675e-06,-7.700038147565599e-07,-7.330578804318821e-07,-6.293131076085401e-07,-1.8607247461572203e-06,-1.6033132136125413e-05,-6.722944494634038e-07,2.3190383712520805e-06,1.5042286022720908e-05,2.8973106740064912e-05,-9.429059405265545e-07,-3.993977021881236e-06,-1.4360013404141253e-05,3.453241379620069e-05,-1.3480306492543669e-05,1.861510838441842e-05,2.3902054470744487e-05,-1.661435223983389e-06,6.743863450764069e-07,-9.147234530711268e-07,-1.6879606418131136e-05,3.312038054764948e-05,6.956470536186637e-05,-0.00013073810652675688,3.371488871587874e-06,4.947583113265562e-06,0.00011468048488268249,0.0,0.0,0.0,0.0,0.0,0.0,0.0,0.0,0.0,0.0,0.0,0.0,0.0,0.0,0.0,0.0,0.0,0.0
AssBlaster_69,-0.39910622107528204,-0.0009212833280347227,-0.02475794756089662,-0.05880344159983681,-0.05724023606297356,-0.5835695013350235,-0.0720549816513765,0.014963356325199854,0.01160984217894015,-0.037898761387669615,0.009307068917846653,-0.0013254900456562996,-0.03441921943743546,-0.05326638694562607,0.012044499829700414,0.011466659502323062,0.010010798714127913,0.009907946324668718,-0.09674641615181229,0.010534178418513633,-0.011691360726089048,0.05519160230791987,-0.02824136666674283,0.00707733533120342,-0.02515526954463949,-0.035948634683093054,-0.6825056961627937,4.9852638087701956e-05,-2.8515417894523413e-05,1.6730860081181277e-05,-1.5570384609798787e-05,8.251997332416738e-09,-1.765174205012849e-05,5.761420465165769e-06,-1.3054541696199914e-05,-2.3365393780076737e-05,1.6531623800748095e-05,-3.892115956281505e-06,-4.728907709705362e-06,-2.487982153781438e-05,0.0003288943833070345,0.0,0.0,0.0,0.0,0.0,0.0,0.0,0.0,0.0,0.0,0.0,0.0,0.0,0.0,0.0,0.0,0.0
oksooo,-0.9999999956314348,2.2396722336628366e-06,-7.399040632100697e-07,-5.178593723889396e-07,-5.0409513742095e-07,-4.437711591083821e-06,-2.046262691540841e-06,-2.5469905702637413e-06,3.3877535044350546e-06,-4.673751561783591e-06,3.0363516514093e-06,6.120010440813351e-07,6.126903976029732e-07,2.82256013521108e-06,3.5148497075923464e-06,3.3462301646120715e-06,2.596942958743012e-06,-3.605517160772297e-08,2.684816860371716e-06,2.530143435537535e-06,-3.4147823933584626e-07,2.4670041759117183e-08,4.385891714549255e-07,-2.0541657167056784e-07,2.959818971354495e-07,-1.749606420009046e-07,-1.6787307628255538e-06,-2.231740629401112e-06,1.1741368108127023e-06,-2.939117615456826e-06,2.7332790169464067e-06,-1.8892863415263476e-07,9.954051650446478e-07,-1.6146576767835721e-07,1.6580436406500045e-07,5.041027540939029e-07,8.174445182739682e-07,-8.037478270451549e-07,-9.248172291641718e-07,1.1055627870963846e-06,4.2133910432011136e-06,9.250555645053537e-05,0.0,0.0,0.0,0.0,0.0,0.0,0.0,0.0,0.0,0.0,0.0,0.0,0.0,0.0,0.0,0.0
techgirlthrowaway9,-0.9999999956122477,2.441282826137454e-06,-1.073330475159554e-06,-5.767660334264467e-07,-5.61431637727282e-07,-4.161032712673089e-06,-2.0931255992928016e-06,-2.3845458584285177e-06,3.439606212482959e-06,-4.250324997027364e-06,3.1076716142730627e-06,6.901009474941614e-07,5.388660217088911e-07,2.961160414341604e-06,3.5305368563264484e-06,3.361163669698187e-06,2.6607324384121827e-06,-3.173662826506357e-08,2.492878283625583e-06,2.594245548022898e-06,-5.280357534626534e-07,-8.558829376057852e-08,3.504903806241605e-07,1.7003040042749997e-08,3.59325466612252e-07,-2.618873900522623e-07,-1.7171610650410633e-06,-2.196363299393685e-06,1.1467068030008663e-06,-2.6103920100283757e-06,2.4782470695420505e-06,-2.0593232559529484e-07,8.645928461503086e-07,-2.1645144567242373e-07,1.6143397361516474e-07,3.421612444936401e-07,8.500955993542139e-07,-8.145017166928278e-07,-9.445451860407805e-07,9.616768656783729e-07,4.190038666067769e-06,1.9546756217189816e-06,9.273228799970344e-05,0.0,0.0,0.0,0.0,0.0,0.0,0.0,0.0,0.0,0.0,0.0,0.0,0.0,0.0,0.0
kranebrain,0.9999999873575752,-5.463333663085656e-06,5.871794797244365e-06,3.45042917425593e-06,3.3587075471512933e-06,7.905924977751494e-06,2.9958481732919828e-06,-2.9223529486329968e-06,-3.111452900887885e-06,1.2904329025471616e-05,-2.3563808415547713e-06,-2.4298455826967528e-06,2.6705867680210888e-06,-7.916555590926725e-06,-2.3348101476865136e-06,-2.2228040547107193e-06,-1.877574115130937e-06,-6.33181799280508e-07,-5.144163810343578e-06,-3.5269063302611004e-06,1.5023131974726231e-06,-1.2778905443002415e-06,-3.860221364080873e-06,-7.646206543286422e-07,1.65757972998142e-06,3.885376618473316e-07,5.311792449915674e-06,6.8696197777465066e-06,-5.735727314587031e-06,8.010983481418787e-06,-9.303916184957264e-06,1.2558270665557388e-06,2.4238447478904453e-06,2.1375069478420472e-07,-7.250750999567425e-07,-2.7629135640345644e-06,-2.4626420505972127e-07,1.3702172612480077e-06,2.166853418618227e-06,-3.0830738999978442e-06,-7.885578150633804e-06,-2.796013069600234e-07,-8.51651154070581e-05,0.0001310654916170039,0.0,0.0,0.0,0.0,0.0,0.0,0.0,0.0,0.0,0.0,0.0,0.0,0.0,0.0
safarisparkles,-0.9999999916195204,3.7789487760982044e-06,-1.3811857393685564e-06,-1.799168796765241e-06,-1.7513424918328824e-06,-5.724266917706463e-06,-2.5048527855916645e-06,-1.991833495551087e-06,3.5921423229520793e-06,-6.220808969834081e-06,3.156031087060726e-06,1.3217044439136827e-06,-4.741723109309377e-07,4.938209642957928e-06,3.6780762474814145e-06,3.5016257775409257e-06,2.6394234553231013e-06,2.1690714930428948e-07,3.842099724175974e-06,3.0930000775602048e-06,-8.097884055698786e-07,7.959835034645756e-07,2.5664489458455774e-06,-9.572826487166216e-08,-4.3203139029352667e-07,-4.4120839883227004e-07,-4.055107842084461e-06,-4.18282971201629e-06,1.7476457052475031e-06,-4.850061078524268e-06,5.194197041678343e-06,-6.958620675566807e-07,-4.7664586733036716e-07,5.192158747926717e-07,-4.6433780406140715e-07,6.856601015553593e-07,1.785931853093928e-06,-8.129050500049489e-07,-9.945600840987408e-07,1.7417048755758255e-06,6.496918217742187e-06,1.5127565695351652e-06,1.609030175021898e-06,6.535484366697641e-07,0.00012805306923360945,0.0,0.0,0.0,0.0,0.0,0.0,0.0,0.0,0.0,0.0,0.0,0.0,0.0
xbnm,0.39906649413510664,0.0009212515617432334,0.02476853605295347,0.05881687027473748,0.05725330775077408,0.5835838292493184,0.07207572449911674,-0.014971724568759663,-0.011616400344368071,0.03789438541087029,-0.009313620720370194,0.0013204055317791623,0.03443237847158509,0.05323371988505356,-0.01205102207588162,-0.011472868838189567,-0.010015742035404378,-0.009911020594119925,0.09671378054804451,-0.010561567875769087,0.011698911989832679,-0.05520850604492656,0.02822681512443908,-0.007080448010974788,0.02516169355890405,0.03595166992353731,0.6825161142359784,6.279329066412998e-06,8.416333554344185e-06,-1.590582816771796e-05,1.579641003151912e-05,-2.718846913508304e-06,2.245246852331692e-05,-6.9218385874480676e-06,1.1397788364608575e-05,2.8492986369843057e-05,-1.9387373878829466e-05,-5.143329835107682e-06,-8.724035319369521e-06,2.495959099207898e-05,-0.0003318407065760507,-1.3703334072741513e-06,-1.5288844090156188e-06,3.279899973677915e-06,-3.2369813516143334e-06,0.00019677128109320635,0.0,0.0,0.0,0.0,0.0,0.0,0.0,0.0,0.0,0.0,0.0,0.0
The_Real_Mongoose,-0.5481229633836634,0.0008393109493878557,0.02257723959348176,0.05363472141693674,0.05220891892118919,0.5323354005581156,0.06573292630702504,-0.01364441600483239,-0.010586701230872308,0.034565527291274475,-0.00848652963537827,0.001210859675694068,0.031390932664299966,0.048584700523650944,-0.010983732612721895,-0.010456783070315714,-0.009128630745903898,-0.009036625737821526,0.08825083455761427,-0.009619569797097527,0.010663394136173256,-0.05034291384963059,0.02576382053416963,-0.006454492887394207,0.022938781332057963,0.03278784592623645,0.6225781244343632,-2.914497096914912e-05,2.877395520585444e-05,-2.103090110445205e-05,1.7845222381391828e-05,2.6516062607328833e-07,1.048820399238478e-05,-7.931632281842283e-06,1.7480946852729027e-05,3.3455253091849335e-05,-2.6703140993932914e-05,3.1382928163540812e-06,3.228666930542595e-06,2.4918852558753847e-05,-0.0002994377790705782,3.4831803810079564e-06,3.1085876710591805e-06,-5.124525548371471e-06,4.770534412825282e-06,-2.393798038107115e-07,0.00017648748686003367,0.0,0.0,0.0,0.0,0.0,0.0,0.0,0.0,0.0,0.0,0.0
spongythingz,-0.9999999897660691,-2.1211927949726388e-05,-4.245292015261748e-06,-2.817329773239068e-06,-2.742436780998367e-06,3.620582099597324e-05,1.52080167908019e-06,-3.954647633806242e-06,6.8596615795075254e-06,-7.746073198028237e-05,2.7345243760848466e-06,1.256757727219798e-06,1.804766923347572e-06,1.4231199756500852e-06,3.4565715005561026e-06,3.290744794267715e-06,2.338882638465281e-06,-5.70409467780772e-07,1.6627957822883755e-06,1.3261087854063883e-06,-8.719759694983725e-07,-2.7323427539830136e-06,3.198086955883253e-06,6.49975893987927e-08,2.6632756611414364e-06,1.7350298859844302e-06,5.7346498668863424e-06,4.617093277142832e-06,-1.4464121425178967e-05,6.559137821151484e-06,-7.065645971675291e-06,2.851092180228419e-07,3.4069981397946332e-06,3.2763324142985566e-06,-5.6104529777274614e-06,-5.4741670510927205e-06,7.895720940882927e-06,1.7684079609087654e-07,1.35601593488134e-06,-2.601019727216013e-06,-4.250097352556046e-06,3.1708050632531392e-06,2.9340282301606393e-06,1.820884746051462e-07,2.1414276077505773e-06,6.047089843985777e-07,-2.8589755425815737e-06,0.00010941350867539177,0.0,0.0,0.0,0.0,0.0,0.0,0.0,0.0,0.0,0.0
Reala27,-0.9999999759189487,2.2377231253298713e-05,-1.5428772350515183e-05,-1.888245646650469e-05,-1.8380492489571446e-05,-1.6856699846541365e-05,-1.2652952310572495e-05,3.6082951666598794e-05,-9.59727984354202e-06,-1.6415611665266364e-05,-1.0090572894672734e-05,2.187340141971349e-06,-2.092889678606125e-05,1.2093324000379119e-05,-1.2909501348486937e-05,-1.229016256008009e-05,-9.097435567336923e-06,6.534238345384505e-06,-1.5175573924486123e-05,8.85734299477525e-06,-7.94502662747166e-07,-1.7634724242512653e-05,-5.570911723270622e-06,1.9005268560078555e-06,-1.770667545470517e-06,1.9634780844021144e-05,-1.7151713411124e-05,-1.068774632533148e-05,1.1721589758271922e-05,-2.7153060130447427e-05,2.2469765646021228e-05,-5.814071691019766e-06,-6.874630970647689e-06,-8.058946424577642e-06,6.435228294101343e-07,-1.2762137203713735e-05,3.4720312875377075e-05,-1.527422458572938e-05,-2.345364253042551e-05,-5.483476086072457e-07,1.6906070638007546e-05,-1.2168050343811437e-05,-9.908376419912348e-06,4.85965911280944e-07,-4.7773148465087016e-06,-3.867766147286049e-06,7.361727640157145e-06,1.55109783252348e-05,0.00019362876864663112,0.0,0.0,0.0,0.0,0.0,0.0,0.0,0.0,0.0
zesty_mordant,0.9999999672697584,-3.248698508027065e-05,1.960198044361532e-05,2.2032286341918033e-05,2.144658783523477e-05,2.9025838710438425e-05,1.8087366700136197e-05,-4.5389451015288534e-05,1.1783082457404281e-05,2.7931993845979716e-05,1.2779186138789324e-05,-3.283810354545908e-06,2.37478237226569e-05,-1.3692408866869695e-05,1.6111967859504797e-05,1.533899221507185e-05,1.151079206171115e-05,-7.52987309397223e-06,1.892027991762411e-05,-1.509290121695274e-05,1.9092719916541434e-06,2.504049841287752e-05,1.3987683574089392e-05,-3.351349333442855e-06,3.035498391858096e-08,-2.5348303077304978e-05,2.0795589065771818e-05,1.6393838899263123e-05,-2.442180284994907e-05,3.455623737120965e-05,-2.8243140707100953e-05,6.877183957963913e-06,5.74210157161716e-06,1.4592315697227778e-05,-5.140273111710605e-06,1.6230952885570486e-05,-4.071887200625925e-05,2.162132181491347e-05,3.2919785766177346e-05,1.1147427543862464e-06,-2.212847252328343e-05,1.5758167855273975e-05,1.2752823581019278e-05,-1.6475841905039828e-06,6.87664026001785e-06,2.062334197993945e-06,-1.028313613020871e-05,-2.337468926379881e-05,-0.00017524292462093896,0.00012590088088094864,0.0,0.0,0.0,0.0,0.0,0.0,0.0,0.0
p0ison1vy,-0.9999999942323493,3.4130157136715043e-06,1.0797027328480485e-06,-3.2125049939278554e-07,-3.1271001985424873e-07,-6.526268453427637e-06,-2.630281942026958e-06,-5.992194339066278e-06,4.686257672399195e-06,-5.2032196830266645e-06,4.263510776789232e-06,5.665154646152094e-07,1.6517400939826864e-06,2.842339072808289e-06,5.235522450934601e-06,4.984353263370469e-06,3.6556405628499825e-06,-2.083633302050304e-07,3.8316707235351926e-06,3.409447305823683e-06,-2.958332948733755e-07,1.4673418393400512e-07,5.272242518645287e-07,-7.885000776604059e-07,4.4675236786089905e-07,-4.13999872868812e-07,-2.1503389225744018e-06,-3.1467449420331347e-06,1.4270468006376206e-06,-3.677102264739454e-06,3.2266563981180603e-06,-1.5639599350448556e-07,1.7345593056399266e-06,-1.7715073842089588e-07,2.085825601813251e-07,5.604082050892582e-07,1.1182559655560422e-06,-9.495715790432163e-07,-1.021004399998967e-06,1.5289696720165637e-06,5.219642574660984e-06,2.7032068530364864e-06,2.6892114553548113e-06,1.4671747393292579e-06,1.6435312515547386e-06,-8.27577492791886e-07,1.9212750479692623e-06,3.7505979039646696e-06,-8.1869676515432e-06,4.80677715242734e-06,0.0001051690064790172,0.0,0.0,0.0,0.0,0.0,0.0,0.0
spoffish,-0.9999999916195197,3.7789489962305435e-06,-1.3811849228846083e-06,-1.7991704791659713e-06,-1.7513408296885358e-06,-5.7242669435407725e-06,-2.5048559723201906e-06,-1.991819287045864e-06,3.5921506546164045e-06,-6.2208105220499754e-06,3.1560378610973414e-06,1.3217091301894286e-06,-4.741731917166528e-07,4.938216369827383e-06,3.678083373739774e-06,3.501629432990657e-06,2.63942584609872e-06,2.1690857842521457e-07,3.8421016990984535e-06,3.092994900784322e-06,-8.097896999845473e-07,7.959835132666921e-07,2.5664489157750057e-06,-9.572428366543713e-08,-4.320290461888185e-07,-4.412038436504959e-07,-4.055107740354138e-06,-4.182825332751104e-06,1.7476462909082728e-06,-4.850058352099726e-06,5.194195094904699e-06,-6.958574882731408e-07,-4.7664831507406864e-07,5.192152461120685e-07,-4.643372870052658e-07,6.856598275519255e-07,1.7859286287396645e-06,-8.129051582767887e-07,-9.945608418156624e-07,1.7416982361376307e-06,6.496921121705142e-06,1.512758962739828e-06,1.6090360907443726e-06,6.53546425744748e-07,1.2105702619337135e-06,-2.086617760005305e-06,3.42578302524744e-06,2.583592800586952e-06,-3.508417248537362e-06,2.83831156570025e-06,1.4082591334181145e-06,0.0001278710731992969,0.0,0.0,0.0,0.0,0.0,0.0
starlitsuns,-0.9999999916195201,3.7789488075456816e-06,-1.3811917451257338e-06,-1.7991702654620187e-06,-1.7513433229050554e-06,-5.724266648501692e-06,-2.504855417581795e-06,-1.991832171949047e-06,3.5921458936653616e-06,-6.2208095783433165e-06,3.156033311625092e-06,1.3217043842729606e-06,-4.7417143014522254e-07,4.938211728468638e-06,3.678079303358435e-06,3.5016255578869167e-06,2.639422259935292e-06,2.1690714882687947e-07,3.842098736459579e-06,3.092998059009407e-06,-8.09790994399216e-07,7.959826446451979e-07,2.5664496568518e-06,-9.573579095008999e-08,-4.3203607850294303e-07,-4.4120950711637743e-07,-4.055107194199176e-06,-4.182832638825842e-06,1.7476427769436544e-06,-4.850063283826136e-06,5.194200134452971e-06,-6.958599941919291e-07,-4.7664994690320297e-07,5.192144560573688e-07,-4.6433689417968226e-07,6.856600469422427e-07,1.7859303408103705e-06,-8.129067293063501e-07,-9.94562423812611e-07,1.741700894638027e-06,6.496915076737285e-06,1.5127555754785586e-06,1.6090339795110365e-06,6.535516061593138e-07,1.210567055808822e-06,-2.086617024948789e-06,3.425781210548933e-06,2.5835927905847335e-06,-3.5084194620825648e-06,2.8383147990927175e-06,1.4082539304703124e-06,8.480329819476458e-07,0.00012786825662027657,0.0,0.0,0.0,0.0,0.0
cybersatellite,-0.9999999916195201,3.7789489647830664e-06,-1.3811828131987182e-06,-1.7991663935418915e-06,-1.751338336472016e-06,-5.724267234944569e-06,-2.504853574518313e-06,-1.991820725602539e-06,3.592149464378644e-06,-6.220811775184682e-06,3.156031878881493e-06,1.3217067304119179e-06,-4.7417187053808014e-07,4.938216608971342e-06,3.678079180023354e-06,3.5016275264183015e-06,2.639429432262148e-06,2.169085798574446e-07,3.842099375371771e-06,3.0929982860386533e-06,-8.097845223258725e-07,7.95982595634615e-07,2.5664491106613665e-06,-9.572784201261226e-08,-4.320325623458808e-07,-4.4120953326895124e-07,-4.055107980518773e-06,-4.182829109049148e-06,1.7476462909082728e-06,-4.8500613075826594e-06,5.194197768058133e-06,-6.958611056287425e-07,-4.766474991595015e-07,5.192156839395294e-07,-4.6433745348831477e-07,6.856604511433153e-07,1.7859295188929771e-06,-8.129046400569022e-07,-9.945617394065534e-07,1.741698047082894e-06,6.4969172477364155e-06,1.5127603181654048e-06,1.6090314288909226e-06,6.535465576987478e-07,1.2105644151540227e-06,-2.086619131167549e-06,3.4257792221627338e-06,2.583592683954275e-06,-3.5084200877479304e-06,2.8383075068181046e-06,1.408257389145156e-06,8.480348313774195e-07,8.424226053979233e-07,0.00012786548296581422,0.0,0.0,0.0,0.0
DrMux,-0.9999999942323496,3.4130155564341195e-06,1.0797074371705386e-06,-3.212506536141661e-07,-3.1271168199859526e-07,-6.5262685405668085e-06,-2.63028087284889e-06,-5.992204041677059e-06,4.6862457700215866e-06,-5.203218316467598e-06,4.263510085983393e-06,5.665119719898086e-07,1.6517392131969714e-06,2.8423330384588747e-06,5.235517416939615e-06,4.984345341958204e-06,3.655632195135317e-06,-2.0836190538079554e-07,3.831671142418582e-06,3.4094506942125365e-06,-2.958320004587068e-07,1.4673593097911025e-07,5.272227396403688e-07,-7.885055718785169e-07,4.467535399132531e-07,-4.1399873843213075e-07,-2.1503392673151494e-06,-3.1467470378702744e-06,1.42704855761993e-06,-3.6771031042143495e-06,3.226659348112772e-06,-1.5640062132853676e-07,1.734560937469061e-06,-1.7715046196753117e-07,2.085816236912717e-07,5.60409820638847e-07,1.1182578769002065e-06,-9.495695189031669e-07,-1.0210034776212413e-06,1.5289730310153919e-06,5.219640230169013e-06,2.7031961041857243e-06,2.68920815239105e-06,1.4671741673228105e-06,1.6435262807000309e-06,-8.275773226730655e-07,1.9212753253287922e-06,3.750593144874169e-06,-8.186974225553756e-06,4.806771837929276e-06,2.4719656667961796e-06,1.131013132010384e-06,1.123535497319169e-06,1.1161551753616171e-06,0.00010512193744582912,0.0,0.0,0.0
Justine772,-0.9999999916195201,3.7789489647830664e-06,-1.381184761234362e-06,-1.7991704850871538e-06,-1.7513391675441892e-06,-5.724267005448299e-06,-2.5048596780253098e-06,-1.9918212280921814e-06,3.592149464378644e-06,-6.220812172267714e-06,3.156036629040777e-06,1.3217078982936155e-06,-4.7417187053808014e-07,4.938216608971342e-06,3.678081263454713e-06,3.5016295098966207e-06,2.639424650710911e-06,2.1690714978169948e-07,3.8421010529811335e-06,3.0929976627904724e-06,-8.097858167405412e-07,7.959826054367317e-07,2.566449777134087e-06,-9.572541435156587e-08,-4.320290461888185e-07,-4.412084162673193e-07,-4.055107398601515e-06,-4.1828267648793245e-06,1.7476451195867335e-06,-4.8500603501499095e-06,5.1941948784127875e-06,-6.95856487047847e-07,-4.766450514158e-07,5.192150286167954e-07,-4.6433683885362144e-07,6.856608014524453e-07,1.7859286012844678e-06,-8.129046720692786e-07,-9.945618320541307e-07,1.7417004113949601e-06,6.4969244143774026e-06,1.5127587397284738e-06,1.6090322915318424e-06,6.535475683944991e-07,1.2105683810450688e-06,-2.0866182230416687e-06,3.4257817412696174e-06,2.583596126633955e-06,-3.5084167748310137e-06,2.83831553447119e-06,1.408257690527002e-06,8.480368160571723e-07,8.424245769590848e-07,8.368936314843147e-07,1.3487530416423075e-06,0.0001278556296887537,0.0,0.0
skidsup,-0.99999999161952,3.7789489962305435e-06,-1.3811790787776772e-06,-1.7991665122362141e-06,-1.7513391675441892e-06,-5.724267323955222e-06,-2.5048560517866813e-06,-1.991818630248758e-06,3.5921542253296868e-06,-6.220811924725276e-06,3.1560376607460117e-06,1.321709067632997e-06,-4.741727513237953e-07,4.938219554325764e-06,3.678083281985637e-06,3.5016314315879635e-06,2.639429432262148e-06,2.1691143618965464e-07,3.842101591428129e-06,3.0929947949408726e-06,-8.097935832285534e-07,7.959838354809122e-07,2.566448800695265e-06,-9.572626077551464e-08,-4.320290461888185e-07,-4.412049868047018e-07,-4.05510794574071e-06,-4.182826817044388e-06,1.7476416056221148e-06,-4.850061505444459e-06,5.194196833917086e-06,-6.958620061144595e-07,-4.766507628177701e-07,5.192155590339125e-07,-4.64337679809011e-07,6.856598297766865e-07,1.7859265067009258e-06,-8.129047042269668e-07,-9.945599800857935e-07,1.7416978412753993e-06,6.496922414224643e-06,1.5127649683221047e-06,1.6090335718249716e-06,6.535457369876353e-07,1.2105675922941498e-06,-2.086618489840298e-06,3.4257800715403135e-06,2.5835959478132176e-06,-3.508416310878912e-06,2.838310402591441e-06,1.4082591752090926e-06,8.480335832237152e-07,8.424231020059713e-07,8.368930344903836e-07,1.348756661219785e-06,8.17251697048735e-07,0.00012785301796743641,0.0
the_real_mongoose,1.841900418705018e-15,-3.353227671537039e-14,3.550437336669489e-12,-1.025248564025643e-12,5.410106753321743e-12,-2.521981155477482e-13,-1.213110890174021e-13,-1.5624293500250998e-12,-2.6881076065241704e-12,9.506199095206701e-13,-5.886935085839276e-12,-2.0257417968305908e-13,-1.42200995906475e-13,-1.217079889419744e-12,-5.0541117525064025e-12,1.4802797489630405e-12,2.283523757130261e-12,-2.6986226375204493e-12,-2.239501892555034e-13,3.860023331085346e-12,2.593151175874239e-12,-6.402005606252682e-12,1.164668055927621e-12,-5.325958519852754e-14,1.9720891782221757e-12,4.8943935576134585e-12,-1.292738276213041e-12,1.568082219943447e-12,7.008093710877114e-12,-3.667216909902665e-12,2.5107727369701353e-12,-2.8359780546136943e-12,-4.04198995486471e-12,-2.2091668821321683e-13,1.7496981997781775e-12,5.205793609484395e-12,1.8457737410072642e-12,3.023877172494429e-12,9.273289808933067e-12,1.5685016419188325e-12,-5.107409149146773e-13,-4.911181055570919e-13,-4.223880077879565e-12,-4.857287094865309e-12,-2.142187193123057e-12,1.5208122039498542e-12,3.101397311043542e-12,-1.7261887505027402e-13,4.1856801624459546e-13,4.376033223373559e-12,2.07138925904453e-12,5.829790415555502e-13,-3.973091801614474e-12,-6.924229218834893e-13,-6.442813591085632e-12,4.0605419865401925e-12,9.802946035048284e-14,1.0
