username,0,1,2,3,4,5,6,7,8,9,10,11,12,13,14,15,16,17,18,19,20,21,22,23,24,25,26,27,28,29,30,31,32,33,34,35,36,37,38,39,40,41,42,43,44,45,46,47
walrussingsatmidnite,1.0,0.0,0.0,0.0,0.0,0.0,0.0,0.0,0.0,0.0,0.0,0.0,0.0,0.0,0.0,0.0,0.0,0.0,0.0,0.0,0.0,0.0,0.0,0.0,0.0,0.0,0.0,0.0,0.0,0.0,0.0,0.0,0.0,0.0,0.0,0.0,0.0,0.0,0.0,0.0,0.0,0.0,0.0,0.0,0.0,0.0,0.0,0.0
infinitepaths,-0.9999999947362328,0.00010260377380868893,0.0,0.0,0.0,0.0,0.0,0.0,0.0,0.0,0.0,0.0,0.0,0.0,0.0,0.0,0.0,0.0,0.0,0.0,0.0,0.0,0.0,0.0,0.0,0.0,0.0,0.0,0.0,0.0,0.0,0.0,0.0,0.0,0.0,0.0,0.0,0.0,0.0,0.0,0.0,0.0,0.0,0.0,0.0,0.0,0.0,0.0
FetusFondler,-0.9999999841468339,-1.7344865443122288e-06,0.00017805427128260928,0.0,0.0,0.0,0.0,0.0,0.0,0.0,0.0,0.0,0.0,0.0,0.0,0.0,0.0,0.0,0.0,0.0,0.0,0.0,0.0,0.0,0.0,0.0,0.0,0.0,0.0,0.0,0.0,0.0,0.0,0.0,0.0,0.0,0.0,0.0,0.0,0.0,0.0,0.0,0.0,0.0,0.0,0.0,0.0,0.0
nickburgess,0.9999999789134179,1.852770721815475e-06,-0.00017810426472619656,0.00010221840280792665,0.0,0.0,0.0,0.0,0.0,0.0,0.0,0.0,0.0,0.0,0.0,0.0,0.0,0.0,0.0,0.0,0.0,0.0,0.0,0.0,0.0,0.0,0.0,0.0,0.0,0.0,0.0,0.0,0.0,0.0,0.0,0.0,0.0,0.0,0.0,0.0,0.0,0.0,0.0,0.0,0.0,0.0,0.0,0.0
thingscouldbeworse,0.9999999762976399,1.9201488259086885e-06,-0.00017813459201185096,5.262834791040219e-08,0.00012517626380383805,0.0,0.0,0.0,0.0,0.0,0.0,0.0,0.0,0.0,0.0,0.0,0.0,0.0,0.0,0.0,0.0,0.0,0.0,0.0,0.0,0.0,0.0,0.0,0.0,0.0,0.0,0.0,0.0,0.0,0.0,0.0,0.0,0.0,0.0,0.0,0.0,0.0,0.0,0.0,0.0,0.0,0.0,0.0
marojelly,0.9999999684292609,2.1453740621047114e-06,-0.00017830846666214815,8.758321574242105e-08,1.0787347496220689e-07,0.0001770393911432315,0.0,0.0,0.0,0.0,0.0,0.0,0.0,0.0,0.0,0.0,0.0,0.0,0.0,0.0,0.0,0.0,0.0,0.0,0.0,0.0,0.0,0.0,0.0,0.0,0.0,0.0,0.0,0.0,0.0,0.0,0.0,0.0,0.0,0.0,0.0,0.0,0.0,0.0,0.0,0.0,0.0,0.0
howdoireachthese,-0.9999999645186025,-2.1739899277978994e-06,0.00017829620306055574,-1.0220141684707698e-07,-1.2858323800931469e-07,-0.00017700444759367526,8.85320850468551e-05,0.0,0.0,0.0,0.0,0.0,0.0,0.0,0.0,0.0,0.0,0.0,0.0,0.0,0.0,0.0,0.0,0.0,0.0,0.0,0.0,0.0,0.0,0.0,0.0,0.0,0.0,0.0,0.0,0.0,0.0,0.0,0.0,0.0,0.0,0.0,0.0,0.0,0.0,0.0,0.0,0.0
TriggerTX,0.9999999064180439,1.3434963912586766e-05,-2.631820031242806e-05,4.822106726098828e-06,5.917476427773041e-06,8.322046947034667e-06,-2.158342866214583e-06,0.00043146097531901825,0.0,0.0,0.0,0.0,0.0,0.0,0.0,0.0,0.0,0.0,0.0,0.0,0.0,0.0,0.0,0.0,0.0,0.0,0.0,0.0,0.0,0.0,0.0,0.0,0.0,0.0,0.0,0.0,0.0,0.0,0.0,0.0,0.0,0.0,0.0,0.0,0.0,0.0,0.0,0.0
antisocialmedic,-0.9999999937167181,6.476051955496999e-07,-9.325294279192317e-07,1.2524688761300235e-07,1.5356355819011943e-07,2.3132777803016886e-07,-3.99635762899174e-08,2.5990734174892325e-06,0.00011206437966034482,0.0,0.0,0.0,0.0,0.0,0.0,0.0,0.0,0.0,0.0,0.0,0.0,0.0,0.0,0.0,0.0,0.0,0.0,0.0,0.0,0.0,0.0,0.0,0.0,0.0,0.0,0.0,0.0,0.0,0.0,0.0,0.0,0.0,0.0,0.0,0.0,0.0,0.0,0.0
theLaugher,0.9999999914706481,-7.891220453776245e-07,1.0772633714633097e-06,-1.3669033562835674e-07,-1.685233686104863e-07,-2.5478840637171613e-07,3.761727745602649e-08,-3.0911818900762807e-06,-0.00011209794362238637,6.694253253563648e-05,0.0,0.0,0.0,0.0,0.0,0.0,0.0,0.0,0.0,0.0,0.0,0.0,0.0,0.0,0.0,0.0,0.0,0.0,0.0,0.0,0.0,0.0,0.0,0.0,0.0,0.0,0.0,0.0,0.0,0.0,0.0,0.0,0.0,0.0,0.0,0.0,0.0,0.0
FlashVortex0,0.9999999858592523,-9.746479888103795e-07,1.4608002159561588e-06,-2.0078602637722816e-07,-2.467557180465972e-07,-3.611974785397621e-07,5.873020485708866e-08,-3.3750070654696086e-06,-0.00011220552583455361,1.5542866019661137e-07,0.00012520655493007736,0.0,0.0,0.0,0.0,0.0,0.0,0.0,0.0,0.0,0.0,0.0,0.0,0.0,0.0,0.0,0.0,0.0,0.0,0.0,0.0,0.0,0.0,0.0,0.0,0.0,0.0,0.0,0.0,0.0,0.0,0.0,0.0,0.0,0.0,0.0,0.0,0.0
adurango,0.9999999858592523,-9.746512349571342e-07,1.4608002159561588e-06,-2.0078602637722816e-07,-2.467539441910899e-07,-3.6119685143467697e-07,5.873145889174066e-08,-3.3750068081524727e-06,-0.00011220552583455361,1.554319771402123e-07,5.606155408404985e-08,0.00012520654251609224,0.0,0.0,0.0,0.0,0.0,0.0,0.0,0.0,0.0,0.0,0.0,0.0,0.0,0.0,0.0,0.0,0.0,0.0,0.0,0.0,0.0,0.0,0.0,0.0,0.0,0.0,0.0,0.0,0.0,0.0,0.0,0.0,0.0,0.0,0.0,0.0
VBassmeister,0.9999999897841383,-8.447361136311518e-07,1.1959410904704885e-06,-1.5698190310566759e-07,-1.9336710191723304e-07,-2.897332836338153e-07,4.562569518399362e-08,-3.1770328289485845e-06,-0.0001121448156720959,1.0113308432975442e-07,7.866489733812226e-08,7.862968004663013e-08,8.855989767479426e-05,0.0,0.0,0.0,0.0,0.0,0.0,0.0,0.0,0.0,0.0,0.0,0.0,0.0,0.0,0.0,0.0,0.0,0.0,0.0,0.0,0.0,0.0,0.0,0.0,0.0,0.0,0.0,0.0,0.0,0.0,0.0,0.0,0.0,0.0,0.0
panic_bread,0.9999999858592521,-9.746512349571342e-07,1.4607984416671242e-06,-2.0078689396184235e-07,-2.4675483111884355e-07,-3.611982584441442e-07,5.872726528990392e-08,-3.3750064170425513e-06,-0.0001122055268252547,1.5543418086948647e-07,5.6062397231343425e-08,5.6037296588358187e-08,1.1111896108446878e-07,0.00012520648168058487,0.0,0.0,0.0,0.0,0.0,0.0,0.0,0.0,0.0,0.0,0.0,0.0,0.0,0.0,0.0,0.0,0.0,0.0,0.0,0.0,0.0,0.0,0.0,0.0,0.0,0.0,0.0,0.0,0.0,0.0,0.0,0.0,0.0,0.0
Reason-and-rhyme,0.9999999897841385,-8.447339495333153e-07,1.1959423586130716e-06,-1.5698190498966974e-07,-1.9336710191723304e-07,-2.8973265652873013e-07,4.562569493647574e-08,-3.1770333556797382e-06,-0.00011214481369069372,1.0113308532319856e-07,7.866578628370959e-08,7.863056859427787e-08,9.139041554946325e-08,7.851453441859181e-08,8.85598157147465e-05,0.0,0.0,0.0,0.0,0.0,0.0,0.0,0.0,0.0,0.0,0.0,0.0,0.0,0.0,0.0,0.0,0.0,0.0,0.0,0.0,0.0,0.0,0.0,0.0,0.0,0.0,0.0,0.0,0.0,0.0,0.0,0.0,0.0
ACrusaderA,-0.9999999928654443,-2.5065868781561792e-06,4.987788420390913e-06,-9.088694154540853e-07,-1.1112912066743252e-06,-1.5546500881920888e-06,3.954234845117862e-07,-7.211697760911474e-05,-2.1255095487359069e-07,5.664965215757473e-08,6.434298436138703e-08,6.431417950202362e-08,6.033271795244812e-08,6.423142529877702e-08,6.021482062669033e-08,9.503888556169847e-05,0.0,0.0,0.0,0.0,0.0,0.0,0.0,0.0,0.0,0.0,0.0,0.0,0.0,0.0,0.0,0.0,0.0,0.0,0.0,0.0,0.0,0.0,0.0,0.0,0.0,0.0,0.0,0.0,0.0,0.0,0.0,0.0
mostlyrelevant,0.9999999773740862,1.8342979826823696e-06,-3.874493130423989e-06,7.443454999142026e-07,9.11345761608467e-07,1.280074807251417e-06,-3.543486785557446e-07,7.021961324395499e-05,-2.423631319081478e-07,1.0450815178035351e-07,6.637187104967594e-08,6.634215668434031e-08,8.34260354399195e-08,6.624061796606453e-08,8.328003947186143e-08,-9.467979059332151e-05,0.00017701736759446085,0.0,0.0,0.0,0.0,0.0,0.0,0.0,0.0,0.0,0.0,0.0,0.0,0.0,0.0,0.0,0.0,0.0,0.0,0.0,0.0,0.0,0.0,0.0,0.0,0.0,0.0,0.0,0.0,0.0,0.0,0.0
joijoijawer,0.9999999489630216,9.79488534646365e-06,-1.8984078223188062e-05,3.441289948492078e-06,4.220278086271797e-06,5.926755998676624e-06,-1.5085186253762194e-06,0.00028731202209421184,6.355268200934505e-07,-2.2187511603990602e-07,-2.229404554162272e-07,-2.2284064947545548e-07,-2.1112063540497815e-07,-2.225506809822193e-07,-2.1070690893494146e-07,-5.0067268663023943e-05,-3.0871782595794807e-07,0.00012843227066753775,0.0,0.0,0.0,0.0,0.0,0.0,0.0,0.0,0.0,0.0,0.0,0.0,0.0,0.0,0.0,0.0,0.0,0.0,0.0,0.0,0.0,0.0,0.0,0.0,0.0,0.0,0.0,0.0,0.0,0.0
5iMbA,-0.9999999935582371,-1.1561043462614329e-07,2.1551766719229807e-07,-2.2391382331637233e-08,-3.11489027072559e-08,-6.619140237800456e-08,2.4128909447560306e-08,-1.4762281746704699e-06,-7.051414038985901e-08,-5.339147529506685e-09,1.1193674572625486e-07,1.1188663699784737e-07,4.890828918835679e-08,1.1178981297708905e-07,4.8762514285212764e-08,1.7784838840235878e-07,1.512866199576974e-07,-1.677849266225746e-07,0.00011349515563408517,0.0,0.0,0.0,0.0,0.0,0.0,0.0,0.0,0.0,0.0,0.0,0.0,0.0,0.0,0.0,0.0,0.0,0.0,0.0,0.0,0.0,0.0,0.0,0.0,0.0,0.0,0.0,0.0,0.0
RiPont,0.9999999871363795,3.570653225476491e-08,-1.2156302039207414e-07,3.4324022726936548e-09,8.30873919594457e-09,4.1503650019797694e-08,-2.4435508661536275e-08,1.9904234560396653e-06,4.5156155431181484e-08,4.249278647222739e-08,-1.452561041986549e-07,-1.451910809289066e-07,-4.384483392903879e-08,-1.4508774596336888e-07,-4.3673505023659254e-08,-2.5181651831479816e-07,-2.0085337572502888e-07,1.9608643270559907e-07,-0.0001295171423461159,9.45957579609006e-05,0.0,0.0,0.0,0.0,0.0,0.0,0.0,0.0,0.0,0.0,0.0,0.0,0.0,0.0,0.0,0.0,0.0,0.0,0.0,0.0,0.0,0.0,0.0,0.0,0.0,0.0,0.0,0.0
xXSJADOo,-0.9999999889554939,3.33376025579451e-07,-4.046868252996128e-07,6.461223956970988e-08,7.868379566270521e-08,1.0080058784156542e-07,-7.860350514704404e-09,-1.542448767128556e-08,1.9191167918035232e-07,-1.0751869660803148e-07,2.4593052974937974e-09,2.4582072293661284e-09,-5.4089586684460104e-08,2.50242725207647e-09,-5.4037290534468945e-08,4.672973939753545e-08,-3.167402774709889e-09,1.0230962372826797e-07,6.461758651747202e-05,-4.725147296760493e-05,0.00012522186344988935,0.0,0.0,0.0,0.0,0.0,0.0,0.0,0.0,0.0,0.0,0.0,0.0,0.0,0.0,0.0,0.0,0.0,0.0,0.0,0.0,0.0,0.0,0.0,0.0,0.0,0.0,0.0
severed-identity,0.9999999811436099,-6.70524073688073e-07,1.0092657861985335e-06,-1.5948072287230433e-07,-1.9329703462469678e-07,-2.5333802849874905e-07,3.2245845072669944e-08,-7.616967059695912e-07,-4.1956587208703565e-07,1.9295018821742373e-07,4.975477714581385e-08,4.973338585009205e-08,1.2250201970160357e-07,4.960399800980555e-08,1.2233173812522351e-07,4.3237037645078303e-08,8.782703612163555e-08,-2.9124430609495664e-07,-6.438822677146437e-05,4.713353162322263e-05,-0.00012520680530635705,0.00012516429512923597,0.0,0.0,0.0,0.0,0.0,0.0,0.0,0.0,0.0,0.0,0.0,0.0,0.0,0.0,0.0,0.0,0.0,0.0,0.0,0.0,0.0,0.0,0.0,0.0,0.0,0.0
Mathewdm423,0.9999999857484281,-2.5359006654016663e-07,2.935228296171062e-07,-5.105308085451778e-08,-6.10765058977723e-08,-6.834671314425613e-08,-2.096597135951811e-09,7.581565765401247e-07,-1.3523069803326618e-07,1.0119516858933294e-07,-4.756116151404354e-08,-4.7539873277081335e-08,3.1427521637990316e-08,-4.7545105157589114e-08,3.143852443456253e-08,-1.2380769999106887e-07,-6.33411067357845e-08,-6.881874248606565e-09,-0.00011326030427407952,-4.501783066910607e-08,-6.1955320198484e-08,1.2775034365770925e-08,0.00012519763689335393,0.0,0.0,0.0,0.0,0.0,0.0,0.0,0.0,0.0,0.0,0.0,0.0,0.0,0.0,0.0,0.0,0.0,0.0,0.0,0.0,0.0,0.0,0.0,0.0,0.0
hijh,0.9999999883472565,-1.9067433218599514e-07,1.8611899755864757e-07,-3.2467682051306646e-08,-3.86194951760263e-08,-3.908901256806966e-08,-6.627448923884433e-09,7.327570214617523e-07,-9.693911041653526e-08,8.169747125780793e-08,-4.714797300279578e-08,-4.712686921456546e-08,2.055469483331961e-08,-4.712224709580612e-08,2.0572772098217912e-08,-1.1833296860420588e-07,-6.342331912463591e-08,8.683481906061775e-09,-0.00011334662266126498,-1.6175731295879982e-09,-6.20862003181581e-08,3.011590586889533e-08,6.24214136501315e-08,0.00010226127275458673,0.0,0.0,0.0,0.0,0.0,0.0,0.0,0.0,0.0,0.0,0.0,0.0,0.0,0.0,0.0,0.0,0.0,0.0,0.0,0.0,0.0,0.0,0.0,0.0
neofederalist,-0.9999999960622289,5.588587894180276e-07,-6.327009699105097e-07,6.572236440248618e-08,8.600538426886688e-08,1.3910284078611767e-07,-1.4419816575576161e-08,2.1247874180538555e-06,3.4957184976653534e-07,-1.3601677580357155e-07,-1.7494953709109223e-07,-1.7487210343804707e-07,-1.4494219032348824e-07,-1.746683505756428e-07,-1.4463538642892027e-07,-1.778045070480844e-07,-2.4610665088013864e-07,3.792461503893039e-07,-1.5794691214856674e-08,-9.42158441237612e-08,1.8259980047745532e-07,-1.7988061882008244e-07,-2.01920217132854e-07,-1.9855608924769075e-07,8.871086906550425e-05,0.0,0.0,0.0,0.0,0.0,0.0,0.0,0.0,0.0,0.0,0.0,0.0,0.0,0.0,0.0,0.0,0.0,0.0,0.0,0.0,0.0,0.0,0.0
Pinewood74,-0.9999999947362328,8.065873969677987e-07,-9.91640631859525e-07,1.1731176194759939e-07,1.5029877712903147e-07,2.3468464898432326e-07,-3.308121992268816e-08,3.101239233701772e-06,5.072617413852532e-07,-1.8987121545485305e-07,-2.4125451609749433e-07,-2.411465126522061e-07,-2.020329931235233e-07,-2.4086140358799085e-07,-2.0160989531641215e-07,-2.706720354494534e-07,-3.4359850164316683e-07,5.488928935074801e-07,-5.8375046945706945e-08,-1.1219813289498698e-07,2.5417185779774555e-07,-2.4684271186853307e-07,-2.7498026075670507e-07,-2.745463958887082e-07,5.48730895788661e-07,0.00010254050306728552,0.0,0.0,0.0,0.0,0.0,0.0,0.0,0.0,0.0,0.0,0.0,0.0,0.0,0.0,0.0,0.0,0.0,0.0,0.0,0.0,0.0,0.0
GivenToFly164,-0.9999999925866772,4.947939191126284e-07,-4.150836944136802e-07,8.10569906650116e-09,2.035055730689028e-08,7.466076514010731e-08,-6.434079176056086e-09,2.32441742646754e-06,3.635308676750822e-05,-7.533912182041697e-08,-1.8004329371079662e-07,-1.7996446814077903e-07,-1.1404495875103184e-07,-1.797846213429926e-07,-1.1376672875489557e-07,-1.0224160432527853e-07,-2.544199629530648e-07,1.893012528159084e-07,1.7005994878169354e-07,-1.7198659147816065e-07,1.4889197341727502e-07,-1.985260027098467e-07,-2.0259564361239182e-07,-1.7162099023483289e-07,1.7051161552522058e-07,2.299963302751776e-07,0.00011618416589493268,0.0,0.0,0.0,0.0,0.0,0.0,0.0,0.0,0.0,0.0,0.0,0.0,0.0,0.0,0.0,0.0,0.0,0.0,0.0,0.0,0.0
KestrelLowing,0.9999999913047775,-7.940702550809803e-07,1.0328875321455306e-06,-1.218352283080326e-07,-1.5286111140924965e-07,-2.419092196017061e-07,3.6448047035760045e-08,-3.2433105687952663e-06,-9.32235404877047e-05,9.790939445977844e-08,1.3102773162389012e-07,1.3096907401463915e-07,1.0972491249611483e-07,1.308143710336088e-07,1.0949705949911246e-07,9.13156327263814e-08,1.4502104091847843e-07,-1.7895751095930518e-07,-3.281907412878571e-08,6.887815475310362e-08,-9.53064672311513e-08,1.0929141403880932e-07,1.1360867615653683e-07,1.0459501814680131e-07,-1.6792224686933096e-07,-2.128718662188148e-07,-2.9084023485760603e-05,8.85514034448638e-05,0.0,0.0,0.0,0.0,0.0,0.0,0.0,0.0,0.0,0.0,0.0,0.0,0.0,0.0,0.0,0.0,0.0,0.0,0.0,0.0
almightySapling,0.9999999911994514,-3.2362784687454555e-07,1.8841164823859158e-07,2.057522178795021e-08,1.4487077927685589e-08,-2.8043560085496162e-08,5.051914842375234e-09,-1.650085979788699e-06,-3.110769702872665e-05,3.691858601088562e-08,1.452543596319785e-07,1.451893350394432e-07,7.931158627896835e-08,1.4505626972810322e-07,7.909995681610278e-08,5.1541256246712964e-08,2.1846857293840806e-07,-7.27026398621836e-08,-2.0576937349509695e-07,1.5997062749642504e-07,-1.1104281543839348e-07,1.7047056383646636e-07,1.6165526361291087e-07,1.2662287878769923e-07,-7.168508808153775e-08,-1.1108530719174714e-07,-9.95336604884869e-05,-1.796636625490021e-08,8.199568428961903e-05,0.0,0.0,0.0,0.0,0.0,0.0,0.0,0.0,0.0,0.0,0.0,0.0,0.0,0.0,0.0,0.0,0.0,0.0,0.0
feraxil,-0.9999999149288359,-1.312374500270721e-05,2.5655983591823025e-05,-4.696644708199257e-06,-5.763553663842704e-06,-8.10024358642851e-06,2.0935962838117662e-06,-0.00039360925192544384,-6.36774112758827e-07,2.2199721757967369e-07,1.6167588416366323e-07,1.6160350351603703e-07,1.848693966998237e-07,1.613667921061543e-07,1.845357264296618e-07,2.7399458645949957e-05,2.2004907436607868e-07,-7.029812754217255e-05,2.060862766804419e-07,-8.198363898344652e-08,-7.5029815955044e-08,2.110395943327137e-08,3.209039772983287e-08,6.414511557143962e-08,-3.1961369523782456e-07,-3.861024698919498e-07,-2.725551095050885e-07,1.0243254926739609e-07,-6.838899943178298e-10,9.254587077888184e-05,0.0,0.0,0.0,0.0,0.0,0.0,0.0,0.0,0.0,0.0,0.0,0.0,0.0,0.0,0.0,0.0,0.0,0.0
NIkaTheGreat,0.9999999066590093,1.3305847343362485e-05,-2.6103918087011817e-05,4.790014034927994e-06,5.877730534349913e-06,8.264548292791565e-06,-2.1458812717769965e-06,0.00039460506098840077,7.554927958168517e-07,-2.392819919369217e-07,-1.8713773863830756e-07,-1.8705484615917202e-07,-2.0588793863538338e-07,-1.867888411780932e-07,-2.0551005902584686e-07,-2.750063392193048e-05,-2.740940698120329e-07,7.040587485901188e-05,-2.9574087569385945e-07,1.0512925927921332e-07,1.165521775297678e-07,-5.767693486746783e-08,-6.007849596565212e-08,-9.900186621677247e-08,4.20566533627064e-07,5.289377296881571e-07,2.831935396651061e-07,-1.3421104921732846e-07,4.3292318492800225e-08,-9.266407664212236e-05,0.00012521372739948529,0.0,0.0,0.0,0.0,0.0,0.0,0.0,0.0,0.0,0.0,0.0,0.0,0.0,0.0,0.0,0.0,0.0
ChocPineapple,0.9999998408440942,1.843284831768364e-05,-3.6630816206692904e-05,6.784333943584605e-06,8.328643628591386e-06,1.1723753757540343e-05,-3.093844409337467e-06,0.0005292669376913846,1.4926288912391365e-06,-4.241603863410092e-07,-2.6489098386041994e-07,-2.647715065489052e-07,-3.3939567106824534e-07,-2.6435179525726975e-07,-3.388101213520395e-07,-3.685863675809527e-05,-3.54291346421086e-07,9.426612540967296e-05,-8.188977339841481e-07,3.4925824002581017e-07,2.3374448370935413e-07,-7.982731949560198e-08,-6.498330270119545e-08,-1.7599529506298264e-07,1.0104081935420266e-06,1.2686515255770188e-06,8.734260055598786e-07,-3.1969490476921394e-07,-2.5768691160748935e-08,-0.00012378464911623336,4.982233638564455e-07,0.00010329273464301514,0.0,0.0,0.0,0.0,0.0,0.0,0.0,0.0,0.0,0.0,0.0,0.0,0.0,0.0,0.0,0.0
AdminsAreComplicit,-0.9999999908375582,-4.372429832953557e-07,8.058473285260382e-07,-1.416890061322117e-07,-1.6628387603258706e-07,-1.9870666969352683e-07,2.041383261040791e-08,-1.5672151075232134e-06,2.037743438730799e-05,1.2603465367785536e-07,5.085746369695186e-08,5.083380712597238e-08,8.746150522940814e-08,5.07301873828521e-08,8.732760691894398e-08,2.1442222991370839e-07,4.842480763113023e-08,-4.6424823461258195e-07,3.042115571352608e-07,-6.162164803456865e-08,-1.022636549252315e-07,2.8473875207213787e-08,7.878977291021098e-08,1.186432017932591e-07,-3.954963388881655e-07,-4.7159587978570733e-07,6.621213963634964e-05,1.5351566346402837e-07,-5.481146415983255e-05,2.7159885212154705e-07,-1.4245158196472047e-07,-4.7327346768169527e-07,0.00010255127613453768,0.0,0.0,0.0,0.0,0.0,0.0,0.0,0.0,0.0,0.0,0.0,0.0,0.0,0.0,0.0
firesword24,0.9999999856128068,3.7745328826613394e-07,-9.284210452466981e-07,1.917144534160526e-07,2.2249469627398108e-07,2.6387441639059466e-07,-4.643382987094049e-08,1.6302254504567353e-06,-2.038806163784134e-05,-9.25687041416224e-08,1.2270873159090481e-08,1.2265382512756477e-08,-4.32882174063507e-08,1.2300781411848765e-08,-4.325699844411573e-08,-2.392651325221503e-07,1.7735483877646688e-08,4.535758032884939e-07,-3.6926389853903596e-07,1.4619878620640342e-07,5.7365988960121145e-08,2.5654371972689784e-08,5.841249646773027e-09,-4.458876676767197e-08,3.3817855490020573e-07,4.1082981379554816e-07,-6.620478754894626e-05,-1.347132736217172e-07,5.479588572341379e-05,-2.3792805661079363e-07,1.8832554595885954e-07,5.887482202492905e-07,-0.00010251157306091884,0.00010227134373080121,0.0,0.0,0.0,0.0,0.0,0.0,0.0,0.0,0.0,0.0,0.0,0.0,0.0,0.0
Breepop,0.9999999829872938,4.551022006917888e-07,-1.1093664721108316e-06,2.2793009058600028e-07,2.654273211158783e-07,3.220580320454487e-07,-6.179111994019954e-08,2.180157147462289e-06,-2.0331941393508078e-05,-1.0049459706443887e-07,8.007062746439774e-09,8.003481019496968e-09,-4.8294005188092904e-08,8.044564655002492e-09,-4.825259799406059e-08,-2.9770334569668966e-07,-2.8104074989650896e-09,5.340950428826089e-07,-3.9886587571814994e-07,1.598158767841184e-07,7.40731693994288e-08,1.2097922976601915e-08,3.3781213236653816e-10,-5.298632295695252e-08,3.773519856870598e-07,4.679684316831616e-07,-6.619999491100544e-05,-1.4706242796883818e-07,5.4814101325491665e-05,-2.9748238560285363e-07,2.321634426699787e-07,7.803622463514916e-07,-0.00010259073531979765,8.329288948367623e-08,0.00012526769824881988,0.0,0.0,0.0,0.0,0.0,0.0,0.0,0.0,0.0,0.0,0.0,0.0,0.0
sportsballexpert,0.9999999869243777,3.5049944971144455e-07,-8.214032860094129e-07,1.66518347625579e-07,1.9324204510397214e-07,2.2744301172270862e-07,-3.6178322137632866e-08,1.4152944612856442e-06,-2.04146986179001e-05,-9.146756646613996e-08,2.8890877062055368e-09,2.889570245814626e-09,-4.7273541563164744e-08,2.9326412492750443e-09,-4.7228654423671746e-08,-2.12057410805581e-07,1.4354339752022763e-08,4.2123839394680043e-07,-3.4161989009318483e-07,1.226520005795307e-07,5.867373100788058e-08,2.1243988169216868e-08,-8.358489512577963e-09,-5.506560741025867e-08,3.262954928471985e-07,3.9202057165955575e-07,-6.621187004004114e-05,-1.301212567004071e-07,5.4788876948558005e-05,-2.2494103389053245e-07,1.6519475376950253e-07,5.077984735348626e-07,-0.00010247529333384239,4.938450763737995e-08,5.028949543876501e-08,8.85638481557158e-05,0.0,0.0,0.0,0.0,0.0,0.0,0.0,0.0,0.0,0.0,0.0,0.0
DevinGPrice,0.999999982987294,4.5510328274070706e-07,-1.10936583803954e-06,2.2793008964399892e-07,2.654290949713855e-07,3.2205865806968986e-07,-6.179111977234397e-08,2.180156853742813e-06,-2.033193941210591e-05,-1.004896206555995e-07,8.007058802479423e-09,8.00525050370588e-09,-4.829275154727604e-08,8.047223683510073e-09,-4.824884071925643e-08,-2.977045188478075e-07,-2.8104074989650896e-09,5.340959073250257e-07,-3.988648962283889e-07,1.5981838972462387e-07,7.40731693994288e-08,1.2096148951472019e-08,3.39585866070044e-10,-5.298415217121561e-08,3.7735073417973456e-07,4.6796735566384806e-07,-6.619999968489722e-05,-1.4706274711553893e-07,5.481409281989148e-05,-2.9748240818330014e-07,2.3216344810406766e-07,7.803633568123877e-07,-0.00010259073570510212,8.329505728211504e-08,1.0860364034522044e-07,7.106948690380536e-08,0.0001252676305633197,0.0,0.0,0.0,0.0,0.0,0.0,0.0,0.0,0.0,0.0,0.0
Oolongee_Bologna,0.9999999829872938,4.551011186428705e-07,-1.109366482651434e-06,2.2793335021793065e-07,2.654290949713855e-07,3.2205740385951955e-07,-6.179237331196006e-08,2.1801568716633854e-06,-2.0331941393508078e-05,-1.004929385926384e-07,8.006173974469532e-09,8.00347935861241e-09,-4.8294005188092904e-08,8.04722479609836e-09,-4.825134671048656e-08,-2.977056846426283e-07,-2.809780315858871e-09,5.340959088326111e-07,-3.988668534858167e-07,1.598168848959376e-07,7.407228279465066e-08,1.2096149058136802e-08,3.3869865097186527e-10,-5.298632351396205e-08,3.773519856870598e-07,4.6796626625000806e-07,-6.619999777343391e-05,-1.4706211955581974e-07,5.48140978479551e-05,-2.974836030804126e-07,2.3216255883325789e-07,7.803586928295086e-07,-0.00010259073535516472,8.329506377187517e-08,1.0860453838124757e-07,7.10694898758597e-08,1.0847188793671565e-07,0.00012526758405337734,0.0,0.0,0.0,0.0,0.0,0.0,0.0,0.0,0.0,0.0
IrishCreamPied,-0.999999928042097,1.2185883430972053e-06,-1.669759789406746e-06,1.1399330620416552e-07,1.4960963426446602e-07,1.8450537418653106e-07,4.967210672464827e-08,4.889987503325264e-06,2.1642973785258603e-05,-3.8035550611889855e-07,-7.162036550508951e-07,-7.158830339410683e-07,-4.897335314675208e-07,-7.151291358670145e-07,-4.88593331874681e-07,-6.453400421425602e-07,-9.36572532516083e-07,9.156154099900743e-07,2.80265494054237e-07,-3.0780791279623797e-07,3.656863469781106e-07,-7.884660000019328e-07,-4.909692235549735e-07,-3.979204076356763e-07,7.236428110693712e-07,9.112374138388135e-07,6.674286844805165e-05,-3.000175935751468e-07,-5.4774830872986855e-05,-6.055698873200363e-07,-1.0789867770514226e-07,3.623258069352799e-07,0.00010192570339948235,-4.1358352000402207e-07,-4.790117065105052e-07,-4.167728081666584e-07,-4.783610667833893e-07,-4.779478858138723e-07,0.00035435403014296313,0.0,0.0,0.0,0.0,0.0,0.0,0.0,0.0,0.0
sysiphean,0.9999999829596274,7.212440346841592e-07,-1.3834088969669699e-06,2.5261566779826725e-07,2.9814165130827955e-07,3.8892073722996277e-07,-7.173679624560717e-08,2.979061254966128e-06,-2.020890919792817e-05,-1.5017213837109382e-07,-6.04312674704242e-08,-6.040421122702634e-08,-1.0817917336892021e-07,-6.027944155693683e-08,-1.0801670192738012e-07,-3.6593486669572985e-07,-1.0708963383748988e-07,6.786454030712938e-07,-4.505863281985209e-07,1.2160025136977362e-07,1.650361598224625e-07,-4.804182826254109e-08,-1.0329558754026556e-07,-1.626778922520965e-07,5.661443687118356e-07,7.003939955252775e-07,-6.618058290308354e-05,-2.00408110542385e-07,5.490068170792706e-05,-3.748293174994089e-07,2.767870285665544e-07,9.296458371779591e-07,-0.0001028820616509509,1.0263823219197543e-07,1.7451037987098444e-07,6.643741913934868e-08,1.743206033764691e-07,1.74170619514664e-07,-8.810640192987907e-05,8.897376055185345e-05,0.0,0.0,0.0,0.0,0.0,0.0,0.0,0.0
TheLegumeTroubadour,0.9999999672589569,1.3157065617097138e-07,-3.451276591286401e-07,1.1728167010449847e-07,1.287952137424307e-07,1.5833516529332763e-07,-3.7031404879436344e-08,5.510188572174654e-07,-2.071059131080556e-05,2.4277209085642325e-09,2.081475569799291e-07,2.0805437894465568e-07,8.962152835686664e-08,2.078840860549112e-07,8.934231402055664e-08,-4.4887728220134464e-08,2.3489449849027052e-07,2.2610370303785968e-07,-3.582821875479937e-07,1.691104804255784e-07,1.2627025250298215e-08,2.3673415135179001e-07,7.856909870737538e-08,6.042497592695754e-09,1.798103149516391e-07,2.1343730724697788e-07,-6.647218312715447e-05,-4.156064568977384e-08,5.497312991973665e-05,-4.361738457493496e-08,2.3105567301886052e-07,3.7563213005478634e-07,-0.00010279629698097898,2.5616506846072986e-07,3.561435939998382e-07,2.146980785139949e-07,3.557149777848295e-07,3.554079690174215e-07,-0.00017693747909794925,5.34700574229651e-07,0.00012544555260753882,0.0,0.0,0.0,0.0,0.0,0.0,0.0
causeWhyNotMate,-0.9999999593859469,2.216945105756312e-07,-2.1333946418246531e-07,-5.65940873276261e-08,-5.2894597370595885e-08,-5.4954225497332906e-08,3.028672972470788e-08,1.0404462321739323e-06,2.099482939615305e-05,-9.250607422516617e-08,-3.7851755178868396e-07,-3.7834633122543176e-07,-2.0903206980408097e-07,-3.779943326365501e-07,-2.0848017765760388e-07,-1.6714244577781418e-07,-4.5693801513412403e-07,7.5978783333965e-08,3.435073747053841e-07,-2.2252016574453706e-07,8.977759983465786e-08,-4.243620470096624e-07,-2.05645269294171e-07,-1.196824843877813e-07,4.729946784953713e-08,7.451604227820774e-08,6.658459530952859e-05,-5.000811309512102e-08,-5.497580454157875e-05,-1.7168832601947653e-07,-1.9910228351174507e-07,-5.480149391335488e-08,0.0001026692770083824,-3.216101931339488e-07,-4.3009382544223655e-07,-2.8449124811142465e-07,-4.295588744865282e-07,-4.2918616746546553e-07,0.0001772767555787231,-8.838263137749401e-08,-0.00012515284609981715,0.00012528773086660538,0.0,0.0,0.0,0.0,0.0,0.0
Cultist_O,0.9999999751320406,4.889486908560073e-07,-1.0562754657500312e-06,2.1958194164534626e-07,2.5602056536094787e-07,3.2726371912728557e-07,-6.714257884141799e-08,2.764216389097976e-06,-2.035831682848053e-05,-9.030987820306543e-08,1.1653413287370854e-08,1.1648198989235292e-08,-3.987455346202713e-08,1.1679712385999633e-08,-3.9845049850408714e-08,-3.216103799518723e-07,-2.167043068606154e-08,5.914011404332149e-07,-3.465909159737921e-07,1.106269646778717e-07,1.1526748720624006e-07,8.224705215189029e-09,-4.7533537121280204e-08,-9.703207347011768e-08,3.781379322873008e-07,4.838151964859731e-07,-6.630661190336433e-05,-1.3571389778789545e-07,5.487274041521106e-05,-3.935338302466218e-07,2.878410449971614e-07,1.0066284138338962e-06,-0.00010269951715700407,1.7756142056708265e-07,2.3373369883743308e-07,1.425013680607838e-07,2.3345210226629733e-07,2.3324916910499773e-07,-6.306225069183206e-07,3.841756992654431e-08,2.481276295443536e-07,-3.094607425384314e-07,0.00017707179290115315,0.0,0.0,0.0,0.0,0.0
bigman_c,-0.9999999920640562,1.2841940510622542e-06,-1.7514978355934471e-06,2.3714428803982146e-07,2.979695873240766e-07,4.4954183644569326e-07,-7.978533133737038e-08,4.9590972265118175e-06,8.172332874024425e-07,-2.9075653643410674e-07,-3.560578799777796e-07,-3.558984817385169e-07,-3.061353265559983e-07,-3.554698647418543e-07,-3.055045405237383e-07,-4.5426607458380386e-07,-5.172755386847684e-07,8.715858411555486e-07,-1.7580415083295618e-07,-1.2123684783904266e-07,3.825194252959144e-07,-3.615639568434873e-07,-3.9779273253889917e-07,-4.0752619883893036e-07,8.678590061842984e-07,1.0814558422349746e-06,3.613950678539672e-07,-2.8419719408600556e-07,1.495063984207801e-07,-6.352933594725453e-07,2.140932848200535e-07,1.2128390533550512e-06,-8.351259078394781e-07,-7.730041806819021e-08,2.157112905690983e-08,-1.303243969414338e-07,2.1626406580541246e-08,2.1607721285548446e-08,6.250463907537131e-07,1.0591611422191493e-06,5.542049037266673e-07,3.7210962322546124e-07,4.8520014848317875e-08,0.00012582633122893417,0.0,0.0,0.0,0.0
meskarune,-0.9999999843506913,5.416704423509364e-07,-8.073578589371146e-07,1.2420783792871227e-07,1.516495680978e-07,2.024148795537033e-07,-2.524926103077949e-08,6.79175341762119e-07,3.1925441517888693e-07,-1.5745777369191488e-07,-4.674457893536194e-08,-4.6724536105496366e-08,-1.0307434796264565e-07,-4.661350692478218e-08,-1.0292674831823996e-07,-3.8602657638435875e-08,-7.512461964595791e-08,2.417975990290851e-07,-2.0987457071019397e-07,8.407692866637244e-08,9.614785516560806e-08,-1.185850707951672e-08,-5.402417123120009e-08,-9.316229527056621e-08,4.4267941655645675e-07,5.012491008338518e-07,4.0599635268907164e-07,-1.3708157496762696e-07,-1.6154822164210894e-08,2.6408617248547934e-08,1.3196876263782462e-08,-1.772719186048297e-07,-2.4462036372599996e-07,-1.6555821323055775e-07,-1.3271804111974928e-07,-1.5580893233657927e-07,-1.3251462661834407e-07,-1.3240171065477609e-07,3.9720564504355435e-07,3.5517723562857887e-07,1.882849827526942e-07,2.407758626707375e-07,-5.44737158852687e-08,5.44189147737824e-07,0.00017690487378815292,0.0,0.0,0.0
king2ndthe3rd,0.9999999765422717,-8.132430798642216e-07,1.2761084382980864e-06,-1.9324496203844699e-07,-2.342083511160861e-07,-3.074172187826501e-07,3.5140645623462875e-08,-1.2348492603523225e-06,-4.996670268715313e-07,2.3512642640443374e-07,8.734265444959938e-08,8.730354898051957e-08,1.605136629097692e-07,8.712613521177662e-08,1.602684166090775e-07,1.0285622197844541e-07,1.4149250876289314e-07,-3.9679510838155324e-07,3.1712993938333013e-07,-1.292078632000701e-07,-1.4189577511295657e-07,4.5346961177164935e-08,7.969245979009762e-08,1.3475540581358172e-07,-6.522305515847324e-07,-7.447945962225597e-07,-5.809392019184711e-07,2.0765086512898557e-07,1.5916186115314594e-08,-1.6995986482312966e-08,-3.018270853320561e-08,1.9731583495956217e-07,3.800687837535834e-07,2.250081459960497e-07,1.733157567089599e-07,2.1780006859793995e-07,1.730402128613129e-07,1.7289222231243252e-07,-6.612490741217531e-07,-6.09583825709337e-07,-3.1301372894405707e-07,-4.000014712147247e-07,8.719314833165488e-08,-8.179646912359212e-07,-0.0001767545143044159,0.00012516024520110673,0.0,0.0
cullen9,-0.9999998898517445,-1.3858866314768482e-05,2.7363641040646826e-05,-5.046285528567995e-06,-6.192689222794647e-06,-8.715764181712959e-06,2.2842555507516894e-06,-0.00043339944381175466,-2.612637271981013e-07,6.107159121557475e-08,3.244159725853871e-08,3.242707304786843e-08,4.705290077939649e-08,3.237028704952574e-08,4.697318166230396e-08,1.6728564022685347e-07,4.496840153276009e-08,-2.4203778857500227e-07,2.3559149521816583e-07,-8.572134115421189e-08,-7.387988955779385e-08,3.516030920578562e-08,3.175965168831946e-08,5.9018585158609544e-08,-2.635837122875209e-07,-3.4482274166636154e-07,-1.4873171473020347e-07,8.17058276079166e-08,-4.896053086396195e-08,3.219228776922579e-07,-1.78702823841798e-07,-1.1583267678315231e-06,3.1808117047767016e-07,-6.02027105999914e-08,-1.2563648753159427e-07,-2.2446364083946125e-08,-1.2551401298468127e-07,-1.254071847216088e-07,-8.572604637246296e-08,-3.645281935334323e-07,-1.7033390550326195e-07,-9.873472633932112e-08,-1.7002741956789483e-07,-4.478507429851636e-07,2.6244389707493932e-08,6.948948839928771e-10,0.00017712449468599726,0.0
Soccerismylife,-0.9999999716119774,3.6350026746474015e-07,-6.024984278012294e-07,1.1661044907620635e-07,1.3539484315714284e-07,1.351897121601601e-07,3.238802892352645e-09,-1.7330873049428994e-06,2.2392618472573692e-07,-1.6368337726553878e-07,1.2464158067043343e-07,1.2458401534717872e-07,-3.0047263098621884e-08,1.245496446410657e-07,-3.012419803254752e-08,2.2365883741876316e-07,1.6172418140328945e-07,-3.408781397907206e-08,0.00012897194686797535,-9.420253004490528e-05,1.1267860125406545e-08,8.333968396214773e-08,8.961557601344196e-08,3.093441603768114e-08,3.34512889944623e-07,3.765338108948738e-07,3.5300941256293814e-07,-1.0994703174158609e-07,-2.4885509416982902e-08,1.142979554954955e-07,1.3857953107111215e-08,-2.541664322417434e-07,-1.7965900723657014e-07,-1.2871474794323607e-07,-9.911847133225409e-08,-1.223211697525737e-07,-9.896228573392288e-08,-9.887752614922023e-08,4.129599322592459e-07,3.36724199080308e-07,1.6197244699349743e-07,2.571902485225062e-07,-5.803138266378294e-08,4.0012329040145723e-07,-6.703178499218845e-08,1.1198671044669261e-08,4.084485843166962e-08,0.000176814277838
